2
(60,128)
[-5.94781972e-02,3.80962282e-01,-2.57986903e-01,-2.58705825e-01,-3.69335443e-01,-3.11273456e-01,-3.36312532e-01,-1.52380854e-01,4.23260301e-01,1.04492433e-01,1.81911401e-02,-1.16746701e-01,-3.69501412e-01,5.99303603e-01,3.58601332e-01,-8.13479945e-02,1.17245406e-01,-2.07683608e-01,-1.86687922e+00,-7.04231337e-02,-1.03220023e-01,3.73697430e-01,-1.44150689e-01,-8.09591040e-02,-6.78166980e-03,-5.40963560e-03,1.90760985e-01,-3.86043012e-01,-1.95285399e-02,1.59841597e-01,5.67155123e-01,2.02125356e-01,-3.36498767e-01,-1.03850968e-01,8.57037902e-02,2.00668257e-02,8.47191662e-02,2.26956397e-01,-2.98559755e-01,-3.99453074e-01,1.07822806e-01,-1.43147588e-01,2.51893789e-01,-4.44265991e-01,1.71830609e-01,1.06700376e-01,8.02277550e-02,-9.80227664e-02,4.26342010e-01,2.44011302e-02,5.22223890e-01,-2.90893801e-02,1.71559989e-01,2.63311807e-02,2.51076017e-02,1.06163271e-01,-6.41216218e-01,3.83715667e-02,2.55270928e-01,-1.33313863e-02,4.11440313e-01,-1.21000373e+00,-8.60886946e-02,-1.20333806e-01,-3.17765623e-02,-5.08579016e-01,6.28478378e-02,-1.55660614e-01,-2.30975792e-01,-8.46467912e-02,5.50700307e-01,3.78362119e-01,2.02255830e-01,-9.91211981e-02,-1.20610511e+00,-7.69117177e-01,4.99724643e-04,1.14437751e-01,1.88855931e-01,-9.60462391e-02,7.55490661e-02,-6.89054310e-01,-2.22317994e-01,-2.96230048e-01,1.45771801e-01,-5.96932828e-01,3.64870548e-01,5.00521548e-02,3.27482522e-02,1.53100425e-02,-2.67033458e-01,-3.22339013e-02,4.67861831e-01,1.07898489e-01,1.17583282e-01,3.45452338e-01,5.65757230e-02,-5.75621307e-01,1.90390050e-01,-3.28761269e-03,-4.48405296e-01,2.46644258e-01,7.37177432e-01,-1.23451874e-01,-4.11107354e-02,-1.05961882e-01,3.79754186e-01,1.16410404e-01,-2.77971685e-01,4.66297656e-01,1.46487549e-01,1.03283264e-01,5.55385544e-04,6.94001019e-02,-2.31652454e-01,3.14958781e-01,-1.40166089e-01,-2.04016507e-01,-4.27856773e-01,3.92969221e-01,-1.13314958e-02,1.28284246e-01,-2.44032368e-01,-6.95076436e-02,-2.54515797e-01,-4.06661816e-02,-2.77712405e-01,3.65891010e-01]
[-2.77839731e-02,9.38957185e-02,-1.87491620e+00,5.82672022e-02,-3.30029458e-01,-7.49934435e-01,5.37356781e-03,-4.17016089e-01,3.57435524e-01,-1.71610102e-01,4.19539303e-01,1.20232224e-01,4.43980515e-01,4.79754329e-01,2.93036908e-01,-3.50980870e-02,-3.75167966e-01,-1.79607332e-01,-5.40597379e-01,-3.41636799e-02,-8.48095790e-02,7.67378733e-02,7.36577529e-03,3.18027943e-01,-5.96816279e-03,2.23828387e-02,-3.12014166e-02,5.08427955e-02,1.63980126e-02,-7.08058253e-02,-2.55873978e-01,-2.07266107e-01,-6.01851404e-01,-2.64402390e-01,-7.19069084e-03,3.04909915e-01,7.63967708e-02,-7.51871407e-01,-7.36684427e-02,-4.66111265e-02,1.23217285e-01,-5.87268211e-02,-6.23325884e-01,5.93310356e-01,1.73156261e-01,-2.26378273e-02,1.31010637e-01,7.10259750e-03,4.92277116e-01,6.11405432e-01,-5.16829610e-01,-4.29658383e-01,2.78325438e-01,-2.34781623e-01,1.52530640e-01,-1.58899844e-01,7.35185564e-01,1.61721915e-01,-2.07328841e-01,-2.43075341e-02,-4.00104433e-01,3.01478893e-01,-1.93183720e-01,9.34899896e-02,7.41446167e-02,3.18755150e-01,2.29677722e-01,3.60965610e-01,6.07734323e-02,1.94155142e-01,-1.75474569e-01,3.79778326e-01,-1.11620128e-02,4.54227865e-01,-1.07219446e+00,-1.10765532e-01,1.31311230e-02,1.91849500e-01,2.04581767e-01,-1.28849046e-02,-1.67845339e-01,-1.25872836e-01,1.46980166e-01,-9.63591486e-02,1.39199227e-01,-5.69906652e-01,1.70119599e-01,-3.30077946e-01,2.71758050e-01,-1.27353352e-02,-6.07435331e-02,2.10328370e-01,-6.35142982e-01,3.43467832e-01,1.08899035e-01,-2.10485905e-01,1.09115444e-01,8.16204071e-01,-2.44094312e-01,5.82143776e-02,3.01309675e-01,-2.99632579e-01,-6.08111322e-01,-5.41737020e-01,-3.06595594e-01,-7.87326843e-02,-5.71683347e-01,2.22690180e-01,7.28538036e-02,-6.79434061e-01,-3.94305661e-02,-1.61356409e-03,-2.96324730e-01,3.03447098e-01,3.06540966e-01,1.46713272e-01,-1.24328919e-01,-3.48221093e-01,-7.18152523e-02,9.84152332e-02,5.40186048e-01,7.61252046e-02,-6.00638054e-02,-2.97114719e-02,7.47908056e-02,-3.09586003e-02,-2.39701606e-02,-2.53167033e-01]
[0.3009793,-0.16813558,-1.7740346,-0.09477267,-0.5162216,-0.43477458,0.43436852,-0.04289943,0.12002738,0.02483877,-0.2832928,-1.0390891,-0.01015298,0.35018396,-0.36933017,0.0256755,0.15142353,-0.13347025,-0.4906832,0.1880561,0.08584822,-0.06385103,0.45023224,0.1311909,0.11305866,0.03763238,0.3766394,-0.14099252,0.01537937,-0.3723101,-1.6315334,-0.05126255,-0.45722106,-0.30602196,-0.14613134,-0.313183,0.17795558,0.322503,0.43482944,0.14074457,0.24654703,-0.07955483,0.3515782,-0.16653305,0.10571287,0.10292687,-0.00812501,0.07000758,0.25089955,-0.2921311,0.14942431,0.7174265,0.2734203,0.4323687,0.09302602,0.10232604,-0.16329281,0.12910041,-0.35363996,-0.01172069,0.0497127,0.87582093,-0.03670986,0.16606781,-0.28053987,-0.05352272,-0.09391495,-0.13561118,0.43218082,-0.16935639,-0.0287935,0.32150802,-0.36975574,-0.3687786,-0.05187739,0.45892897,-0.08575369,-0.7146528,0.2959207,0.10933468,-0.20559455,0.87467694,-0.39338493,0.1936321,0.09864051,-0.52294177,0.34236425,-0.50003695,-0.10864442,0.04847039,0.22898284,0.00826101,-0.2271098,0.18916537,-0.2421479,0.25711775,0.12603466,-0.8878055,0.09753918,-0.24126737,-0.18727545,-0.24510416,0.18993184,0.47568172,-0.14801016,-0.29212338,0.11638506,0.05082752,-0.26462546,0.592487,0.1419112,0.09450407,0.57075524,0.3472592,-0.43812975,0.22617242,0.64304763,0.0818532,-0.0216647,0.12928642,-0.58727384,0.20036036,0.2066461,-0.196878,-0.39846638,-0.02876673,-0.10575752,-0.27548355]
[7.30971619e-02,-3.80071513e-02,9.51184407e-02,-3.41090798e-01,-7.13060722e-02,-1.68132216e-01,-1.68297306e-01,3.32472146e-01,2.94903845e-01,2.01992169e-01,-1.27877444e-01,7.34518394e-02,-4.65480745e-01,3.76544267e-01,-3.97828370e-01,1.09423317e-01,2.60068983e-01,2.17487626e-02,-4.31189001e-01,-1.87507063e-01,-7.32123032e-02,-9.73607376e-02,-2.76061326e-01,-5.09808622e-02,9.38329622e-02,1.81173813e-03,1.39915362e-01,-3.55324984e-01,7.35285208e-02,-2.25018620e+00,-2.65838087e-01,6.02585934e-02,-4.08707350e-01,-2.44261384e-01,-3.57661657e-02,5.03896177e-01,1.11987323e-01,-2.14699864e-01,-1.42896861e-01,4.27919656e-01,1.04378156e-01,-1.04656979e-01,4.11111146e-01,-2.11692676e-01,8.10231566e-02,-1.66281126e-02,-1.12949319e-01,2.88205504e-01,1.15098916e-01,-2.98745006e-01,-3.05984586e-01,-4.07140046e-01,5.95480986e-02,-1.71733290e-01,-2.93447413e-02,7.31010213e-02,-4.85001147e-01,8.98231044e-02,4.67787653e-01,9.61217470e-03,-1.01447493e-01,1.68564975e-01,-1.89908966e-02,-1.67371705e-02,1.58300996e-02,-4.94079530e-01,-5.49007595e-01,-7.07568750e-02,-1.23055115e-01,-2.08052807e-02,-5.17104566e-01,3.86233985e-01,4.03234474e-02,-1.04177013e-01,1.22727469e-01,1.20940134e-01,-1.62900910e-01,6.94791615e-01,2.23992392e-01,1.37774855e-01,4.85911220e-01,-1.61000669e-01,1.13125876e-01,5.71561813e-01,1.60986766e-01,-3.54259193e-01,3.46952885e-01,3.32835801e-02,-3.20550323e-01,2.96857506e-01,3.06263745e-01,-1.78224638e-01,2.25892276e-01,-1.83553502e-01,1.04286686e-01,2.51325488e-01,-3.29879932e-02,1.12138760e+00,-5.39498389e-01,1.15772374e-01,4.12110537e-01,6.60149634e-01,3.62749472e-02,5.48097789e-01,-1.61161870e-01,8.13545138e-02,-7.69720748e-02,1.08647980e-01,-3.44767541e-01,-4.62219447e-01,2.10307077e-01,1.55221686e-01,-6.41837895e-01,2.40954414e-01,2.40441859e-01,8.15729722e-02,-5.19166052e-01,8.79087821e-02,1.70988500e-01,-8.06740001e-02,-5.38640857e-01,1.48382574e-01,-4.53355238e-02,6.39958680e-02,-1.60913423e-01,-3.62265930e-02,-1.52721331e-01,3.96399379e-01]
[1.3608328e-01,-2.1261042e-01,2.1812330e-01,5.2464801e-01,1.4424998e-01,1.1952856e-01,-4.9975879e-02,1.7963919e-01,1.9054082e-01,-2.4571803e-01,-1.4282125e-01,-6.5269738e-02,1.0263282e-01,9.3488380e-02,4.2918870e-01,2.7828100e-01,3.9244840e-01,-9.7938450e-03,-1.5635620e-01,2.4283160e-01,3.6442453e-01,-1.1780689e-01,-1.7000102e-01,5.5188574e-02,-6.9559805e-02,4.1134916e-02,-5.7014632e-01,2.8510696e-01,1.1631172e-01,-2.7061872e+00,3.3098873e-01,-2.7378529e-01,-3.3340803e-01,4.1501779e-02,-1.7850317e-01,-8.2194060e-02,-5.2739191e-01,-2.9586059e-01,-1.9416772e-01,1.9133937e-01,1.7573324e-01,-8.8836923e-02,-3.5430345e-01,1.9517082e-01,-4.7058649e-02,-8.2598463e-02,-1.0685823e-01,-5.8283240e-01,2.1991040e-01,-1.8680811e-01,6.9770700e-01,5.8282858e-01,1.2807246e-01,-4.2263302e-01,-2.2802508e-02,3.1412318e-01,9.8908418e-01,8.6426400e-02,-2.6783651e-01,-3.0991766e-03,-1.3678108e-01,-7.6669842e-01,-8.8581502e-02,-1.4931287e-01,3.7962350e-01,5.8530122e-01,6.6862583e-01,-1.3430384e-01,-3.1603521e-01,-1.9111007e-01,3.4633699e-01,1.5722217e-01,-2.2019404e-01,2.1013091e-03,1.7392799e-01,2.6570180e-01,5.9284329e-01,-5.4830140e-01,7.3761135e-02,1.5290532e-01,2.7332690e-01,-7.7839419e-03,9.2205256e-03,-1.3907284e-01,5.6677692e-02,-1.9035856e-01,3.5594100e-01,-5.4589665e-01,-1.9065814e-01,-2.3619266e-01,-5.1614064e-01,-2.1448085e-01,2.6274270e-01,-6.4870022e-02,-6.1507411e-02,-3.4218761e-01,-1.6020091e-01,-4.3008256e-01,-4.2551994e-02,-1.0859247e-01,-6.7646116e-01,4.5852214e-02,3.7370339e-01,4.3914351e-01,-1.3926949e-01,2.9446954e-01,-1.6609214e-01,5.7937624e-03,-5.3955013e-01,1.0812236e-01,-7.5514868e-02,1.8338257e-01,-1.5422834e-01,3.5384089e-02,2.1082847e-01,2.8891820e-01,-1.4306758e-01,-3.5043821e-01,-3.5542990e-03,-1.9718030e-02,1.8178698e-01,1.2034242e-01,3.5249612e-01,-1.3275443e-01,-8.4453681e-03,-3.4266356e-02,9.5174417e-02,-3.7329713e-01]
[-1.62500739e-01,5.98883107e-02,5.90847693e-02,-4.94860291e-01,1.51503965e-01,-2.77371496e-01,-1.30091354e-01,-4.46935669e-02,2.64810681e-01,-7.39363730e-02,-1.76057890e-01,-1.73967510e-01,3.30774546e-01,-1.02757454e-01,3.51283550e-01,1.59529686e-01,1.85063593e-02,6.25988692e-02,2.52099168e-02,-2.47868702e-01,4.43710268e-01,-2.38227576e-01,1.30286053e-01,7.66596794e-02,6.89407736e-02,2.58385744e-02,-4.53217089e-01,2.79485762e-01,1.54905036e-01,-2.45767355e-01,1.99001998e-01,3.29467654e-01,-4.05577064e-01,2.15606764e-02,-1.62097946e-01,-2.06721440e-01,-2.98537636e+00,7.68227637e-01,-1.74554110e-01,2.34788969e-01,1.70343891e-01,-8.34779069e-02,-5.91233730e-01,4.93437618e-01,3.96227315e-02,5.78108765e-02,-4.85440940e-02,1.86650455e-01,-8.29350352e-02,1.57534331e-01,-3.24915141e-01,-5.50812483e-01,1.27879426e-01,3.08093689e-02,-2.36988384e-02,3.98729771e-01,-7.39029825e-01,2.25855127e-01,4.08822209e-01,-1.82005782e-02,-3.23128104e-01,2.59389162e-01,-2.07590058e-01,-1.72279119e-01,2.84166336e-01,1.98132947e-01,-8.02555203e-01,2.11023018e-01,2.41436274e-03,-2.88142920e-01,2.31174394e-01,2.15939984e-01,-3.25175613e-01,6.60280585e-02,1.19206272e-01,3.35183084e-01,1.40391812e-01,4.62451160e-01,1.90172344e-01,2.53678083e-01,6.87357485e-02,-1.26055673e-01,-1.34262502e-01,1.60502285e-01,9.16490257e-02,-2.48175308e-01,5.81358075e-01,4.09906477e-01,-1.60715774e-01,4.51246575e-02,-5.76493442e-02,-1.89663276e-01,2.33354475e-02,-1.70320436e-01,-1.03053175e-01,2.22531050e-01,8.41908008e-02,-5.72406016e-02,2.11289540e-01,-3.69778872e-02,6.65584147e-01,-4.93880421e-01,-4.71931070e-01,-2.41433293e-01,-1.32903770e-01,-5.22182584e-01,2.67166764e-01,4.51622754e-02,-2.55659729e-01,-3.35876018e-01,-4.29795206e-01,3.25492471e-02,8.81330729e-01,8.42978507e-02,-3.92161250e-01,-6.78966761e-01,3.62293988e-01,-3.75822812e-01,-5.38612828e-02,3.19361314e-02,5.60083985e-02,1.53314844e-01,-2.25174856e+00,-1.60437655e-02,3.03044412e-02,-3.31361182e-02,-1.88476220e-01,-1.69684231e-01]
[-0.17529179,-0.03971429,0.32378948,0.1523399,-0.21436238,-0.0824489,-0.03668027,0.04514611,0.4245429,0.5386141,0.7331172,-0.12052289,-0.13539797,0.25492096,-0.86594164,0.2708622,-0.30000812,0.23895669,-0.18071422,0.10733119,-0.1709624,-0.34476852,-0.48531985,0.01149898,0.13854668,-0.00418251,0.28537673,0.13336189,0.22487149,0.26290646,0.08073892,-0.30060488,-0.30417567,0.11308429,-0.12165602,-0.21096204,-2.0755522,-0.24070844,0.17563935,0.05742485,-0.02688707,-0.12074746,0.73490673,-0.35325724,0.08304562,-0.22505146,0.17355776,-0.02564332,0.0631129,-0.24709569,-0.39075944,-0.26817757,-0.12944447,0.24381529,0.04398475,-0.06211169,0.20687485,0.21475591,-0.6663712,-0.00642756,0.28313679,-0.12671135,-0.20638964,0.39177442,0.22558914,0.08290295,0.5215896,-0.23821543,-0.19831496,-0.00745284,-0.69720703,0.21572898,0.41160646,-0.5241741,0.05585991,0.19839723,-0.06477197,0.21151958,0.15010993,0.25413403,-0.3772575,0.44548696,0.26661953,-0.44407547,0.02678668,-0.22162786,0.34464258,-0.34572843,-0.41151655,0.13822752,-0.06568519,-0.11460914,-0.28965473,0.03097939,0.12656952,0.14630105,0.3831768,-0.6455791,0.26088822,-0.05278679,0.02918849,-0.07418345,-0.05637595,-1.0085864,-0.14725384,0.29630506,-0.5858857,0.0939792,-0.42471468,0.31914893,0.21898687,0.24736126,-0.47660652,0.03269761,0.12873894,0.5379502,0.17903371,-0.06773996,0.00689539,-0.0295333,-0.06635449,0.10463205,0.16672644,0.01814751,-0.02292701,-0.0165813,-0.13333167,0.60254717]
[-0.18771948,0.05303449,0.6310571,-0.27043602,-0.03823072,-0.0830671,0.03581788,-0.06730016,0.56047916,-0.376227,-0.22670467,0.2753778,0.06319141,0.24731365,-1.0976597,0.16161121,-0.39414203,0.24588981,-0.04503296,-0.0945582,0.00693971,-0.31128585,0.55723155,-0.0536471,0.34286594,0.02623953,0.7170736,0.08561102,0.19395593,0.18316583,-0.8606976,-0.00668001,-0.48620105,0.32957414,-0.391704,0.22797549,-0.34471455,-0.05274443,-0.12043525,-0.35604244,0.11427118,-0.10821223,-0.39483237,0.44267341,0.03684773,-0.00327162,0.18018314,-0.19254537,0.28485656,-0.622547,0.23291978,0.6013998,-0.20230097,-0.09984794,0.11633246,-1.2165005,-0.43983293,0.12348925,-0.11041057,-0.01010392,-0.02796227,-0.9592602,-0.46658123,0.34158972,-0.6814356,-0.3173691,0.02060926,0.39628586,0.15336372,0.14228942,0.24204686,0.3760246,-0.0612552,0.09183809,-0.03827482,-0.36085716,-0.14380597,-0.30654585,0.08918019,0.23228045,0.17632465,0.00966331,0.4872219,-0.25056738,-0.03277288,0.03232152,0.3708277,0.04050404,0.18724789,-0.1982061,0.3607073,-0.08186303,0.23025593,-0.00888298,-0.0811585,-0.11385829,0.19775529,0.79890543,-0.3469888,-0.0035746,-0.63727486,0.22089332,0.09491801,-0.18483469,-0.20888194,-0.18633395,1.0344772,0.17346437,-0.13088593,-0.57320046,-0.48746896,0.1539584,0.40180206,0.24441442,0.06499639,-0.53538364,-0.16752578,-0.44066772,0.03154505,0.04481306,0.15986383,-0.01705521,-0.01423508,-0.12831372,0.02628293,-0.02776795,0.06483786,-0.34482342]
[0.12852536,-0.01382004,0.35787022,0.0096377,0.20829043,-0.04713689,0.11580405,-0.03486542,0.43711528,-0.15490583,-0.68229216,-0.11498333,-0.0190543,-0.11935918,0.08379997,0.17416462,-0.45187268,-0.03881858,0.31225407,-0.11922292,0.58447546,-0.12873276,-0.2488853,-0.08692612,0.28011167,0.00952529,0.4146398,0.07437707,0.1527857,0.14505354,-1.091587,0.08935907,-0.47568035,0.2394267,-0.06958777,0.15002137,-0.10305578,0.3266447,0.00273616,-0.06604783,0.21751353,-0.11001535,0.18507345,-0.6484909,0.01348358,0.05470872,0.13999091,0.29536527,-0.07915394,0.34792605,-0.08642908,-0.45157644,-0.8569294,-0.05737251,0.21140188,-0.8018298,0.5560263,0.07332698,0.39306888,0.0060365,-0.43066457,0.20566052,-0.21770886,-0.10144489,0.59321815,0.22966361,0.09245372,-0.5356413,-0.14905246,0.09174313,0.667027,0.17993984,-0.23656815,0.47866598,-0.08033697,-0.87850916,0.07564312,-0.21104474,0.08279183,0.28698465,-0.6484588,-0.6715916,-0.5306801,0.8329687,0.02650355,-0.03438139,0.24648917,-1.6732666,0.49619186,-0.1027137,-0.36886975,-0.04692613,-0.121898,-0.15974177,-0.27673802,-0.00840557,0.03852083,-0.3448858,0.32282934,-0.11048118,0.5660873,0.70648676,-0.05216843,0.41801265,-0.32802412,0.05678469,-0.61022925,0.1214157,-0.3916569,0.7426643,-0.29618016,0.20686471,-0.48344424,0.1062497,0.02087444,0.35421327,-0.04863111,-0.30348793,-0.26958674,0.15784413,0.2780583,-0.24664164,-0.21920645,-0.05856201,0.19259448,-0.0294043,0.22954948,0.02155386]
[-8.09001997e-02,-1.70223281e-01,3.64894792e-02,-2.23146006e-02,-1.06413513e-01,2.49984071e-01,-1.75714821e-01,-9.84078199e-02,1.27019137e-01,-1.46888614e-01,7.80704319e-01,-4.55268532e-01,2.82266866e-02,-3.67456526e-01,7.50734746e-01,1.45896405e-01,2.29409575e-01,-1.00985691e-02,7.99753144e-02,-3.70989516e-02,4.01413321e-01,-2.25868955e-01,4.92036372e-01,3.89411822e-02,2.65606791e-01,1.13963885e-02,-3.35830413e-02,1.44226864e-01,7.17604980e-02,8.15067142e-02,-9.00370032e-02,-2.12932512e-01,-3.44556183e-01,2.17210382e-01,-1.87778138e-02,-1.08550638e-01,3.16925719e-02,-7.38618970e-01,-2.63597537e-02,-2.40112725e-03,2.78287143e-01,-1.08001411e-01,-2.47770265e-01,5.78936100e-01,1.24174513e-01,1.20769635e-01,-2.95374449e-02,-1.79101884e-01,-2.57863998e-01,1.70442805e-01,1.29759654e-01,5.63927405e-02,-2.45978069e+00,3.11707910e-02,1.92642823e-01,-1.66278616e-01,-3.19068521e-01,-7.39033222e-02,7.95659944e-02,-1.37740094e-02,4.60455060e-01,9.15008366e-01,-3.75671029e-01,-3.11520427e-01,9.26588550e-02,-1.35252565e-01,1.46943435e-01,3.66047561e-01,-2.99834967e-01,-6.92477599e-02,-1.10500479e+00,-6.37919754e-02,2.78002173e-01,-9.63233411e-01,-1.76841840e-01,-3.44609588e-01,2.91884303e-01,5.26756525e-01,1.46121219e-01,5.60046174e-02,2.19256669e-01,-3.94582748e-01,-4.39982533e-01,-2.91635007e-01,-3.23345549e-02,-8.83809030e-02,4.33844239e-01,3.38311225e-01,8.65225196e-01,1.55334517e-01,-1.12831071e-01,-1.81546375e-01,1.51190341e-01,-4.69826831e-04,-9.81421098e-02,1.17671259e-01,1.28326759e-01,-4.52785254e-01,-1.06739350e-01,4.18929122e-02,-3.51682127e-01,-3.24453294e-01,2.89033175e-01,4.83798116e-01,-1.34742603e-01,-1.14386298e-01,3.67684156e-01,1.58100367e-01,-8.21926296e-01,-5.58692753e-01,-1.78471580e-01,1.95696950e-01,1.47504821e-01,3.42571944e-01,8.33581090e-02,-2.92511642e-01,-2.23826751e-01,-5.11729836e-01,-3.59803408e-01,1.13218904e-01,-1.73297048e-01,-1.03988275e-01,-2.12730132e-02,5.04471455e-03,-2.14843657e-02,-2.61479989e-02,1.14636287e-01,-7.32269958e-02]
[0.34607613,-0.14138052,-0.24067152,0.09435017,-0.11002523,0.36340123,-0.5612072,-0.19185187,0.46118346,0.32304248,-0.0988626,0.5600291,0.25714284,-0.01856148,0.04951085,-0.06149996,0.6762677,-0.00975415,-0.06712434,-0.10030579,0.13469444,-0.04674705,-0.51327217,0.01808827,0.04288895,-0.01993949,0.1079368,-0.13092838,0.00998181,0.06416047,0.24359207,0.13394359,-1.0876333,0.06081118,-0.11048622,0.08416709,0.25788912,0.08095218,-0.48859358,0.00617291,0.26518083,-0.09836172,0.2741921,-0.17904091,0.14349248,-0.0402439,0.05691529,0.05912079,-0.15921783,-0.28642163,-0.093856,-0.28039864,-2.3683653,0.25287434,0.13955134,0.5716527,0.05361803,-0.07372668,-0.1960596,-0.01593362,0.13447972,0.15311916,-0.43981174,-0.2830444,-0.3439535,-0.4901031,-0.48033243,-0.29478315,1.2283146,0.00282425,0.16567004,-0.5813745,-0.33970013,0.91054815,0.13602307,0.2833365,0.05198245,-0.6841575,0.20403707,-0.14645246,0.03700815,0.5894108,0.8551794,-0.7447837,-0.0369569,-0.04642132,0.5626978,0.40334272,0.23995161,-0.29466793,-0.2663889,0.10093342,-0.26413772,0.11703444,0.09858917,-0.04159854,0.08316263,0.45084593,-0.00929391,-0.04560945,-0.04946973,-0.41458154,0.26302028,-0.23131518,-0.12712894,-0.10090676,-0.46484354,0.21224016,-0.10743295,0.2713568,-0.13895576,0.16840509,0.04123586,0.31479314,-0.28302407,0.12543657,0.09766386,-0.37270945,0.09684543,0.0310792,-0.16220751,0.04508401,0.01518139,-0.04037604,-0.73235047,-0.03251665,0.01086777,0.22908728]
[2.09265858e-01,7.90336877e-02,1.41830653e-01,-3.95322710e-01,-1.76053628e-01,3.21107030e-01,-4.51617539e-01,-1.73394725e-01,4.85673875e-01,-3.23406398e-01,2.20106110e-01,-2.28527814e-01,-2.72054613e-01,7.10310936e-02,-3.98553640e-01,-7.35250637e-02,-1.31576091e-01,-2.43164003e-01,-2.82551855e-01,1.08520978e-03,1.27634585e-01,-2.77929217e-01,4.53432262e-01,4.67981920e-02,1.00583375e-01,-1.63827911e-02,2.31715620e-01,1.45065889e-01,-1.04978397e-01,6.42854869e-02,-1.58674702e-01,-2.27628753e-01,-2.24662587e-01,1.01202682e-01,2.94612683e-02,9.77211967e-02,1.69246271e-01,6.33451879e-01,6.63377106e-01,2.04794720e-01,7.17832670e-02,-1.20792136e-01,-6.48474038e-01,-5.05258083e-01,5.84872998e-02,3.85009460e-02,2.22604230e-01,1.08393960e-01,1.49810791e-01,2.71878392e-01,1.89591363e-01,4.32936400e-01,-1.95467204e-01,-2.61252195e-01,6.20114766e-02,4.49231029e-01,1.96944073e-01,1.42470524e-01,-2.33868472e-02,-1.77697949e-02,-3.48173529e-01,-3.85583401e-01,-4.44034308e-01,-3.94123405e-01,-1.24884620e-01,3.89661044e-01,9.23535898e-02,-1.82925731e-01,-4.33385134e-01,-2.28036657e-01,7.37604320e-01,-2.82085156e+00,3.82834017e-01,-2.45886162e-01,1.33487538e-01,3.42652321e-01,-7.81661153e-01,5.99320233e-01,5.89724816e-02,-1.54898405e-01,1.17906794e-01,-4.98585179e-02,-5.58712661e-01,2.02148587e-01,1.76948011e-01,-1.66471213e-01,4.24430043e-01,1.24797203e-01,-5.40993027e-02,4.56157029e-01,4.58150417e-01,1.25502035e-01,7.17178434e-02,6.16919026e-02,1.73588112e-01,-7.33808428e-02,-5.25622591e-02,-2.79954284e-01,8.52892473e-02,3.63764651e-02,9.06941518e-02,-3.07636112e-01,-3.39271538e-02,-5.10051489e-01,-5.64773418e-02,2.48026922e-02,5.02024405e-02,2.18681008e-01,-9.89272296e-02,-3.44987929e-01,3.28575045e-01,2.11641733e-02,-5.98822594e-01,3.65729839e-01,4.70093668e-01,-3.39299381e-01,-1.36661321e-01,7.78644383e-02,3.35532390e-02,1.35848224e-01,-4.24433887e-01,3.03815097e-01,9.92573574e-02,-2.74931714e-02,-4.79004741e-01,-4.08976339e-02,-3.96657288e-02,-3.83075565e-01]
[-1.7590126e-01,2.7304965e-01,3.4098217e-01,2.9404932e-01,-1.2615007e-01,-1.6011065e-01,5.9181303e-01,-3.8751653e-01,-1.1323233e-01,2.7480552e-01,-4.0061203e-01,-4.2779371e-01,1.4027621e-01,2.2913411e-01,3.1852180e-01,6.8656527e-02,-8.0982727e-01,-7.7368901e-03,-2.3181146e-01,-1.8284297e-01,1.5205142e-01,-1.5792476e-01,-6.2565202e-01,1.3209918e-01,6.5092742e-02,-4.3030262e-02,-2.9475519e-01,2.1092568e-01,2.7597388e-02,1.5341926e-01,2.5339594e-02,-3.3071404e-04,-2.5281748e-01,-5.1607084e-02,2.5803400e-02,4.6436921e-01,1.0160750e-02,-7.8831321e-01,-1.7437434e-01,1.4188462e-01,9.5168553e-02,-1.0569051e-01,2.9908955e-01,8.5158598e-01,-4.0125348e-02,1.6757131e-01,1.5605231e-01,-1.9448137e-01,4.6266004e-02,1.8715948e-01,-6.6699398e-01,-7.1049653e-02,3.2965533e-02,-2.2605161e-01,1.0848217e-01,2.2123672e-01,2.1144319e-02,3.9230675e-01,-4.0820083e-03,-3.3009987e-02,1.7660932e-01,-3.8788739e-01,-4.9794400e-01,-5.9206975e-01,2.4459976e-01,-1.0149499e-01,-1.2343815e-01,3.0533701e-01,-8.6167850e-02,-1.6381921e-01,-2.6813468e-01,-9.4261879e-01,-4.9474558e-01,-7.6404147e-02,2.1868932e-01,-1.0968839e-01,-1.0164115e+00,-2.4904837e-01,-1.8647145e-02,-8.1481427e-01,-3.0782872e-01,3.0487004e-01,-4.0773040e-01,4.9130884e-01,4.6302460e-02,-3.1459320e-01,3.3900774e-01,8.2730360e-02,-3.8805446e-01,-6.7350976e-03,-1.3204016e-01,3.3479460e-02,1.3580145e-01,1.8848933e-01,8.4712887e-03,-8.1404889e-01,-3.8897982e-01,-1.0758087e-01,-2.3550256e-01,-7.1275197e-02,-4.5744997e-01,5.9495068e-01,-2.9162902e-01,2.3803832e-01,-2.0079628e-01,-5.8785740e-02,1.0085268e-01,3.4630969e-01,-6.6054118e-01,5.9371674e-01,-3.2904927e-02,7.7922851e-02,5.0874537e-01,3.2412326e-01,-2.0299563e-01,-3.1430903e-01,-8.3718009e-02,3.3044803e-01,1.2901638e-01,1.6787454e-01,5.7469323e-02,3.2724890e-01,8.3242871e-02,6.6220179e-02,-6.0065520e-01,-2.7899198e-02,1.9284604e-01,7.1656674e-01]
[-2.28759795e-01,1.85836226e-01,2.33170807e-01,-3.94266486e-01,-2.19143972e-01,-1.03585041e+00,-9.64643583e-02,3.72233957e-01,1.75624358e-04,-4.74726297e-02,8.58736485e-02,2.80256476e-02,3.13075364e-01,2.27147788e-01,8.93976033e-01,1.72262251e-01,-5.34622192e-01,4.79076087e-01,-7.08032474e-02,4.14418370e-01,-4.92336340e-02,-3.08286756e-01,6.70860946e-01,-1.64123625e-01,1.16182193e-01,4.46998095e-03,5.49135171e-03,2.61037946e-01,1.43249139e-01,2.02857152e-01,-1.60327479e-01,-2.59022806e-02,-5.37018329e-02,-6.24728017e-02,7.62032270e-02,-2.66825527e-01,6.27003089e-02,1.80462077e-01,-3.70794907e-02,2.99851328e-01,1.51569173e-01,-1.27806664e-01,2.10919082e-01,-6.61824405e-01,2.67662629e-02,1.85327619e-01,2.00718120e-01,-2.36589238e-01,8.30094516e-02,-4.59216624e-01,1.69306278e-01,-3.28377932e-01,-2.30865320e-03,-5.60723953e-02,5.52937761e-02,-9.72217098e-02,7.77865062e-03,9.88534242e-02,-1.33311331e-01,-7.70005537e-03,-6.13448858e-01,1.10918641e-01,-3.72358114e-01,-2.05699690e-02,3.72330099e-01,-8.17811728e-01,1.51973963e-01,-1.81299672e-01,-3.72409821e-01,-4.76069421e-01,-3.37392718e-01,-8.46160427e-02,3.82290542e-01,-1.01427488e-01,3.67911384e-02,-3.53699714e-01,6.81204423e-02,-2.45999694e-01,1.22667499e-01,-2.37761021e+00,-1.81358948e-01,1.63501665e-01,3.73921871e-01,-3.12098384e-01,4.33688313e-02,-1.32676363e-01,4.28212136e-01,-7.31156111e-01,-9.58486140e-01,1.98116198e-01,-3.19303930e-01,1.86053291e-02,4.24565040e-02,1.14861250e-01,1.00285806e-01,-1.15539439e-01,-3.98326367e-02,2.36256167e-01,4.74300683e-01,2.35993844e-02,7.93844044e-01,-1.49818495e-01,8.64739001e-01,2.60325968e-01,1.12154409e-02,8.15689787e-02,-6.14312887e-02,8.96958262e-02,-6.79434299e-01,-6.77193224e-01,-3.05195395e-02,5.71409315e-02,1.59191862e-01,1.26181990e-01,-2.33799919e-01,3.18382867e-02,-6.58473819e-02,-2.09609985e-01,1.25178933e-01,8.77168030e-02,3.69298786e-01,2.93887198e-01,3.99120390e-01,7.92560820e-03,2.37776652e-01,-3.65497991e-02,-6.20555282e-02,-7.45506465e-01]
[0.29834536,0.04888181,0.08977555,0.6388729,0.03549193,-1.2749243,0.05918298,0.7256229,0.03165796,0.2389873,-0.27838665,0.25578773,-0.14689349,0.13578713,0.04148165,0.29118168,0.3893383,0.37466165,0.19427374,-0.21915755,0.05024815,-0.19718014,-0.44550228,-0.04683685,0.13799368,-0.02442642,-0.05922085,0.09817524,0.016512,0.07876277,0.01239815,-0.19275062,-0.3536664,0.08764053,-0.2315852,-0.02721044,0.11825183,0.5970178,-0.06706294,0.10398197,0.2524181,-0.10591438,-0.6571482,-0.10698201,-0.17363432,0.0457621,-0.45857695,0.4444219,0.13525201,-0.7514538,-0.26297942,0.06769767,0.24943598,0.36265224,-0.0069918,-0.23956686,-0.55951136,-0.01777538,0.02594168,-0.01845826,0.3512108,-0.02057309,-0.6827136,0.04782121,-0.74244374,0.918804,0.33924812,0.3055201,0.6534975,-0.2229613,-0.18374734,0.11202827,-0.19553787,0.06008796,0.06336588,-0.52029616,0.39678732,0.5727835,0.16857341,-2.461434,0.34548512,-0.00337442,-0.21874723,0.01700861,0.00495866,0.04003387,0.52691036,-1.709517,0.18440908,0.02758172,-0.07439923,-0.02948655,0.07531209,0.17677814,-0.12675801,0.49912822,0.1526711,0.03736553,-0.4982793,-0.10179637,-0.57245725,-0.48805296,-0.11272298,-0.04827273,0.03993307,-0.22159259,-0.32320955,0.03505603,-0.925545,0.61804056,-0.05693655,-0.14136489,-0.22525807,-0.05964124,0.3963638,-0.03224723,-0.31825328,-0.69547606,-0.22353469,-0.11670285,-0.2058754,0.15814333,-0.5507211,-0.01238113,0.32159394,-0.0289188,-0.19639167,0.14844254]
[5.52262180e-02,-7.76079372e-02,2.27890741e-02,-3.40330780e-01,-4.45438037e-03,-6.21723711e-01,-3.75337183e-01,3.89485538e-01,1.39184430e-01,-2.14857116e-01,2.30632335e-01,-1.32219970e-01,-1.74845845e-01,1.19668813e-02,-4.62799609e-01,2.33875141e-01,4.10569042e-01,-1.28810823e-01,1.42452255e-01,-2.33951397e-02,3.08801502e-01,-1.14016719e-01,5.57413958e-02,3.20063531e-02,1.40116438e-01,-2.21173037e-02,-3.15658092e-01,1.29652426e-01,1.49974748e-01,1.76820353e-01,-8.45470056e-02,2.42223248e-01,-4.82836604e-01,3.90063636e-02,-8.11613500e-02,2.32824698e-01,2.38966599e-01,-7.72216618e-01,4.40895520e-02,1.08271586e-02,2.20901936e-01,-6.92244470e-02,3.97439897e-01,6.92319572e-01,1.23763449e-01,-7.87976310e-02,-3.50181365e+00,-3.83974463e-01,5.00648357e-02,6.72665715e-01,7.40112066e-02,1.46626234e-01,2.51561791e-01,-2.70432204e-01,6.44323379e-02,1.25991330e-01,3.41849178e-02,6.00672886e-02,1.23212479e-01,-4.51025832e-03,1.43459067e-01,-2.93310225e-01,-4.57434535e-01,-4.40739132e-02,3.76439124e-01,2.36827508e-01,-3.90451849e-01,-3.28917265e-01,-7.33116031e-01,3.11958641e-02,1.77549586e-01,-4.90300842e-02,2.65888184e-01,-8.71035010e-02,1.86679319e-01,-1.73940063e-01,-5.62430263e-01,-6.38112664e-01,1.90737426e-01,-1.98045745e-01,2.17698261e-01,-2.83435076e-01,4.57764685e-01,-5.61436303e-02,-7.87220672e-02,-9.77977514e-02,5.05595803e-01,-1.06495333e+00,3.75474215e-01,-2.09282294e-01,7.49094367e-01,3.61093909e-01,-4.68530357e-02,1.77731305e-01,-2.72663206e-01,3.42579573e-01,-1.02072628e-03,8.55764896e-02,7.51803517e-01,-2.39594802e-01,3.24062198e-01,-1.81844547e-01,1.96263846e-02,-9.07869358e-03,1.00878380e-01,3.28510478e-02,1.79385021e-02,5.84874637e-02,-5.66798031e-01,-3.41226041e-01,-1.40998825e-01,-6.06697083e-01,-5.26975632e-01,1.08183086e-01,-3.38490069e-01,1.67551026e-01,6.63354874e-01,8.13870579e-02,-1.06549278e-01,-1.99791029e-01,-4.96790409e-01,1.68511376e-01,3.02053541e-01,-5.20542823e-02,2.75464535e-01,-3.77032757e-02,-1.26666516e-01,2.46134132e-01]
[-8.48860800e-01,-2.95502245e-01,-2.89235357e-02,-1.07987307e-01,-1.35586575e-01,2.90278465e-01,1.49741501e-01,1.45376474e-02,3.59989524e-01,-4.25970815e-02,5.05648777e-02,-2.30238840e-01,1.96295291e-01,-1.80835456e-01,-2.12961897e-01,2.49686912e-01,1.59302458e-01,-1.21687382e-01,2.59679437e-01,-2.02805832e-01,1.14786014e-01,-5.03098592e-02,1.42428547e-01,-9.70545784e-02,1.23966783e-01,-1.14523262e-01,6.26804307e-02,-1.05332173e-01,1.50212675e-01,4.51325066e-02,1.47789484e-03,-9.38594639e-02,-7.67092884e-01,8.89438465e-02,2.13584617e-01,8.30260217e-02,1.97469071e-01,4.49943930e-01,-6.30025715e-02,5.42055182e-02,2.85643011e-01,-1.33424878e-01,2.60775268e-01,-7.73938358e-01,4.93551902e-02,-1.08310230e-01,-2.77669907e-01,2.67499447e-01,-2.26351663e-01,2.98840016e-01,-7.75177106e-02,-4.86818999e-01,1.78162709e-01,-2.82377124e-01,1.00038625e-01,3.06756765e-01,7.58388638e-01,9.31467414e-02,-6.52571082e-01,-2.72426084e-02,-1.72774792e-01,4.06520098e-01,-4.19121653e-01,-1.13700647e-02,-1.56316966e-01,-8.36400911e-02,-4.09761280e-01,1.61164150e-01,2.86455840e-01,7.83694759e-02,-4.17605639e-01,5.36500290e-02,-4.46775585e-01,5.74611068e-01,9.36439857e-02,3.46575044e-02,-4.68965620e-01,5.03855467e-01,1.07097877e-02,-5.61203323e-02,1.52489737e-01,1.46884426e-01,-2.86809891e-01,-5.50046861e-01,8.60096365e-02,-1.04803652e-01,3.76395196e-01,3.78954053e-01,3.55821215e-02,-6.84608296e-02,-5.71256578e-01,2.47307181e-01,4.12149698e-01,1.04897790e-01,-7.41584972e-02,2.26959139e-01,1.14512064e-01,-4.98971164e-01,-4.08231139e-01,1.19533680e-01,-4.79656428e-01,1.01570094e+00,-1.37393326e-01,-8.65873769e-02,1.32439151e-01,-7.99357817e-02,6.31589592e-01,3.58023643e-02,-1.79539770e-01,-9.09936950e-02,6.99520037e-02,-3.84101367e+00,5.68565249e-01,2.98618436e-01,1.46657899e-01,4.36471961e-02,-4.13660258e-01,-1.44937471e-01,-6.49171889e-01,-1.86150283e-01,4.28327292e-01,1.13569632e-01,-5.10149539e-01,-3.24933566e-02,2.76735216e-01,-3.90115194e-02,2.97914725e-02,-3.47735763e-01]
[-1.22844052e+00,-3.67967546e-01,2.95778394e-01,1.48468450e-01,7.10989088e-02,5.68904996e-01,3.89093012e-01,-6.34693980e-01,6.14281237e-01,-1.53407395e-01,-2.71925062e-01,2.74215460e-01,-3.12532932e-01,-5.04747033e-01,1.33521542e-01,2.22659007e-01,1.20058283e-01,4.67477702e-02,-1.39282830e-02,1.37260914e-01,2.23786682e-01,1.14364915e-01,-1.37000874e-01,-2.04763994e-01,1.18642211e-01,-6.01894036e-02,3.86341125e-01,-7.42825627e-01,1.89077463e-02,4.42173071e-02,1.35365546e-01,1.17866285e-01,-7.54722357e-01,2.39990085e-01,2.62199461e-01,1.89918354e-01,2.46836558e-01,-2.03257278e-01,-1.16028287e-01,-2.08960220e-01,8.55041295e-02,-1.39452085e-01,-1.77916408e-01,1.15011893e-01,1.02526261e-04,-1.35213174e-02,-3.90509963e-02,-4.75952029e-01,-2.65002578e-01,-8.67152572e-01,2.10715830e-02,7.63777792e-01,2.14702964e-01,3.26452553e-01,1.39172226e-01,1.98441967e-01,-7.58857667e-01,-7.90596604e-02,6.33861780e-01,-1.82063282e-02,4.21863675e-01,8.80992934e-02,-5.72748423e-01,6.89464360e-02,4.49681848e-01,-3.16040933e-01,5.81411600e-01,6.81926608e-02,1.83931962e-01,-6.47766814e-02,1.15914986e-01,1.26366138e-01,-7.06757680e-02,-5.48112869e-01,2.28346989e-01,5.45800984e-01,2.49171957e-01,-3.40684550e-04,1.45690264e-02,5.75589128e-02,-1.10319830e-01,5.81491329e-02,-1.99383572e-01,1.79537505e-01,6.51165172e-02,-1.04633257e-01,4.30055596e-02,2.44428158e-01,-3.73794585e-01,-1.81271955e-01,-2.93088764e-01,1.70594200e-01,-3.48447353e-01,9.75548699e-02,5.79111353e-02,2.75607202e-02,1.83090642e-01,-3.39425728e-02,9.75995734e-02,-1.79296788e-02,6.05654418e-01,-2.47905567e-01,-1.25896320e-01,-6.41672611e-02,8.55198726e-02,-2.61500459e-02,-8.65333617e-01,-2.85146505e-01,-1.14548266e+00,-2.09405378e-01,4.00952995e-02,-4.29960489e-01,-7.53751993e-01,-1.35746241e-01,-2.72441711e-02,-6.71931207e-01,3.23671699e-01,3.19859907e-02,-2.15345931e+00,4.36100513e-02,7.15809941e-01,9.22574997e-02,1.25873432e-01,-1.00300975e-01,4.26753968e-01,-3.04306205e-02,-2.44356710e-02,9.77175310e-02]
[-0.5092103,-0.0482764,0.41626957,-0.463696,0.22371554,0.1193643,-0.2859265,-0.68789923,0.16215023,0.2855687,-0.11460489,-0.27449217,0.19536203,-0.01934087,0.20535958,0.22835194,-0.36346307,0.11842612,-0.04719936,-0.212716,0.29595247,-0.07651224,0.09445956,0.06185335,-0.03711504,-0.09471319,0.2169859,-1.667467,0.01481068,0.15415727,-0.29870206,-0.27087274,-0.11764671,0.27927393,0.15510646,-0.03979383,0.09383936,-0.30036193,-0.01739203,-0.18926603,0.23833923,-0.10175623,0.07926796,0.10205637,-0.06976934,0.10449763,-0.0376329,0.47605538,0.04998115,0.25755888,-0.16008139,-0.6847156,0.23290817,0.19025925,-0.19190785,0.2318119,-0.10119081,0.06957179,-0.5854084,-0.01561117,-0.6006308,-0.06214184,-0.44161797,-0.25196385,-0.19753772,0.05821564,0.28637418,-0.11030451,-0.5006718,-0.5748187,0.39171875,0.0802677,0.11427254,0.40171114,0.2626551,0.17905082,0.4558802,-0.3278575,0.11710477,0.03335799,0.0203553,0.10745911,-0.33278742,-0.23469667,0.05071224,-0.12563972,0.38947013,0.1097354,-0.13997397,0.19860232,0.41742623,-0.32169387,-0.07433068,0.31095678,-0.00455512,-0.74043465,0.06755097,0.5153221,-0.04469953,-0.02307619,-0.42594966,-1.0147027,0.26465374,0.15323453,0.01433067,0.25240263,0.6017434,-1.0026622,-0.36116636,0.53441364,0.47442377,0.05818998,0.4276251,-0.06458844,0.15865041,0.13345328,-0.34247842,0.32147983,-0.653863,0.30495888,-0.7252541,0.20629612,-0.08294792,-0.0230362,0.615678,-0.02816105,0.18755037,0.415253]
[2.68627703e-01,1.00613028e-01,-1.69750620e-02,6.18799150e-01,1.22601859e-01,-2.57063299e-01,-1.16414174e-01,-7.33983843e-03,1.93161052e-02,1.41633362e-01,3.11074495e-01,1.07712202e-01,-9.12407339e-02,1.07031628e-01,1.76956221e-01,3.93988281e-01,-1.66807771e-01,1.14902690e-01,-1.69809982e-01,-1.98402628e-01,3.43385667e-01,-2.47830153e-01,-4.89106745e-01,1.29994005e-01,-5.29860891e-02,-6.94560409e-02,-6.84905648e-02,-2.05620781e-01,9.09194276e-02,1.00377016e-01,-2.01803774e-01,-2.93241609e-02,-3.32446396e-01,1.17083326e-01,1.17048450e-01,2.38001242e-01,7.58645907e-02,1.96725681e-01,-4.74461392e-02,4.17241044e-02,2.23897800e-01,-1.09048791e-01,-2.61582494e-01,-5.24114430e-01,8.43400359e-02,1.00856431e-01,1.05215631e-01,8.91289786e-02,9.65917930e-02,1.51139379e-01,-2.85172045e-01,6.12646878e-01,1.86747134e-01,-5.61453342e-01,-7.49359429e-02,-1.92419976e-01,5.54141045e-01,4.89701331e-02,7.56150067e-01,-3.07471938e-02,3.46230477e-01,-9.55063254e-02,-3.04604769e-01,-4.74109292e-01,-1.52855277e-01,-5.76717332e-02,-5.56413114e-01,-1.93499625e-01,-3.89065896e-03,-2.87774615e-02,-1.16125375e-01,-1.07994322e-02,5.30899167e-01,-2.30438471e-01,7.97784850e-02,-2.58006573e-01,-1.50351837e-01,5.12986816e-02,-2.77724285e-02,3.91393639e-02,-4.70183760e-01,4.66500998e-01,8.75505626e-01,3.64322692e-01,2.14672415e-03,-6.58601662e-03,3.23189497e-01,4.86721247e-02,3.08172196e-01,-1.84585080e-01,4.38189805e-01,-3.59312087e-01,-1.51352845e-02,1.16662562e-01,1.48153096e-01,-4.08432961e-01,1.51790321e-01,-4.95077878e-01,-2.94715673e-01,2.12417338e-02,4.91308495e-02,4.46841717e-01,2.05754951e-01,-1.94798306e-01,5.32733626e-04,-4.61634815e-01,-4.24833864e-01,-3.44363856e+00,-2.97049522e-01,-4.45294052e-01,1.20213494e-01,6.12965673e-02,4.17473435e-01,1.19791850e-02,-4.08220559e-01,-2.55884439e-01,-3.55031416e-02,1.25562567e-02,-4.52379733e-02,-4.55208644e-02,-2.75812358e-01,1.82880521e-01,9.72805619e-02,1.13167316e-01,1.90413892e-01,-2.19066329e-02,-9.17473715e-03,-4.97708410e-01]
[0.28951824,-0.05887529,-0.51708114,-0.5573691,0.33865213,-0.35638702,-0.08675142,-0.0129943,-0.34924427,-0.31089124,0.17739458,-0.21443853,-0.09429857,-0.18081486,-0.42051896,0.268614,0.18829785,-0.16641112,0.08618702,0.01341454,0.4250586,-0.29449832,0.46183085,0.20874569,0.10000277,-0.05561334,-0.06965999,0.10659473,0.19534704,0.18959506,0.53949106,0.17661138,-0.19336073,0.1304881,0.21699649,-0.37909892,0.17950936,0.28852803,0.05513708,0.05317562,0.2769609,-0.15410036,-0.07226992,0.6631474,-0.02006423,0.19225325,0.20617294,-0.3732997,-0.09179527,-0.22904553,0.15976465,-0.19838513,0.20859344,0.26250523,0.13414192,-0.49676892,-0.05455378,0.06542373,-0.42910367,-0.00757795,-0.32829973,-0.1364694,-0.95731866,-1.1360446,-0.2694277,-0.09407211,-0.6546164,0.00777543,0.0546949,-0.35411593,-0.47072807,0.04494461,-0.3553089,-0.2079928,0.09611734,-0.15224606,-1.0785879,-0.1850615,0.06362338,0.20495161,0.01557539,0.19750263,-0.39697614,0.14234507,0.07413697,0.10416326,0.2880492,-0.4383853,0.33290556,0.2363201,-1.0968908,-0.37935507,0.13588008,-0.06561297,0.28863683,-0.03114235,-0.23443621,0.1659281,0.20555866,-0.16798249,0.44372547,0.12991208,0.23452869,0.07098967,0.12712668,0.18736741,0.23444392,-0.8664157,-0.23977119,0.6835273,-0.17588687,0.250694,-0.46941817,-0.55047953,0.74138683,0.44928062,-0.4566309,-0.3208673,0.11723495,0.07275271,0.6744777,0.2910314,-0.81463295,0.08744277,0.45639598,-0.02605399,-0.04706553,0.49400222]
[-1.05164850e+00,1.31638423e-02,-1.17219126e+00,6.99749053e-01,9.35393502e-04,-8.40583682e-01,-7.11847484e-01,3.62176359e-01,-4.22091633e-01,1.55421793e-01,-8.10186088e-01,2.01197602e-02,-1.58590659e-01,3.61737877e-01,-1.00023532e+00,3.09341550e-01,3.77276689e-01,8.97174403e-02,9.34897065e-02,2.49889210e-01,3.92668515e-01,-1.72130764e-01,3.22871327e-01,-1.63501784e-01,-1.31599218e-01,-9.83239263e-02,-2.86945105e-01,-1.38014957e-01,3.06937546e-01,1.95077986e-01,4.95073199e-01,-4.20788676e-02,-2.16914877e-01,2.36671744e-03,3.23716789e-01,3.00946772e-01,9.09005702e-02,-6.90149441e-02,-7.64858946e-02,-3.25508453e-02,2.37441152e-01,-1.46457314e-01,4.45118755e-01,4.87535149e-02,8.90951231e-02,4.35905270e-02,2.10466340e-01,2.35012203e-01,-2.90626615e-01,-2.71148622e-01,-1.15088493e-01,-1.53387070e-01,4.26515788e-02,-4.88053739e-01,1.04322061e-01,-2.05772847e-01,-9.17412713e-02,-4.53073196e-02,8.17613229e-02,-1.47866197e-02,3.36037934e-01,-2.53253341e-01,-5.59725642e-01,-7.80031979e-01,5.58080792e-01,4.04727310e-02,9.70771611e-01,-6.08178042e-02,1.24598801e-01,1.70212463e-02,-1.36987165e-01,-1.56131059e-01,2.42846116e-01,2.50139654e-01,2.54362613e-01,-7.55680576e-02,1.30996123e-01,3.68173838e-01,2.52212975e-02,1.29216224e-01,-1.44415364e-01,-3.30721110e-01,-4.68368679e-01,-3.36028010e-01,9.50830504e-02,2.35098422e-01,2.54321724e-01,1.52464900e-02,2.05362976e-01,2.68814534e-01,-5.70957772e-02,-2.56399065e-01,-7.19654202e-01,-1.10153176e-01,3.55352581e-01,3.82189333e-01,-1.39491186e-01,3.23830158e-01,4.62875776e-02,5.18644154e-02,-4.20498639e-01,-1.59325123e-01,-1.35718184e-02,4.47483063e-01,3.80647719e-01,-2.00536266e-01,-3.06079149e-01,-1.67726249e-01,-3.75739753e-01,-3.66049051e-01,-2.16031432e-01,3.61023247e-01,5.20219505e-01,5.99999949e-02,-6.12760484e-01,1.14302531e-01,6.60270810e-01,-9.92289409e-02,2.33215019e-01,-2.47678965e-01,-4.41129118e-01,1.24558778e-02,3.25049371e-01,-8.68503302e-02,-3.28706890e-01,-2.27712300e-02,2.36758813e-01,-5.71559727e-01]
[-0.77525145,0.01051215,-0.3379868,-0.2595917,-0.19723992,-0.4172161,1.1031479,0.518799,-0.24245192,0.16680789,0.2718553,0.17869413,1.0202643,0.1336709,-0.54054886,0.17679235,0.13636903,-0.0984216,0.10610685,0.20270985,0.02311744,0.03901041,-0.16549152,-0.6841403,-1.0753064,-0.09993284,0.0562138,-0.14787443,0.12463623,0.17983507,0.24446821,-0.253051,-0.30583346,0.07486847,0.27994537,0.00137833,0.12998119,-0.21627377,0.13277327,0.05948172,0.2999826,-0.13768461,-0.7070191,-0.29476517,-0.01430682,0.19002622,-0.04958524,-0.32070178,-0.2101766,0.02348707,-0.1456714,-0.18904884,0.06048236,0.513023,0.1798501,-0.22246216,-0.02813068,0.04628737,0.13643803,-0.0099273,-0.35941446,0.2282879,-0.5720745,-0.07132833,-0.340006,0.10181952,-0.5941752,-0.12078206,-0.15759128,-0.34823957,0.8134207,-0.09971037,-0.4150992,-0.32421893,0.36512634,-0.2791438,0.5734311,-0.37427944,0.13129622,0.27698314,0.41660377,-0.38588452,0.6479851,-0.1560064,0.112261,0.03099994,-0.20483926,-0.04595281,-0.20358829,0.20692194,0.24741316,-0.3802139,0.41535342,-0.10918814,0.3547758,-0.5059175,-0.27507666,-0.42050967,-0.16433811,0.04856239,0.10694498,-0.18599431,0.09163207,0.37638617,0.34832567,-0.00573714,0.14989994,0.1610833,-0.3200332,-0.13099211,-0.16163424,0.19349506,-0.3683402,0.04257935,0.26698098,0.23808967,-0.30430427,0.02933705,-0.19504131,-0.48201904,0.02816342,0.0347034,-0.05399103,0.01056106,-1.1177721,-0.02652444,0.1230928,0.4209357]
[2.24161834e-01,1.65230915e-01,2.89078504e-02,-2.18071371e-01,2.79894620e-01,2.18731642e-01,2.11413011e-01,2.72223771e-01,3.11475873e-01,-5.21522522e-01,3.58166456e-01,5.01683205e-02,-9.96896267e-01,9.37198102e-02,4.53514963e-01,2.50177324e-01,-3.46888363e-01,-1.64611936e-01,-6.08973131e-02,-5.24232328e-01,-9.57389176e-02,1.76069569e-02,-4.21813965e-01,-1.23021461e-01,-3.55117679e+00,-7.82099292e-02,1.46513551e-01,9.80302542e-02,1.06692404e-01,9.26487818e-02,-9.96274203e-02,3.50154817e-01,-9.47177336e-02,1.41472757e-01,1.66585281e-01,-1.96742907e-01,2.24879742e-01,-1.12026870e-01,-3.04242045e-01,2.05082431e-01,3.85489821e-01,-1.11048386e-01,5.94230235e-01,4.24473656e-05,1.18600190e-01,8.72341841e-02,-2.33379588e-01,5.18655419e-01,-1.02993511e-01,-1.12244092e-01,2.77523488e-01,2.73650348e-01,1.13171361e-01,-2.19514906e-01,1.19369946e-01,-3.55614685e-02,2.00421840e-01,6.37289435e-02,-8.81676435e-01,-8.17859918e-03,2.68395483e-01,3.04187357e-01,-3.85738820e-01,8.90487432e-02,1.65701270e-01,-1.97948173e-01,2.69689947e-01,1.47012651e-01,-3.52688283e-01,-3.16806465e-01,6.31007180e-02,1.62248105e-01,3.24813515e-01,1.56631544e-01,1.64226323e-01,2.32741296e-01,-2.51568019e-01,4.06310350e-01,2.36187801e-01,1.09150462e-01,2.30147883e-01,1.46897674e-01,-1.73543453e-01,3.58679473e-01,2.18603179e-01,2.77639143e-02,1.80615410e-01,3.48263979e-01,-1.55860567e-02,2.43437737e-01,4.03692156e-01,-4.88022953e-01,1.76720545e-01,-2.36807525e-01,7.04757273e-02,-1.90394908e-01,-7.87228644e-02,3.80878955e-01,2.39310458e-01,-2.85342395e-01,-3.04536372e-01,-1.58510089e-01,-2.89531529e-01,-4.81461525e-01,2.34870035e-02,-3.28582227e-02,-4.00855541e-01,5.54179028e-02,-2.19024554e-01,3.63465726e-01,-5.17272949e+00,1.85347557e-01,6.35148212e-02,-3.45308185e-02,-3.34646434e-01,-3.93161803e-01,-1.53847173e-01,-1.10249296e-01,-5.65824747e-01,-2.90258676e-01,1.91638783e-01,-6.95227040e-03,-5.86388111e-01,1.32767344e-02,-2.59839594e-01,-2.41665673e-02,1.84791181e-02,-3.71157080e-01]
[1.85300305e-01,5.41953206e-01,3.43439654e-02,1.40765712e-01,1.56329572e-01,1.79301485e-01,-7.43606865e-01,-6.90790126e-03,1.14118390e-01,4.23347265e-01,-3.49595398e-01,1.03315569e-01,3.35987180e-01,-2.58238792e-01,6.14319444e-01,5.77549599e-02,-8.33810791e-02,1.66621372e-01,-3.53006832e-03,-7.34465048e-02,-1.67365849e-01,-2.05424830e-01,2.48187542e-01,2.30078787e-01,-6.08604491e-01,-5.91793060e-02,-2.91479146e-03,-3.60292614e-01,1.40147492e-01,7.74616301e-02,-2.10692301e-01,-2.34519735e-01,-4.69101258e-02,1.78268507e-01,6.60573840e-02,8.01991113e-03,3.38612169e-01,-1.47909974e-03,1.48225918e-01,1.92375764e-01,1.86840251e-01,-1.43668532e-01,1.35326743e-01,-1.50944412e-01,1.74704436e-02,3.13121706e-01,-1.19679935e-01,-7.66792834e-01,-1.15679733e-01,-1.54071301e-01,-3.64421427e-01,-1.11302324e-01,1.71281710e-01,-5.26678085e-01,8.77825450e-03,-1.37876615e-01,-1.97563484e-01,6.07639477e-02,9.00658131e-01,-2.39284337e-02,-2.67388999e-01,-1.13193944e-01,-2.43298113e-01,5.42414337e-02,-1.41626418e-01,3.28150988e-01,-7.35203084e-03,-2.60859281e-01,3.58370394e-01,-3.19890648e-01,-5.79608798e-01,1.07507696e-02,3.98369646e-03,4.17256802e-01,1.79635704e-01,5.23437381e-01,-8.96188617e-01,-4.79905337e-01,5.45954444e-02,8.07337239e-02,-3.62207592e-01,-7.01503232e-02,-2.72435457e-01,-4.49773401e-01,1.49949938e-01,1.58364728e-01,-2.44136274e-01,3.27111445e-02,-1.96400478e-01,-7.96877891e-02,-2.50059843e-01,-2.29724780e-01,3.01924944e-01,-2.65220809e+00,9.34947934e-03,-3.90644819e-01,3.88614088e-01,-3.71251822e-01,-3.01184565e-01,7.75072202e-02,1.95029780e-01,-1.95506260e-01,-6.69903532e-02,-2.49271005e-01,1.04072511e-01,4.09506708e-02,8.46787691e-01,6.36367723e-02,-1.41113985e+00,-1.50726914e-01,1.37294441e-01,1.18322350e-01,-5.68971217e-01,-8.97876918e-02,4.14609820e-01,2.30254546e-01,7.26578891e-01,-1.35287559e+00,-3.97366136e-01,-6.53810501e-02,-6.91308379e-02,-1.47496432e-01,-1.48438707e-01,6.36836588e-02,-4.39150631e-02,-2.50268951e-02,-2.46148780e-01,9.94486883e-02]
[-0.07209477,0.7454452,0.0859174,-0.44351083,0.01171656,0.1857577,0.39724946,-0.22045435,-0.5802491,-0.25634265,-0.44414854,-0.08296868,-0.06535096,-0.00481125,-0.12980653,0.296852,0.30216816,0.12978105,-0.12351311,0.06025185,-0.17983983,-0.33384758,-0.21853513,-0.04288077,0.16015014,-0.05084726,-0.67263526,-0.1697749,0.01880066,0.14543445,-0.01631519,-0.00904968,0.07885325,0.209707,-0.5087902,0.3157913,0.32443398,-0.06098052,0.20902017,0.2114793,0.3502123,-0.13918017,-0.39968646,0.21875663,0.00462914,0.1588612,-0.07658429,0.5294586,0.08109052,0.42441776,0.4088674,0.01878823,-0.00899227,1.0864763,-0.14786772,0.06836055,0.04053332,0.04265296,0.2692663,0.01133675,0.00836986,-0.24303965,-0.38155535,0.18160023,0.3721826,0.30384517,0.07349676,0.50381345,0.08466437,-1.4704014,0.06726094,0.27279362,-0.51492643,-0.17052823,-0.10250745,0.39350957,-0.91990334,0.3506473,0.07097374,-0.05504426,-0.82715386,-0.0078585,0.12810928,-0.5751987,0.07070883,0.2326385,-0.35830766,0.17259616,-0.16498514,-0.12060643,-0.05374892,0.38236943,-0.45118853,-1.1367049,0.04530867,0.08687533,0.46494102,0.11279035,0.17490192,-0.09412061,-0.02364914,0.5775577,0.37282804,-0.10227782,0.12426129,0.146565,-0.44150144,-0.01299603,-0.4405858,-0.40524948,-0.01160803,0.24277823,0.37576458,0.1225192,-0.62881285,0.117562,-0.8159797,-0.10678185,-0.22316393,0.06423927,-0.21105358,-0.2925837,0.11610341,0.00683188,-0.0951921,-0.03275322,-0.17348912,0.04605099]
[-0.29976568,0.5457217,0.0235532,0.37311125,0.18330446,-0.5212618,0.08900707,-0.38273114,-0.05938011,0.28657696,0.37309375,0.32670897,-0.07497177,0.1270207,-0.23729466,0.10351343,0.15603043,0.04177613,0.15732999,-0.24088886,-0.01561085,-0.4128186,0.27422166,-0.23563497,0.05917599,-0.11416905,-0.43398854,0.2112376,0.23566137,0.04447899,0.32688802,0.0213065,-0.03265523,-0.10472163,-2.191789,-0.22048125,0.19070041,0.09511081,-0.00946692,0.30558705,0.2618744,-0.14222854,0.01042648,0.01517007,0.03005395,0.07641786,0.26790705,-0.11576273,-0.01154443,-0.04063596,-0.3166073,-0.23827253,0.10401202,-0.7927198,0.08587474,0.13671844,-0.38835445,0.06751022,-0.70267856,-0.01112345,0.14734443,0.30369833,-0.30463547,0.08108126,0.08827227,0.04224897,-0.02451399,-0.8116026,0.04109938,-0.314295,0.49135622,0.06160343,0.5981189,-0.624078,-0.0604798,-0.23049937,-0.1355748,-0.62420124,-0.06535397,0.14409615,0.5375468,0.10996327,-0.17715538,0.3865201,0.23446476,0.11843421,0.0759386,0.40177876,-0.08167495,-8.259196,0.12844239,0.74858487,-0.12437826,-0.21052106,-0.0720859,0.29444242,0.15271114,0.0821636,-0.11308344,0.23271993,-0.09147654,0.10324122,-0.07777549,0.11498345,-0.06927261,-0.45630142,-0.29783607,-0.01771785,-0.57200813,0.37360922,0.07736723,0.08128431,0.13188091,0.1998559,0.75581706,-0.30479062,-0.09158142,-0.51973444,0.15475823,0.10740478,0.22126773,-0.7740948,-0.09300195,0.12134747,-0.07787172,-0.03167675,-0.22836904,0.11427968]
[2.76225824e-02,2.17451781e-01,7.16315806e-02,-5.20127192e-02,1.40656590e-01,-7.03234673e-02,-6.70769811e-01,-1.65650204e-01,5.78431077e-02,-4.03427571e-01,3.15582275e-01,-3.84174049e-01,3.57644111e-01,5.89931570e-02,-7.55073667e-01,1.63374916e-01,1.02518775e-01,2.98800413e-02,-1.89367220e-01,-1.56849816e-01,7.68966079e-02,-2.51152962e-01,-1.70225173e-01,-1.41771408e-02,-1.03823103e-01,-9.69296470e-02,1.80066496e-01,6.41186014e-02,1.31494492e-01,5.17923906e-02,4.14938152e-01,-1.41506672e-01,-2.80716904e-02,-2.17867583e-01,-1.78271785e-01,-4.19042617e-01,7.76717290e-02,-3.12655479e-01,5.93304224e-02,2.21536204e-01,2.17430219e-01,-1.16968423e-01,5.60761951e-02,-8.95568579e-02,1.04850531e-02,2.68939912e-01,2.84010228e-02,-8.79398659e-02,2.45435536e-02,-3.48932058e-01,1.92958280e-01,-3.92464459e-01,1.32134736e-01,-1.94270387e-01,1.12928241e-01,3.75137389e-01,5.79733372e-01,2.59644002e-01,9.51774001e-01,-1.21127237e-02,-2.75509536e-01,-1.26364436e-02,-1.49326324e-01,-4.29257095e-01,-9.71108556e-01,-5.00297904e-01,1.11238547e-01,6.87227666e-01,-7.79342949e-02,-1.18820682e-01,-1.05864763e-01,2.48656627e-02,-5.26305556e-01,9.39647704e-02,1.29530635e-02,-2.02744752e-01,4.10828888e-01,4.15877372e-01,-9.83430594e-02,6.64243177e-02,-2.74374664e-01,4.49746937e-01,-1.92828365e-02,1.65371895e-01,8.97111893e-02,2.35428989e-01,-2.81881630e-01,-8.22731912e-01,-1.89946219e-01,1.53980432e-02,3.83307636e-01,1.93744496e-01,2.33418960e-02,-6.57431735e-03,1.16706170e-01,-1.74724143e-02,7.74686188e-02,5.14571853e-02,1.94273040e-01,-2.43091211e-01,-1.61512986e-01,6.11307509e-02,1.02922949e-03,3.24162021e-02,-2.27224138e-02,5.52712262e-01,2.13317469e-01,2.05639243e-01,-7.02539325e-01,2.09720314e-01,-7.58468062e-02,-1.29742324e-01,-4.13902193e-01,-2.09456198e-02,-7.89026558e-01,-4.40926939e-01,2.96132803e-01,3.90235573e-01,-1.57597736e-01,9.87734795e-02,1.10878468e-01,-2.92193413e+00,2.59449910e-02,-3.73591520e-02,4.26287204e-01,-2.67509725e-02,3.59133892e-02,-2.83010691e-01]
[0.6392282,-0.3312195,0.10377739,-0.504474,0.17380966,-2.1087394,0.12109327,0.15237291,-0.38059288,0.23520611,-0.770397,-0.4165413,-0.12189047,0.13993526,-0.37838477,0.03475545,0.16058174,-0.02199727,-0.18718424,-0.1177908,-0.17938118,-0.15371844,-0.35009924,0.35567877,0.0568369,-0.07262152,0.7201842,-0.5363319,-0.11873574,0.16068509,0.15044107,-0.0993969,0.00299297,-0.42593127,-0.17551571,0.46901998,-0.02554261,-0.43571863,-0.02429238,-0.06496941,0.17819555,-0.09340008,0.02069907,-0.11444827,0.0416042,0.2734267,-0.05809432,-0.03366539,0.08740901,-0.03554594,0.37949076,0.7580319,0.11481413,0.12987533,0.02535634,-0.04477658,0.15027069,0.16015545,-0.7164062,-0.02838799,0.171139,-0.01265807,-0.18410376,-0.20441061,0.42700064,0.07745928,-0.3863316,0.12792519,0.21881759,-0.34930265,-0.47697377,-0.16859023,0.8754395,0.5581963,0.16399094,0.35185522,0.47900605,-0.49347264,0.08596217,0.06106944,-0.40621802,-0.6784821,-0.27389455,-0.06163139,0.07360528,0.00628411,-0.35032207,0.16223957,0.08519477,0.08447731,-0.57645166,0.1133358,0.12483387,0.15109244,0.06566699,-0.2950589,-0.18847682,-0.31633988,-0.08686305,0.04005364,0.6424683,-0.35227638,0.04913231,-0.28897431,0.07180832,-0.28686136,-0.12367569,0.3070348,-0.68549454,-0.31448236,-0.00662326,-0.13479075,0.515752,0.03071655,0.42547053,-0.75888884,-0.5697251,-0.1632786,-0.15759401,-0.18149996,-0.29926407,-1.5930643,-0.17634992,0.03605217,0.44599253,-0.01895701,0.16801786,0.18773603]
[2.30686933e-01,-3.60012621e-01,9.61201340e-02,5.21808743e-01,2.02508301e-01,2.17279002e-01,4.12445903e-01,3.93389076e-01,-6.92350030e-01,-7.97948390e-02,4.72368240e-01,3.61109525e-01,-2.39369333e-01,2.51651734e-01,3.93119246e-01,-9.64000355e-03,1.71689108e-01,3.44622642e-01,-3.71353477e-01,-1.07734036e-02,-6.41966701e-01,-3.80540937e-01,5.62280834e-01,3.38576376e-01,1.48472607e-01,-7.94634074e-02,7.32838631e-01,-1.18815756e+00,-9.90570784e-01,2.57104170e-02,1.74790040e-01,1.29111305e-01,1.35544553e-01,-1.79282263e-01,-2.31116459e-01,4.01128471e-01,-1.28627047e-01,2.67198831e-02,3.26755106e-01,-6.99822744e-03,3.25637907e-01,-1.02634303e-01,-1.19639687e-01,-1.16230562e-01,1.65371999e-01,1.51061654e-01,1.24876544e-01,2.26013795e-01,2.86523364e-02,1.30934790e-01,-3.65367383e-01,-4.56039518e-01,-5.57420999e-02,-3.69422764e-01,8.73595625e-02,-3.95387679e-01,1.39710307e-02,1.01705082e-01,2.35299304e-01,1.47994712e-03,4.27708179e-02,-9.94315743e-02,1.52452253e-02,8.51558596e-02,6.37760997e-01,1.48198688e-02,1.94351271e-01,-8.01176429e-01,6.61142766e-02,-4.64563876e-01,-2.12044502e-03,-3.19094151e-01,-9.46540654e-01,-6.44935310e-01,-7.60900900e-02,5.01839817e-01,-1.60844341e-01,3.43867362e-01,1.37296766e-01,8.81226361e-02,-7.15205818e-02,-2.70159960e-01,5.95853627e-01,-4.68333185e-01,5.99339828e-02,7.73948035e-04,-4.77942795e-01,-3.69463235e-01,3.63156676e-01,1.62511051e-01,-9.62497517e-02,1.84628870e-02,-6.12502158e-01,1.83395669e-01,2.16244891e-01,4.01929587e-01,-1.71166256e-01,2.07886741e-01,-8.58542509e-03,-8.21314007e-02,-4.56290841e-01,-2.92299718e-01,7.81977326e-02,1.08075090e-01,3.01782459e-01,3.44436765e-02,4.77692455e-01,1.67715758e-01,-5.94024360e-01,4.36867565e-01,-4.08304274e-01,-3.22943330e-01,-2.21753091e-01,3.36500667e-02,-2.87253320e-01,-6.97599590e-01,-1.23834386e-01,-2.85121739e-01,1.71635032e-01,-3.36197227e-01,2.54082173e-01,-4.99909759e-01,2.56347358e-01,-3.14568765e-02,1.41015187e-01,-2.98091527e-02,-1.88886970e-02,-1.64363848e-03]
[-6.20927215e-01,8.91427249e-02,-1.93072319e-01,-4.07873869e-01,6.67781904e-02,-3.62734795e-02,-5.97949922e-01,-1.12811282e-01,-1.97729021e-01,-1.68760493e-02,1.16986856e-01,1.32417515e-01,3.06934286e-02,-2.62143731e-01,3.89696449e-01,2.01395676e-02,-8.04958940e-02,2.72140294e-01,-1.33654565e-01,3.00509542e-01,1.39921337e-01,-4.00437921e-01,-8.96858811e-01,3.44474673e-01,7.16740489e-02,-8.05523619e-02,1.48605600e-01,6.03195317e-02,-2.46805000e+00,5.78547977e-02,2.95838043e-02,-1.39204115e-01,2.01134667e-01,-1.47778124e-01,-5.34687079e-02,-2.39532247e-01,-3.40263010e-03,2.04422534e-01,6.29144441e-03,8.40639230e-03,3.51806223e-01,-1.17851309e-01,3.94323170e-01,3.46272558e-01,2.62685809e-02,7.95952454e-02,-5.48562407e-03,-3.07917356e-01,-8.11098143e-02,-4.99667376e-02,-2.04906315e-01,-3.22188914e-01,1.44157006e-04,7.91860461e-01,9.34547931e-02,-2.78122991e-01,-8.19137469e-02,5.56784263e-03,-3.11458081e-01,-1.01799257e-02,-2.44826615e-01,9.20883119e-02,3.59514095e-02,1.80842400e-01,-2.76296854e-01,1.17784321e-01,1.04085296e-01,6.32838130e-01,6.57290593e-02,9.03931446e-03,7.77006626e-01,-4.83428873e-02,5.47187328e-01,-1.86516449e-01,-5.28786182e-02,2.88179249e-01,-1.58287078e-01,-4.34847623e-01,2.00850636e-01,1.08289167e-01,2.23447353e-01,7.49522299e-02,-1.85664609e-01,-9.96076986e-02,-3.87190096e-02,1.90058738e-01,-2.28238210e-01,-2.78393567e-01,1.94420397e-01,-3.43865514e-01,-2.48189896e-01,-2.13287920e-01,8.02383304e-01,7.75735304e-02,1.58692479e-01,4.36299108e-02,4.76656556e-02,7.15042725e-02,-4.61440444e-01,-2.59693898e-02,-4.94703837e-02,7.85243154e-01,-1.99249119e-01,1.50164708e-01,3.75013262e-01,-1.43906027e-01,-4.72295016e-01,9.26369131e-02,-5.49054146e-01,-3.79084736e-01,-1.68896347e-01,6.70065656e-02,-9.62116569e-02,-6.15007639e-01,1.37822568e-01,3.33062470e-01,8.30272853e-01,-3.15893650e-01,1.32570565e-01,-6.43777549e-01,-3.41808766e-01,9.71749984e-03,-1.59270033e-01,6.19773790e-02,2.76808441e-01,-2.78732851e-02,1.18217789e-01,-5.82641900e-01]
[1.60593204e-02,3.92315805e-01,6.40991181e-02,1.80956408e-01,-1.44180119e-01,-2.88922220e-01,-1.98436067e-01,-2.75135517e-01,-7.09692165e-02,-3.73245869e-03,3.65195088e-02,-6.25129163e-01,-3.17480462e-03,-2.80946381e-02,2.10883036e-01,-8.01072493e-02,4.84867357e-02,1.66969404e-01,4.29224931e-02,-3.68919343e-01,1.10350609e-01,-3.92397970e-01,7.67270029e-01,3.23209345e-01,1.47885799e-01,-1.04991876e-01,-9.57918465e-01,-1.50033653e-01,-1.97252607e+00,1.81141179e-02,4.57666116e-03,-1.11967392e-01,-2.44657844e-02,1.09630473e-01,2.10635632e-01,-2.14065328e-01,1.31424457e-01,-2.28879556e-01,-1.79288357e-01,2.46381730e-01,1.02723949e-01,-1.49689287e-01,-4.92659152e-01,-4.74215746e-01,-7.00183809e-02,-3.09548944e-01,-2.58468627e-03,4.17061411e-02,-1.14402711e-01,-1.17790878e+00,-3.37050632e-02,6.54266894e-01,8.00445974e-02,-5.52278817e-01,-7.48124197e-02,1.29274979e-01,-3.28462780e-01,1.04621209e-01,-2.28348881e-01,-1.64191481e-02,-1.67271838e-01,2.50760704e-01,-1.42422065e-01,3.50709595e-02,-7.72856921e-02,3.69930565e-02,-1.81702554e-01,-1.23959601e-01,-3.27655941e-01,2.20828339e-01,-3.22205275e-01,1.75608099e-02,-4.20398533e-01,8.69759381e-01,1.21611603e-01,-3.11864167e-01,1.46964528e-02,2.92185903e-01,1.44656971e-01,4.44850057e-01,5.61690748e-01,-1.72998518e-01,9.89597738e-02,-2.69696638e-02,7.82120675e-02,2.56961524e-01,-1.65556177e-01,-3.29838917e-02,1.04462631e-01,-9.89599675e-02,5.25527358e-01,-3.22344229e-02,-3.97941589e-01,1.93034157e-01,1.30116686e-01,-1.23093152e+00,9.36046541e-02,-3.20637852e-01,5.70033610e-01,-1.20993562e-01,2.38753110e-01,4.70744103e-01,-3.99535924e-01,-8.30559507e-02,6.31143749e-02,9.92537439e-02,-7.56721124e-02,1.29098833e-01,-7.47642279e-01,4.09665145e-02,2.89540570e-02,1.40215576e-01,9.17245634e-05,-9.81439054e-01,-1.76680103e-01,2.54446834e-01,-5.00499308e-01,-7.62053549e-01,-2.75364310e-01,-2.17425689e-01,-1.02153175e-01,-3.71507518e-02,1.56584203e-01,2.75062211e-02,8.09403062e-02,-2.14986559e-02,-2.49200538e-01,7.05814719e-01]
[4.52264935e-01,1.79485291e-01,-1.78503707e-01,-1.06757715e-01,-1.54188260e-01,-4.94221672e-02,5.04387736e-01,2.54183739e-01,-4.02767956e-01,3.07805240e-01,-7.51377046e-01,1.17408775e-01,4.33565676e-02,-4.09344494e-01,-1.81606501e-01,-1.80425838e-01,2.83885822e-02,3.50330919e-01,1.64357677e-01,1.24551959e-01,7.03533217e-02,-3.46425265e-01,-4.91849631e-01,2.49679670e-01,1.79166719e-01,-9.10387114e-02,-3.08841228e-01,-4.36541378e-01,-6.44366920e-01,-7.12924004e-02,-1.48098730e-03,1.58835858e-01,-4.40687090e-02,3.29227954e-01,2.26107419e-01,-2.05978870e-01,1.13863662e-01,-8.81353244e-02,7.92886093e-02,4.03966069e-01,2.90333658e-01,-1.24175243e-01,3.23182680e-02,1.97528094e-01,8.77570827e-03,-2.29286700e-01,8.12040344e-02,-1.76918909e-01,-1.58686787e-01,1.04581046e+00,7.68697679e-01,-6.44591153e-01,4.24533486e-02,3.07821661e-01,-2.51721125e-02,2.34340370e-01,5.14101088e-01,1.16653107e-01,-4.27550897e-02,-1.68041792e-02,7.04483151e-01,-4.73664224e-01,-1.24716247e-02,2.19644025e-01,1.15102641e-01,-4.45385337e-01,3.10430657e-02,-3.36712092e-01,3.57647032e-01,4.73721437e-02,-3.96330893e-01,-8.96417797e-02,3.80323641e-03,-3.78526926e-01,2.67219186e-01,-1.70569658e+00,1.93192497e-01,1.63141042e-01,-8.49973559e-02,3.41374129e-01,-1.56788185e-01,9.25550640e-01,-3.72794032e-01,3.76876354e-01,4.85440157e-02,2.78629571e-01,-1.85090512e-01,3.99745524e-01,-5.66326499e-01,9.13420171e-02,-1.32623566e-02,-3.54207635e-01,-1.01458117e-01,3.36374164e-01,1.41080067e-01,1.41895294e-01,1.86660185e-01,-8.80246609e-02,-1.42935827e-01,1.03826383e-02,2.36598328e-02,-5.97658694e-01,-7.13634118e-02,-7.34189674e-02,-2.26349682e-02,-1.58165723e-01,4.56395477e-01,1.09873019e-01,-4.97158885e-01,-2.41764225e-02,4.62489240e-02,5.83620928e-02,-3.02558571e-01,-5.37730873e-01,4.62435097e-01,-2.29784876e-01,1.91539720e-01,-1.88979656e-01,-3.36953759e-01,-2.46842459e-01,2.09533677e-01,5.41389547e-02,7.97117949e-02,4.15816121e-02,-2.39111662e-01,-2.45313477e-02,-2.25479841e-01,-5.60562849e-01]
[6.47663176e-01,-2.54137963e-01,-5.36179066e-01,-1.26608953e-01,-1.17030188e-01,5.26863217e-01,4.02977139e-01,9.43615437e-02,1.98638514e-01,-2.63355136e-01,4.18732226e-01,1.23816542e-01,7.11710751e-02,-3.95724982e-01,-4.08866137e-01,-4.00710166e-01,-4.39079970e-01,2.61696070e-01,1.39579214e-02,-1.77915826e-01,-2.67476887e-01,-3.36684316e-01,3.62427503e-01,1.76461235e-01,-1.01235732e-01,-8.48840475e-02,1.37247339e-01,3.49390022e-02,-2.19010457e-01,-1.19224295e-01,6.42573535e-01,-2.26612002e-01,2.07189128e-01,2.62465388e-01,1.76376656e-01,-4.16926593e-01,6.20072484e-02,2.90785044e-01,-1.20381638e-03,4.84287813e-02,3.04236310e-04,-1.08252957e-01,5.36713064e-01,-9.94189680e-02,3.01015191e-02,-1.17751937e-02,1.20326817e-01,3.69030952e-01,-1.44299939e-02,3.93867671e-01,-6.04389668e-01,5.37121832e-01,1.42693982e-01,-3.25453132e-01,6.91519082e-02,6.90976456e-02,-3.86889666e-01,7.69921392e-02,5.54442704e-01,-1.17995264e-02,-2.89755940e-01,1.50827408e-01,2.30101869e-02,-4.52911705e-02,1.25467047e-01,4.46296901e-01,-3.07037830e-01,2.45376244e-01,-1.27352431e-01,6.00575432e-02,-1.41948476e-01,-2.36118734e-02,-2.76048668e-02,2.11870179e-01,1.91162214e-01,-9.48042691e-01,3.19114956e-03,-4.06562239e-01,3.63948792e-02,1.63866043e-01,-4.23571877e-02,-9.73280191e-01,1.73883840e-01,-3.60099673e-01,5.03723770e-02,2.66956925e-01,-6.27066016e-01,-4.64582026e-01,-1.17864120e+00,-4.37235147e-01,-6.99804068e-01,-5.94925135e-03,7.02924132e-01,2.12587163e-01,-5.35843730e-01,2.76183873e-01,2.54690200e-01,2.02154234e-01,-4.29437086e-02,-9.94918030e-03,-4.68351096e-01,-4.03938919e-01,-1.44958898e-01,2.67760426e-01,-1.27588743e-02,3.49780947e-01,-7.99935341e-01,-3.64608318e-02,-1.03853798e+00,-2.85137415e-01,2.18156800e-01,-4.19266224e-02,3.50843728e-01,-7.65997052e-01,-2.90187180e-01,-2.19656259e-01,9.83227193e-02,3.02462339e-01,-3.38953286e-01,1.07680075e-01,-1.27729578e-02,1.49866611e-01,2.91639149e-01,-2.78407484e-02,-2.41337568e-01,-3.07582319e-02,-1.71557814e-01,2.67226845e-01]
[4.17690486e-01,-3.70282501e-01,-5.92897177e-01,5.48359632e-01,-1.72385331e-02,1.30172983e-01,-3.65656704e-01,2.36015394e-01,1.57666817e-01,-2.19872519e-01,-1.34112373e-01,-5.69335707e-02,2.36621895e-03,-2.26925418e-01,-4.34124283e-02,-2.72520632e-01,-4.20809448e-01,1.41886070e-01,-1.54694438e-01,1.39834702e-01,-4.51557517e-01,-8.52435604e-02,-2.98943341e-01,3.51431012e-01,5.05882911e-02,-9.34609845e-02,3.94863069e-01,4.84723598e-02,-2.14510169e-02,1.00540504e-01,8.00423563e-01,3.71304423e-01,-1.05736434e-01,1.66999251e-02,2.13250458e-01,7.75281370e-01,-4.98549044e-02,-2.85684079e-01,-3.07558745e-01,9.87366214e-02,5.18200286e-02,-1.09985396e-01,-4.23079431e-01,3.37979645e-02,2.04495937e-01,1.16488405e-01,7.68087506e-02,-5.24604857e-01,-6.17378056e-02,-2.46362135e-01,-2.42951527e-01,-3.18478107e-01,1.08364103e-02,1.84710741e-01,2.13981837e-01,-9.98342186e-02,3.37833196e-01,-1.19283691e-01,-6.73714280e-01,-7.44150952e-03,-3.58457506e-01,1.07333504e-01,1.28550097e-01,1.16065688e-01,-5.61713934e-01,-1.44976556e-01,3.07990760e-01,2.02964455e-01,1.32684454e-01,1.11233540e-01,5.24828374e-01,-2.69993860e-02,5.75649776e-02,-5.62092662e-01,3.19293767e-01,-1.15817441e-02,1.71356425e-01,3.72156650e-01,1.02067003e-02,1.52993295e-02,-2.35572577e-01,-1.45609722e-01,-5.24293542e-01,-7.56552875e-01,1.54655889e-01,2.73920596e-01,-6.83558822e-01,1.23662002e-01,-3.54241967e-01,-4.67154086e-01,6.34312153e-01,-3.33123982e-01,-4.21474248e-01,9.31397602e-02,-2.88449001e+00,-1.38381958e-01,2.72553992e-02,-2.99771011e-01,-5.46949208e-02,-8.92492980e-02,7.90089786e-01,4.39779729e-01,9.24616009e-02,1.34970278e-01,-1.02847174e-01,-1.28972396e-01,4.02892739e-01,6.64416584e-04,-1.25528598e+00,2.13980049e-01,-5.11841737e-02,1.11013502e-01,2.72135884e-01,-1.04440856e+00,1.10551216e-01,2.09034942e-02,-2.66762208e-02,-1.65273249e+00,-2.48702943e-01,-2.09341913e-01,-1.54381365e-01,7.08022043e-02,-2.44884923e-01,-1.66821126e-02,-2.62783244e-02,-3.69741283e-02,-1.56263947e-01,2.06878141e-01]
[-5.38280964e-01,2.19389647e-01,2.46472750e-02,-2.63157994e-01,2.44123816e-01,8.85674730e-02,-4.19613808e-01,7.18706489e-01,-5.15226841e-01,7.48585090e-02,1.53997764e-01,-1.74701378e-01,-1.10099681e-01,1.21210672e-01,-2.20612437e-01,-4.13754046e-01,-7.21957237e-02,-5.59022903e-01,-3.61878157e-01,-5.14261782e-01,-9.28948522e-02,-1.28811374e-01,1.05573744e-01,5.25917113e-01,-2.75332052e-02,-3.54548879e-02,-1.03543341e-01,7.07507432e-02,-3.32279913e-02,1.73525587e-01,-1.22377045e-01,-2.72550583e-01,3.32775891e-01,1.96077719e-01,9.56411585e-02,2.43725777e-01,-7.49509633e-02,3.08373988e-01,6.96977019e-01,3.17843966e-02,1.25349581e-01,-1.46032766e-01,-4.81316485e-02,4.91104692e-01,2.17197433e-01,1.30888000e-01,1.79500341e-01,9.07869563e-02,-7.98052177e-03,4.22593392e-02,-1.78949505e-01,-3.15774918e-01,8.02558064e-02,2.03590155e-01,2.41981149e-01,-1.16339959e-01,-2.87631512e-01,-8.82689953e-01,2.20931724e-01,-1.16887456e-02,4.58232880e-01,-2.65639424e-01,2.62286752e-01,-7.09353462e-02,2.26687059e-01,-6.23402894e-01,3.48612368e-01,-4.39483285e-01,-6.84326887e-02,-1.75904721e-01,-5.21329224e-01,1.20237783e-01,-2.60589924e-02,5.18447459e-01,1.74627066e-01,2.82806188e-01,5.11513233e-01,-3.29850495e-01,1.47851601e-01,-1.18672602e-01,1.60982847e-01,4.10353899e-01,4.63845253e-01,7.90679932e-01,2.14339226e-01,2.05463782e-01,-4.98242795e-01,-1.50008023e-01,4.47631925e-01,5.30387089e-02,-4.12953585e-01,2.61207402e-01,2.45317698e-01,2.08601698e-01,-1.38035619e+00,-1.89704788e+00,2.67452262e-02,-4.32685763e-02,4.51451927e-01,-3.07680033e-02,-3.42963308e-01,1.43799642e-02,-4.04874176e-01,2.06876978e-01,-1.63869202e-01,-8.21581110e-02,-2.75839400e-02,1.52970880e-01,-3.50258619e-01,-2.08121017e-01,2.69184053e-01,-2.09543675e-01,-3.13147366e-01,-9.60522771e-01,-1.68011442e-01,-1.53091222e-01,-3.93191576e-01,2.04517886e-01,-2.71754283e-02,-1.21563673e-01,2.17876151e-01,4.53652553e-02,-3.35011750e-01,2.06181481e-02,-7.81227589e-01,-2.63663493e-02,6.71225949e-04,-3.16072464e-01]
[-1.20774813e-01,3.36057782e-01,9.70268548e-02,6.32061213e-02,3.11957330e-01,2.15322092e-01,1.68952256e-01,-4.06751409e-02,-1.95558462e-02,-3.70737689e-04,-1.49155959e-01,2.53705710e-01,-3.84745806e-01,2.91913003e-01,5.43466844e-02,-2.99259037e-01,1.35157570e-01,1.48437873e-01,-5.80888271e-01,9.81506348e-01,-1.60888955e-01,-2.73127317e-01,7.61736557e-02,2.00037986e-01,1.06308356e-01,-4.75732796e-02,-5.94824227e-03,-9.66372788e-02,1.78346977e-01,-2.25663092e-02,-2.64131486e-01,-1.15285717e-01,2.57307529e-01,-3.56108788e-03,-4.42715734e-02,-8.34786713e-01,-3.56277227e-02,-6.94826305e-01,-3.86874139e-01,4.50851582e-02,2.83591926e-01,-1.06820680e-01,-2.20354095e-01,-6.01587057e-01,1.03388518e-01,5.87764792e-02,1.42843932e-01,2.82257438e-01,-1.30150899e-01,2.47533515e-01,7.51678109e-01,-5.16292155e-02,2.22353712e-01,-5.27609944e-01,1.78211600e-01,1.34979308e-01,-2.51168072e-01,-3.01240849e+00,9.71427113e-02,-1.44030480e-02,-2.57777572e-01,2.51825243e-01,2.00695485e-01,-2.97633618e-01,4.34543729e-01,1.87695250e-01,-7.23434865e-01,6.42483771e-01,-1.16381019e-01,-1.64739817e-01,3.41970742e-01,9.22814533e-02,8.63845199e-02,-2.95052201e-01,1.80767924e-01,-9.90894996e-03,3.54796141e-01,-4.08076607e-02,1.44074872e-01,-2.64263689e-03,-5.25794506e-01,2.85502106e-01,-5.13084754e-02,-3.00081253e-01,-7.15431012e-03,2.49566853e-01,-1.19072320e-02,7.42438659e-02,4.08197194e-01,2.64406681e-01,-1.54738858e-01,-4.55828831e-02,-1.16169631e-01,1.08099073e-01,-1.61483854e-01,-1.46843269e-01,8.20240676e-02,3.50900739e-01,-6.66338444e-01,-1.15557760e-01,1.05683103e-01,3.05731356e-01,5.46514206e-02,-5.77383876e-01,-8.02405924e-02,-3.02978903e-01,3.05942520e-02,2.71898001e-01,-3.68085653e-01,4.11874861e-01,-3.45844686e-01,-2.71961153e-01,2.12357249e-02,-6.09510362e-01,1.81215078e-01,2.84171730e-01,3.92290920e-01,-7.17782453e-02,9.40566733e-02,-1.16017446e-01,-1.41162751e-02,2.11186469e-01,6.42778575e-01,1.59825515e-02,-1.89011276e-01,-1.73525903e-02,1.47834728e-02,4.09781873e-01]
[2.98318803e-01,1.14574805e-01,1.88999370e-01,-2.54895598e-01,1.82497635e-01,-5.10346472e-01,1.54957667e-01,-1.80065632e+00,-3.68359208e-01,-1.73166320e-02,-6.06915541e-02,2.54803985e-01,2.44594496e-02,2.66448468e-01,-1.25335604e-01,-3.10779214e-01,1.53105101e-02,1.47882223e-01,-2.66275287e-01,-5.51911831e-01,1.17698446e-01,-1.47013739e-01,-2.86393642e-01,3.27027112e-01,6.33103251e-02,-4.02030312e-02,1.78049147e-01,1.77210242e-01,1.12334244e-01,-6.35585040e-02,-8.01113620e-02,-7.00049698e-02,1.72489569e-01,-8.97594616e-02,7.26839751e-02,-1.21775076e-01,-1.40553527e-03,4.85430270e-01,-2.71320254e-01,8.39756452e-04,1.09576717e-01,-9.96498317e-02,2.44478986e-01,1.82187647e-01,1.60025414e-02,1.02119967e-01,-3.75120819e-01,-1.10558879e+00,7.27982298e-02,-5.05818948e-02,-4.79099303e-01,3.48026901e-01,1.14044592e-01,7.07460403e-01,4.23056595e-02,2.67157286e-01,4.92742330e-01,-1.38021791e+00,4.46578488e-02,-1.32902907e-02,-3.69391769e-01,2.54750162e-01,2.56624520e-01,-2.65530776e-02,3.75412703e-02,4.77769852e-01,2.30589524e-01,-5.10182977e-01,-1.18375808e-01,1.78595155e-01,-4.69894260e-01,1.90530643e-01,1.52509391e-01,-8.31351206e-02,-1.97263598e-01,-2.00272262e-01,-2.29919598e-01,3.82932812e-01,-7.85912350e-02,1.36117879e-02,1.06448495e+00,-6.46234512e-01,1.82042524e-01,1.12339154e-01,1.74230948e-01,3.35464686e-01,-5.64768314e-01,1.32647052e-01,-1.08283252e-01,2.62757778e-01,1.55842006e-02,-2.36350745e-01,-3.53980511e-01,6.13172241e-02,1.88962021e-03,1.72300730e-02,7.76693076e-02,1.96547493e-01,1.76448777e-01,7.93220773e-02,-2.85499752e-01,-2.09566489e-01,2.17966363e-01,1.56757206e-01,2.13964842e-02,-1.59117188e-02,-1.30241469e-01,1.19187452e-01,-7.06151664e-01,-9.62855890e-02,7.75941983e-02,-7.55418465e-02,4.45402376e-02,-8.24646354e-01,-2.94581622e-01,-7.01706707e-02,-1.93278983e-01,-4.69486833e-01,6.62171915e-02,-3.98065776e-01,1.78098947e-01,-4.49953713e-02,-7.60125756e-01,7.60013983e-02,-1.67822003e-01,-2.73849946e-02,5.45160696e-02,-3.68488222e-01]
[1.62142366e-01,-1.61106780e-01,1.64597258e-01,9.31731910e-02,5.49448244e-02,-6.40137121e-02,-6.82143942e-02,-1.23514986e+00,-4.58828658e-01,-3.48082244e-01,2.39695266e-01,-1.49080947e-01,2.48270079e-01,-7.53717944e-02,3.22281152e-01,-4.85390902e-01,2.47446984e-01,-8.79960895e-01,4.95048389e-02,5.47021806e-01,-3.23976606e-01,-1.70853719e-01,-3.93783748e-01,3.24595124e-01,1.18190460e-01,-6.82401210e-02,-2.14506686e-01,-6.21922500e-02,3.63317519e-01,2.45388314e-01,-2.01165259e-01,1.61257535e-01,1.85378388e-01,-1.27438709e-01,1.82760172e-02,6.88184381e-01,1.63478404e-02,4.77823764e-02,1.37504399e-01,1.12177357e-01,1.75762296e-01,-1.31891206e-01,1.95643649e-01,1.16917714e-02,2.65301228e-01,1.03747785e-01,-1.57926559e-01,1.41787386e+00,1.20415173e-01,-1.56864777e-01,-8.28692243e-02,-2.26489425e-01,-1.45712972e-01,-6.75060391e-01,5.31567521e-02,2.06110656e-01,-3.92111123e-01,-3.75982821e-01,1.87289566e-02,-3.45795508e-03,4.62980181e-01,-3.84992808e-01,2.35841706e-01,4.87922430e-02,-5.28141737e-01,-1.83336660e-01,4.16643530e-01,1.25342697e-01,-5.13247885e-02,2.32581288e-01,-1.32149113e-02,3.85858208e-01,-3.79048914e-01,-5.27106551e-03,7.13069513e-02,-9.33230668e-02,1.84697807e-01,-3.09738725e-01,1.22951940e-02,6.72784001e-02,9.06507224e-02,3.02619666e-01,-2.10530221e-01,-3.07430327e-01,3.33479315e-01,2.67669439e-01,-5.36300123e-01,-5.84521413e-01,-8.84167194e-01,-6.15790524e-02,-4.11581546e-02,-3.86375934e-01,2.77112037e-01,1.67510480e-01,3.06667864e-01,2.96718687e-01,-8.11424404e-02,-4.47383314e-01,-8.67431890e-03,-1.82417035e-01,6.41399384e-01,-4.02775735e-01,-2.96120644e-01,3.07339311e-01,1.06937058e-01,3.43716587e-03,2.84671664e-01,3.63190882e-02,-5.39476037e-01,-1.48325399e-01,-1.85893580e-01,-3.23986140e-04,-9.46317986e-02,-1.12610388e+00,3.39032352e-01,4.16174322e-01,-3.04358035e-01,-1.28472418e-01,2.22688332e-01,-8.09393525e-01,-2.07512006e-01,9.35679823e-02,7.11567998e-02,-3.36466879e-02,-7.48701468e-02,-2.25019902e-02,-1.92846656e-01,-1.02605321e-01]
[2.36420959e-01,-4.89936352e-01,2.76071578e-01,9.57247510e-04,4.00196500e-02,-4.93125990e-02,-1.03090536e-02,1.91078365e-01,-1.23141684e-01,6.05600059e-01,-2.10705101e-01,-1.29675001e-01,-7.26318777e-01,1.29140273e-01,1.89806238e-01,-6.07203364e-01,1.36429623e-01,-3.11217403e+00,2.30182141e-01,-3.48069966e-01,-4.22602266e-01,-4.20819432e-01,8.39901328e-01,-1.17773704e-01,1.84670046e-01,-5.34469336e-02,-1.41382739e-01,-2.13079695e-02,1.58119187e-01,1.91729560e-01,1.04902014e-01,-7.98564181e-02,3.43151838e-02,-3.64305854e-01,-3.55424672e-01,1.83102503e-01,1.39320577e-02,-2.75903344e-01,-1.70090064e-01,-3.21320035e-02,3.97307724e-02,-1.35890305e-01,-5.76509655e-01,-1.44196838e-01,-1.19776670e-02,1.28827170e-01,1.42341763e-01,-3.42104226e-01,4.34166081e-02,-5.28741293e-02,-1.62604168e-01,-3.77936304e-01,-9.80980098e-02,7.00500131e-01,1.12089679e-01,5.83583191e-02,3.11897010e-01,4.62201657e-03,-1.37712210e-01,-1.70515161e-02,-1.75938547e-01,-1.35526508e-01,2.99397886e-01,2.68257916e-01,1.22324508e-02,-6.83571398e-02,-5.00136614e-01,5.42761646e-02,-1.14511900e-01,1.00886188e-01,1.80705339e-01,3.49698037e-01,5.89032710e-01,2.42684022e-01,-1.83099255e-01,-1.55644998e-01,-1.66623756e-01,9.25089568e-02,1.43603757e-01,3.80428433e-02,-1.55759707e-01,-1.95526421e-01,1.42015710e-01,2.98262030e-01,3.07789654e-01,3.03648710e-01,-3.49801779e-01,-1.02224484e-01,-8.31382573e-01,8.92454758e-02,-1.09899126e-01,2.17481777e-02,-3.70843649e-01,2.26302847e-01,3.80187660e-01,-5.64344339e-02,1.23402461e-01,-1.21213272e-01,-3.04136574e-01,-4.05479483e-02,-5.20613790e-01,3.77204627e-01,1.18246526e-01,-6.08104020e-02,-6.18374422e-02,8.59428570e-02,-2.81231135e-01,-1.53793320e-01,-4.15709168e-01,-1.75682977e-01,-8.79572853e-02,-6.86737802e-03,9.82135609e-02,-1.01441622e+00,-4.37488519e-02,-1.74641516e-02,1.07782340e+00,-4.30584438e-02,-4.23777141e-02,-2.14538321e-01,-1.00333914e-01,2.29965836e-01,-1.25956750e+00,2.75133010e-02,5.89148290e-02,-1.99180376e-02,-6.96633533e-02,2.35006139e-01]
[0.08356717,-0.7204271,0.1950309,-0.3043811,0.14795247,-0.1761914,-0.48266104,0.3894896,-0.05021906,-0.43906704,-0.22763637,0.02986556,0.78623366,-0.03745853,0.2551787,-0.37520483,0.03869836,-0.15558344,0.22015902,0.19016501,0.35119456,-0.3214965,-0.4998602,-0.33824444,-0.01319346,-0.03963798,-0.32235214,0.00603281,0.19152604,-0.0243196,0.3317082,-0.16725823,0.10373739,-1.6780087,-0.06141751,-0.19008878,0.10455276,-0.15574643,0.10189223,-0.47988266,0.03180582,-0.12681262,0.26832694,0.02993122,-0.04410655,0.11673742,0.30990463,-0.19767733,0.38604122,0.16300964,0.08635109,0.71180385,-0.07018865,-0.24241857,0.14674501,-0.33232644,-0.5880795,-0.0718396,-0.24022636,-0.00628149,0.20993835,0.37962937,0.36583397,0.1283262,0.20615731,0.09601679,0.07791941,-0.6910364,-0.1686471,0.24015805,0.25021377,0.09985434,-0.59444636,-0.20658787,-0.03131645,-0.16233124,-0.5889307,0.45886794,0.05994545,0.09523995,-0.49591303,0.12183348,-0.04381218,-0.41149765,0.23603387,0.25761932,0.11243842,0.36951524,-0.24075335,0.39095613,-0.00575165,0.42543986,0.4409155,0.21877414,0.10270409,-0.80626214,0.1697795,0.55096155,0.20032896,0.09087464,0.152745,0.00718462,-0.33547473,-0.05862224,-0.5418176,-0.22499816,0.2507136,-0.07381046,0.19773056,0.63889474,0.16186823,0.06079486,0.09066865,-2.3649116,-0.11895633,-0.06385028,-0.2459628,-1.2418941,-0.56775755,-0.06896531,0.18831079,0.18632482,0.28102067,-0.15360674,0.19528048,-0.02424839,-0.28725734,-0.27633002]
[-0.09332388,0.25858402,0.15643859,0.43451518,-0.25080675,0.10270823,0.40898818,0.28618333,-0.19126281,0.0217846,0.20206904,0.04532798,-0.6093102,-0.23669575,0.14027897,-0.5594984,0.23908149,0.37362853,0.15909512,-0.16846664,0.25281766,-0.14564475,0.17174238,-0.29188314,0.10158124,-0.04593234,-0.05168846,-0.03988682,0.12446089,0.02023082,-0.23320603,0.15499587,0.06866186,-2.6835754,0.08041295,-0.5446526,0.0331574,0.51924217,-0.02330187,-0.51958865,-0.01274829,-0.12141439,0.6269516,-0.14427589,0.0301134,-0.44680038,0.17470576,-0.10001667,0.48557544,-0.07493982,0.04436902,-0.45927352,-0.08877047,0.07514181,0.10570362,-0.1762484,0.7438705,0.03707573,0.19157498,-0.03351261,-0.29361266,-0.22598918,0.31962612,-0.11177348,-0.60149324,-0.18756635,0.28773817,1.0580692,-0.23985666,0.20694321,0.02744821,-0.04631593,-0.25454926,-0.1733595,0.20498593,0.19981678,-0.01933198,-0.66928595,-0.10754513,0.00640107,0.1761453,-0.542126,-0.10478947,0.38351876,0.18311274,0.18056226,-0.89134127,-0.20358056,0.21148945,-0.24341707,-0.13322389,0.14866816,-0.5364619,-0.2299218,-0.13199897,-0.15780595,0.01128765,-0.29840007,-0.00773574,0.12738703,0.04819302,-0.5499619,-0.14824794,-0.09819185,-0.01195587,-0.34012857,0.03254049,-0.07710898,-0.4608241,-0.5947647,-0.00561639,0.17772067,-0.32713097,-2.331196,-0.15001044,-0.5301742,-0.38634327,-0.13151619,-0.6022622,-0.12775615,-0.34819993,0.2196304,0.12160649,-0.2675496,0.10451425,-0.036769,-0.14211582,0.57074904]
[-5.19036269e-03,2.80907363e-01,7.15532079e-02,-1.41554520e-01,4.24248606e-01,2.99912035e-01,3.73074055e-01,1.64752349e-01,-3.34007084e-01,1.48290142e-01,-2.43503034e-01,-2.08578631e-01,4.34141666e-01,-1.49201259e-01,4.27327044e-02,-3.55674535e-01,2.92984933e-01,-6.13491423e-03,-9.95411202e-02,3.06106716e-01,-1.91881135e-01,-4.81205769e-02,-8.64625201e-02,-9.03806761e-02,1.51098222e-01,-3.81962173e-02,6.29230261e-01,2.16538146e-01,2.52878159e-01,8.06278363e-02,-2.15768874e-01,-1.05684400e-01,2.07807899e-01,-2.93070346e-01,1.55371934e-01,-2.29075834e-01,1.19638108e-01,-4.92548406e-01,-5.32578602e-02,5.85791096e-02,2.16353893e-01,-8.59430134e-02,-4.43173647e-01,6.56557202e-01,2.03528091e-01,-3.53603339e+00,9.73916650e-02,1.55072093e-01,3.65204692e-01,5.29754937e-01,-2.79489189e-01,8.73583406e-02,-5.21272123e-02,-3.78686458e-01,2.56351054e-01,-7.01640174e-02,-6.36118114e-01,2.83684786e-02,-1.24700237e-02,-1.25529338e-03,-3.67121369e-01,-2.67129958e-01,3.03456366e-01,-3.04222375e-01,-1.83749452e-01,-3.03435802e-01,-4.20239508e-01,-4.66159105e-01,2.65475482e-01,2.01706588e-01,-2.67507583e-01,5.52598685e-02,7.56920636e-01,4.92319018e-01,1.92257419e-01,3.62968415e-01,2.25447237e-01,5.84392965e-01,2.40741521e-01,-7.92460050e-03,4.69292521e-01,2.26935558e-02,-4.10325341e-02,-7.23833084e-01,5.68801276e-02,1.22626565e-01,-1.21428311e+00,-4.44753408e-01,1.19202137e-01,-1.14874803e-01,2.41011903e-01,-1.95160180e-01,4.16160151e-02,-2.37969711e-01,1.58476233e-01,1.09573148e-01,-3.71959269e-01,-4.28828895e-01,3.27705264e-01,-1.36288524e-01,-1.81274578e-01,6.21910155e-01,1.30226642e-01,-2.79058367e-02,-2.42369920e-01,4.38774467e-01,-4.43428069e-01,1.28126517e-02,-4.84729297e-02,6.32924318e-01,-3.01394671e-01,1.39131770e-01,-1.51997089e-01,-2.31356645e+00,2.56063696e-02,-1.40458211e-01,-1.03007980e-01,2.54457980e-01,-3.59914273e-01,-2.21256614e-01,-1.55925959e-01,4.57095057e-02,-2.23057806e-01,-4.19298969e-02,-3.89560312e-02,-2.73784306e-02,-5.83997428e-01,-6.66202188e-01]
[1.32422354e-02,-6.42955080e-02,-6.38233172e-03,-1.96367174e-01,2.24271879e-01,3.75049934e-02,-6.26606643e-01,-1.73026711e-01,7.44802579e-02,-1.52438179e-01,5.24270177e-01,2.43587688e-01,2.39583731e-01,1.21962987e-02,2.15268582e-02,-4.85120654e-01,1.28848553e-01,1.44405812e-01,-2.08024099e-01,-3.18395942e-01,-7.50856921e-02,-2.75150478e-01,-8.36518705e-02,-8.04626420e-02,1.17902175e-01,1.23166069e-02,2.85547860e-02,2.18025576e-02,3.01088300e-02,1.63245648e-01,-1.88044608e-02,5.04877307e-02,-1.30810151e-02,8.42811987e-02,5.67029268e-02,-9.09454674e-02,4.83359098e-02,4.10705775e-01,-1.25955001e-01,-6.15256093e-02,1.48333594e-01,-9.16990042e-02,-4.60519999e-01,-8.20168972e-01,-1.39060384e-03,-5.86558342e-01,-3.03188711e-02,-1.54182270e-01,2.65279323e-01,1.62414387e-01,3.71726096e-01,-1.33838102e-01,3.33811566e-02,3.98044407e-01,2.49409229e-02,1.26873672e-01,1.01722099e-01,1.62012070e-01,-2.48302415e-01,-6.05465518e-03,1.12166488e+00,6.74841106e-02,3.61791968e-01,1.67013064e-01,2.56003439e-01,3.43411446e-01,3.79957616e-01,-1.61927491e-01,-1.55573696e-01,3.40999931e-01,-2.81632721e-01,3.50558609e-01,-5.35425603e-01,-4.49997425e-01,6.14576377e-02,3.65822203e-02,-8.71609375e-02,-6.75873458e-01,2.07008973e-01,-4.74020094e-02,-5.30781209e-01,-2.77519763e-01,-4.97605532e-01,5.09493947e-01,-1.08520560e-01,1.45146087e-01,-8.31349730e-01,1.87800020e-01,1.17519930e-01,-1.34065151e-01,1.86432615e-01,-3.16551685e-01,-6.09991997e-02,-4.77314502e-01,2.65138000e-01,1.49028599e-01,-3.42756557e+00,8.10101509e-01,-3.18184346e-01,-1.39898837e-01,9.26189795e-02,1.00911804e-01,-1.90701839e-02,-1.25489980e-01,-4.34961051e-01,-9.75235924e-02,1.03499077e-01,1.05742738e-01,2.71306813e-01,-5.63883781e-01,-3.20926160e-02,-5.34475036e-02,5.50063729e-01,-2.08530498e+00,1.18902475e-02,1.62262425e-01,3.17742914e-01,4.01453018e-01,-1.12414487e-01,1.10670768e-01,4.46352780e-01,1.66772366e-01,-6.39823675e-01,5.66775799e-02,-1.27770081e-01,-3.18768732e-02,-2.38176301e-01,3.03931743e-01]
[1.9530962e-01,-1.1175375e+00,1.1230906e-02,-1.4604542e-01,3.1396136e-01,-2.2068051e-01,-2.5680294e-02,-5.5371630e-01,1.9960643e-01,-4.3374604e-01,-1.8044308e-01,-3.5055351e-01,-7.4504203e-01,5.0745390e-02,-1.7931689e-01,-7.4916101e-01,-3.0592626e-01,3.4881970e-01,-6.8698490e-01,1.2552655e-01,-5.2057838e-01,-7.3641561e-02,4.6210060e-01,-4.1210574e-01,1.5533587e-02,1.4266047e-02,-1.2755419e+00,-4.1046888e-02,7.0032731e-02,1.9426449e-01,1.4031199e-01,-4.9457483e-02,7.7056296e-02,2.5938824e-01,2.1836238e-01,7.6700203e-02,-6.3464651e-03,-5.7664877e-01,-1.7505253e-02,1.0013477e-01,1.5846063e-01,-1.3203092e-01,5.7522565e-01,4.6016046e-01,5.6072813e-02,-5.3973958e-02,1.2233418e-01,-3.5670638e-02,3.4737086e-01,1.9028643e-01,5.4876182e-02,3.2405082e-02,6.8463027e-02,3.9233129e-02,4.1319814e-02,-1.6184306e-01,-8.6350501e-02,2.6437211e-01,-6.6869347e-03,7.9258848e-03,-7.4368489e-01,4.1222224e-01,5.5085349e-01,-4.2492148e-02,-5.5613077e-01,2.2209819e-02,3.8670918e-01,-3.1679997e-01,6.2245089e-01,4.3498060e-01,6.8028659e-01,3.4911925e-01,1.3146282e-04,3.3323267e-01,1.5794365e-01,5.2103370e-02,8.8374749e-02,6.3120735e-01,-8.0928482e-02,-1.0089123e-01,-3.3868366e-01,5.2264267e-01,7.9231864e-01,2.0908478e-01,-3.7110755e-03,1.1106347e-01,-3.2132080e-01,-1.8787366e-01,6.1969507e-01,6.8143204e-02,-3.4676200e-01,-3.2836473e-01,5.3628641e-01,-6.2630361e-01,2.5358477e-01,2.3122679e-01,-6.5689445e-01,-7.1404868e-01,-3.2021564e-01,1.1432927e-01,4.1504160e-02,-3.4344134e-01,-7.9993665e-02,8.0172502e-02,-1.6821839e-01,-1.7632815e-01,-6.4143561e-02,1.9435121e-01,4.6584822e-02,2.6609147e-02,3.4607646e-01,-2.2612619e-01,-2.4753515e-01,-2.3127708e+00,5.5862583e-02,-4.1941002e-02,-3.0423442e-01,-1.6169052e-01,-1.1257811e-03,-1.6169195e-01,5.9689198e-02,8.9970760e-02,1.3898909e-01,-1.0745263e-01,-2.0716481e-01,-3.6786143e-02,-5.6191772e-01,9.8428458e-02]
[4.44627702e-01,-4.63670909e-01,-2.80673499e-03,1.99565113e-01,-2.99825855e-02,-4.84024324e-02,-2.14179922e-02,-1.98560506e-01,-1.95161328e-01,6.66318774e-01,8.61966461e-02,1.65290654e-01,1.18730910e-01,1.04384664e-02,4.67140507e-03,-3.27796131e-01,-9.00269032e-01,-2.11676866e-01,-5.49774349e-01,2.89870411e-01,-3.52311015e-01,3.48882563e-02,-2.24688679e-01,-2.83461905e+00,1.20264016e-01,-7.29609141e-03,-4.71499711e-01,-4.99596931e-02,-4.59280834e-02,1.12729497e-01,4.79702242e-02,-1.01777412e-01,2.84376964e-02,3.25737268e-01,2.04737023e-01,5.43144584e-01,8.67201835e-02,7.56512344e-01,-8.09491575e-02,1.53709739e-01,6.46224990e-02,-1.19323090e-01,-1.92247838e-01,-5.05841561e-02,1.13293700e-01,3.36406156e-02,1.15699172e-01,-1.21772438e-01,4.91369873e-01,-1.92466736e-01,-4.55711722e-01,3.54578853e-01,1.70416664e-02,-7.47636752e-03,9.10145640e-02,2.52088100e-01,6.22618943e-02,1.06675886e-01,-2.44894952e-01,-8.36197007e-03,5.16146243e-01,6.87246248e-02,3.68526161e-01,-1.29448250e-01,5.92088938e-01,-1.42310157e-01,-1.04757929e+00,9.03577209e-01,-5.39906681e-01,1.25162065e-01,-9.42469910e-02,1.72458246e-01,5.77062257e-02,-2.91401267e-01,1.03732668e-01,2.89760709e-01,5.04087508e-01,-2.36525849e-01,1.21274091e-01,1.91615317e-02,-1.63862690e-01,-9.34795886e-02,-4.27800059e-01,-4.07825001e-02,-7.82127306e-02,6.83405176e-02,-4.38156456e-01,-2.64617324e-01,3.84758532e-01,-3.66757929e-01,6.11015707e-02,-1.73724636e-01,-4.88062024e-01,-1.30427107e-01,8.29782784e-02,1.06893048e-01,2.38090590e-01,2.60481447e-01,5.02878129e-01,-2.74302177e-02,-2.78495312e-01,1.17074521e-02,-1.24044895e-01,-1.85721725e-01,-2.69489557e-01,3.04445714e-01,5.49834609e-01,1.75976142e-01,3.36397201e-01,9.02842656e-02,-2.78668907e-02,1.49944350e-01,-5.19801259e-01,-2.11721921e+00,-4.76779342e-02,-3.83041829e-01,-1.98689163e-01,-1.62887052e-01,-1.55370295e-01,-5.26445866e-01,-3.41347277e-01,1.08433090e-01,2.29024395e-01,-1.02350511e-01,6.54570535e-02,-3.45469974e-02,-5.34890778e-02,-4.46474314e-01]
[5.51125109e-01,3.24128792e-02,-2.41238683e-01,-3.39801818e-01,-1.62092760e-01,-1.28358513e-01,-4.68631424e-02,3.47164214e-01,-9.45538506e-02,-8.89357984e-01,-3.71821485e-02,1.64727166e-01,-1.09379306e-01,-4.25896913e-01,-8.35660324e-02,-5.85587800e-01,-7.77708590e-01,-3.50270212e-01,-1.29322052e-01,3.72572206e-02,1.91670328e-01,-2.27892578e-01,-2.38968268e-01,-7.35980213e-01,1.01876542e-01,1.66216027e-02,-1.64018963e-02,-1.14050701e-01,2.65136778e-01,4.78861816e-02,-1.13131516e-01,-1.13287285e-01,1.06798075e-01,-5.46435826e-02,-2.84636039e-02,-2.97377288e-01,2.10058272e-01,-3.05665463e-01,1.72709048e-01,2.54003853e-01,-4.19877190e-03,-1.07482389e-01,-1.84117347e-01,1.19626373e-02,1.59497961e-01,9.61292759e-02,2.01939180e-01,2.20488250e-01,3.44327807e-01,-2.20190883e-01,9.20616165e-02,-4.12415892e-01,-1.83624979e-02,-5.12084812e-02,-1.32291406e-01,8.25836509e-02,9.01169851e-02,5.33830114e-02,6.20132446e-01,-1.41289160e-02,-4.98355418e-01,-5.60039878e-01,3.29374164e-01,-3.61714922e-02,4.23430562e-01,-1.93211719e-01,4.48365688e-01,-6.57898784e-01,4.71393824e-01,2.08016839e-02,-4.43383664e-01,1.67855129e-01,-1.28550436e-02,-7.03164376e-03,1.47552341e-01,3.05275500e-01,1.91116676e-01,-1.15475409e-01,6.81196004e-02,3.45036499e-02,1.06722271e+00,1.56759769e-01,-2.36149982e-01,-8.22978690e-02,-1.91479564e+00,9.05909166e-02,-3.73111695e-01,-1.20118916e-01,7.13978335e-02,-6.39034435e-02,2.77092606e-01,2.89641768e-01,1.73253849e-01,-5.12790754e-02,9.72825810e-02,-1.77504912e-01,3.07872534e-01,-1.13263041e-01,-3.01777035e-01,7.81843588e-02,1.71809182e-01,9.75428894e-03,1.28922775e-01,-5.66584647e-01,-6.87793072e-04,-1.92857161e-01,-5.15905261e-01,4.78746779e-02,2.93256581e-01,4.86256462e-03,4.88399744e-01,-1.26183152e-01,8.28687966e-01,-2.79786849e+00,-1.67136341e-01,2.84611404e-01,2.17614576e-01,-9.35661614e-01,-1.05162442e-01,-2.05648124e-01,2.14181706e-01,4.43121642e-02,-1.93084717e+00,-9.20028687e-02,-2.62672957e-02,-3.28149460e-02,9.98292118e-02,6.94174469e-01]
[2.41135836e-01,4.80994076e-01,1.56391829e-01,1.20369568e-01,-4.40530255e-02,-3.77412699e-02,-3.53987962e-01,3.07700664e-01,-1.72979832e-01,1.31192601e+00,-1.50168370e-02,-7.08104789e-01,1.99110195e-01,-7.50291124e-02,-3.39452177e-01,-3.94824266e-01,-3.89973015e-01,-1.68297037e-01,1.97240874e-01,-1.09740630e-01,-4.35369508e-03,-3.22394934e-03,3.38956982e-01,1.53946251e-01,1.00406840e-01,-2.70985416e-04,5.54992855e-02,-2.52077699e-01,2.59260476e-01,-6.60192519e-02,1.08906381e-01,4.38305914e-01,-1.06492251e-01,-2.41866312e-03,-4.56660278e-02,-2.88128704e-01,7.16345981e-02,-4.75180745e-01,-2.15037152e-01,2.86066741e-01,-1.51796704e-02,-1.34398535e-01,3.87898594e-01,-3.15989166e-01,9.65825003e-03,1.12810895e-01,9.20936167e-02,-3.00016943e-02,2.13596210e-01,4.41761538e-02,2.61590391e-01,2.69206822e-01,5.60821630e-02,9.85640287e-02,3.44481878e-02,2.11850047e-01,-1.09083593e-01,7.26402104e-02,1.52541667e-01,-1.26147270e-02,-1.21034779e-01,1.01695262e-01,4.96592164e-01,-1.02135241e-01,-6.11638427e-01,1.74663290e-01,2.53510326e-01,9.84404981e-02,-2.56179988e-01,1.02473944e-02,3.21899742e-01,1.25492021e-01,-2.59412318e-01,-4.13415372e-01,-4.17943746e-01,3.17517459e-01,-3.60401034e-01,1.87432483e-01,9.07451808e-02,-1.87627319e-02,-2.00282082e-01,-5.20437360e-01,3.82230282e-01,2.47266412e-01,-3.16159868e+00,3.05649657e-02,-4.46726024e-01,4.38984036e-01,3.00472253e-03,3.12591754e-02,-4.82956499e-01,4.75851655e-01,-2.00990751e-01,5.65231554e-02,-2.64261872e-01,1.42075315e-01,4.15876694e-02,6.75452650e-02,-1.59727916e-01,-2.84595042e-01,-2.75299340e-01,-2.63612539e-01,-7.65037656e-01,5.03036857e-01,-3.69797468e-01,8.38452429e-02,-8.03693384e-02,-2.26362292e-02,4.16831583e-01,-3.17405164e-02,-6.02190673e-01,5.39801642e-02,-3.97905819e-02,-2.08206940e+00,4.12898183e-01,5.22294581e-01,-4.81365234e-01,-1.88267618e-01,-2.48611152e-01,-5.39785206e-01,-1.85821220e-01,5.97169697e-02,-5.25186360e-01,-1.01735964e-01,-1.96983218e-01,-2.66589094e-02,4.89163361e-02,-7.75752485e-01]
[-1.37057185e-01,-5.28943427e-02,2.63191402e-01,1.08758710e-01,-1.77845329e-01,3.80109876e-01,8.26487184e-01,2.07349002e-01,-1.24089621e-01,-4.42132384e-01,1.71332687e-01,-2.61492550e-01,-4.57494646e-01,-1.70392200e-01,-2.11206809e-01,-3.92493159e-01,-2.73326952e-02,3.73892486e-01,-1.12306647e-01,-2.50796467e-01,-1.92899600e-01,1.20153628e-01,-4.63635445e-01,3.34342986e-01,9.30530205e-02,3.57748494e-02,-1.62899867e-01,-1.00045092e-01,4.73573238e-01,6.50585294e-02,-7.95967057e-02,-1.61006421e-01,-2.50875205e-01,2.11837366e-01,2.13928353e-02,-9.42173541e-01,-3.62287764e-03,6.12862781e-02,7.44870678e-02,2.73110569e-01,2.41622508e-01,-1.06092222e-01,-4.65972424e-01,3.98338050e-01,-6.36314973e-02,1.45344855e-02,-3.05982102e-02,1.25276804e-01,1.55304402e-01,-2.78142095e-01,-2.94684231e-01,1.48980319e-01,1.05012730e-01,-2.29649082e-01,1.30083367e-01,2.27275506e-01,-1.77699011e-02,1.48401543e-01,-5.59609830e-01,1.78165035e-03,7.17986822e-02,1.34965956e-01,4.97921705e-01,2.95066740e-02,1.08447902e-01,1.13905825e-01,-1.40662879e-01,-1.79719836e-01,3.73861678e-02,-1.54229835e-01,-8.33693072e-02,-4.72879946e-01,1.55113906e-01,7.09605396e-01,-2.45034003e+00,2.16413826e-01,1.39274389e-01,2.21878476e-02,-1.66180022e-02,4.92393635e-02,-6.07541740e-01,-2.83808172e-01,7.26935267e-02,1.31408134e-02,-3.38933021e-01,1.07458316e-01,1.21009462e-01,-3.97117361e-02,2.77199200e-03,6.98435828e-02,-2.76539236e-01,8.24370980e-02,-1.37100741e-01,-6.91943839e-02,-6.28357902e-02,6.89816400e-02,-3.48029137e-02,-2.48323753e-02,-1.68223396e-01,1.79764405e-01,2.76246578e-01,2.66166687e-01,9.22364056e-01,5.90718985e-01,-3.40739265e-02,-5.13748266e-02,5.94483554e-01,-1.59779742e-01,4.87925142e-01,-1.16384007e-01,2.98591882e-01,3.21234524e-01,-5.99693298e-01,-1.41339803e+00,-4.96784389e-01,-2.36905456e-01,9.36870396e-01,2.31178537e-01,-1.31870005e-02,-1.56668878e+00,6.12657778e-02,9.77140963e-02,3.75964469e-03,-2.66621318e-02,-3.14853676e-02,-3.25355120e-02,4.49093059e-02,2.65470892e-01]
[-4.41018879e-01,-1.35612082e+00,2.25026920e-01,-2.49390036e-01,1.00724265e-01,1.60602644e-01,1.53984323e-01,2.60858983e-01,-6.32637024e-01,-6.99256718e-01,-4.36027855e-01,-1.72772780e-01,9.26484108e-01,-1.10711254e-01,4.61255252e-01,-3.04667681e-01,4.32785332e-01,3.79030675e-01,-8.65515843e-02,9.89277288e-02,-1.02008551e-01,-2.59088706e-02,7.22064078e-01,3.19776088e-01,1.71483845e-01,1.84245892e-02,1.12772554e-01,3.29821050e-01,3.60395730e-01,1.07837245e-01,-4.69707906e-01,2.19363868e-01,-2.03786534e-03,2.25388885e-01,-1.86572690e-02,1.77558810e-01,1.52851507e-01,-1.67669460e-01,-2.05041364e-01,4.01467443e-01,9.34206322e-03,-1.21454805e-01,3.29017460e-01,-5.11867106e-01,1.22901313e-02,3.52403000e-02,-2.21629396e-01,-1.03749417e-01,-1.58032835e-01,-3.76886606e-01,-1.02228045e-01,-4.54855591e-01,1.47802830e-01,2.14881435e-01,-2.45327219e-01,1.18876524e-01,3.34897488e-01,1.57648429e-01,1.14920482e-01,-1.52702490e-02,4.00788099e-01,-1.52021706e-01,2.50499040e-01,-6.74555779e-01,-4.56149168e-02,2.72688329e-01,4.47451659e-02,-1.53782275e-02,4.23261560e-02,7.59322047e-02,-1.07447691e-01,-5.28302908e-01,4.28736717e-01,-4.52119559e-01,-1.05108559e+00,-5.54527789e-02,2.95215040e-01,-7.03090429e-02,1.74602300e-01,2.59811461e-01,1.07023455e-02,2.45810866e-01,-4.18453366e-02,-3.37646343e-02,-1.50868490e-01,1.51427567e-01,-7.69072115e-01,4.09098923e-01,-9.32741314e-02,-1.29970890e-02,3.09925407e-01,9.10847506e-04,9.82670113e-02,-9.79569852e-02,-1.11046828e-01,-2.55875289e-01,-9.15640518e-02,5.84179834e-02,4.86828566e-01,-1.24097243e-02,-2.49602243e-01,2.10846037e-01,-6.11265302e-01,-8.06712806e-01,-8.05571154e-02,-1.95688635e-01,-3.65013361e-01,7.54144043e-02,4.83168095e-01,2.32873246e-01,-1.09089591e-01,2.56893247e-01,-2.40486801e-01,-2.42444158e+00,3.02469164e-01,-2.45082811e-01,-4.60135728e-01,-7.68837407e-02,3.21787298e-01,-2.19736874e-01,-7.31606901e-01,1.06141716e-01,5.99549115e-02,-1.26460820e-01,-1.76968023e-01,-3.26012373e-02,-3.56046379e-01,-8.18161219e-02]
[-0.5501751,-0.7636483,0.08298312,0.12762985,0.19320664,0.21580431,-0.35684747,0.36882058,-0.22355522,0.8593696,0.29712725,0.74022543,-0.98122495,0.05877486,0.0686221,-0.03810498,0.33225736,0.09587958,-0.1695112,0.0543387,0.06033915,-0.09785716,-0.46895587,0.08053735,0.01308438,0.01963081,0.3505031,0.31781814,-0.04198607,0.15550898,-0.45214054,-0.33530006,0.09840282,0.27107558,0.01414976,0.04128407,-0.04429271,-0.13193505,0.1714447,0.21923248,0.0591103,-0.11949294,0.23205791,0.54992396,0.13246128,0.13082226,0.09110431,-0.05997258,0.05351139,0.01877011,0.29012787,0.14150704,0.21228112,0.07113921,-3.063326,0.12753765,-0.21496399,0.03036584,0.12545703,-0.0188113,-0.16062166,-0.0415121,0.36225113,-0.8577015,-0.6517833,-0.22335798,-0.47936788,-0.20432432,-0.46121174,0.04457352,0.15249193,-0.20134151,-0.5857248,0.28467602,-0.22742368,-0.07374324,0.08500346,-0.08401167,-0.05106899,0.15509102,0.18850261,-0.27760038,-0.38528624,-0.04120546,0.06992578,0.03739465,-0.90714043,-0.46825388,-0.09212774,-0.14243014,0.42913958,0.006395,-0.17183939,-0.1515769,0.20060219,-0.12024761,0.10204162,-0.24718353,-0.22593778,0.06837696,0.4252708,-0.19416302,0.18207169,-0.0117371,-0.40784693,0.18045773,-0.01763254,0.13779736,0.5081264,-0.26939932,-0.28677744,0.00770654,0.65477294,-1.7085224,-0.12497307,0.46733895,-0.25223815,0.14318626,0.14528514,-0.02527759,1.1507252,0.12253678,-0.125141,-0.183334,-0.14186493,-0.03803128,-0.16675104,-0.27314276]
[1.17419809e-01,9.64640751e-02,9.03334469e-02,-3.23253334e-01,2.46306155e-02,-1.26171112e-01,-3.75488311e-01,-4.54655617e-01,3.25505644e-01,-3.82176608e-01,-5.46571553e-01,-4.88340646e-01,4.67876136e-01,-2.14657828e-01,1.87685281e-01,-2.00008661e-01,4.58960116e-01,-6.70216233e-02,-1.35723338e-01,1.20528480e-02,-4.78628546e-01,7.53973648e-02,-4.01837647e-01,-2.14451805e-01,-1.78765908e-01,-2.64599435e-02,3.87321413e-01,2.55152464e-01,-1.12118192e-01,3.20500657e-02,3.78919303e-01,1.35939151e-01,1.26899183e-02,-4.79147881e-02,-1.47791933e-02,-1.72586814e-01,-1.13499895e-01,5.88048637e-01,-2.20534697e-01,1.91712260e-01,1.39222443e-01,-1.22657865e-01,-3.82692546e-01,-2.57164955e-01,1.48430705e-01,9.50051174e-02,5.56026492e-03,2.89816767e-01,-2.94662029e-01,5.44277430e-01,-8.37389007e-02,3.75700235e-01,1.90285027e-01,-3.25591803e-01,-2.27078128e+00,-6.93322420e-01,-1.23368710e-01,1.77511662e-01,-3.94882053e-01,-1.26381060e-02,-6.13332868e-01,2.78213978e-01,4.22848731e-01,-2.53203571e-01,9.65870917e-02,-3.72225672e-01,3.39298785e-01,2.50587612e-01,5.24748981e-01,-7.61573901e-03,-2.73392946e-01,-3.34891856e-01,5.43452740e-01,-4.58597183e-01,1.39972148e-03,1.17602825e-01,-1.18142016e-01,2.14119881e-01,4.23858427e-02,9.70705971e-02,-3.51364225e-01,5.69735318e-02,6.58084810e-01,5.17704904e-01,5.65151609e-02,-2.64320523e-02,-5.77741146e-01,-1.39889225e-01,2.37942547e-01,2.91618183e-02,-4.39738005e-01,2.15651661e-01,-3.84207696e-01,3.07135433e-01,1.20759629e-01,-3.32217604e-01,1.72013715e-01,1.61656052e-01,5.30333817e-01,-1.62884876e-01,-7.57631481e-01,-1.19675279e-01,-2.89674133e-01,5.27684391e-01,-3.83713871e-01,4.64668358e-03,6.55462965e-02,1.30377889e-01,3.48448098e-01,-3.26787412e-01,1.76751673e-01,-2.42844131e-03,-2.56286949e-01,-6.86607957e-01,1.08702682e-01,2.89050967e-01,4.02700096e-01,-8.80839407e-01,-3.44189674e-01,-5.07336967e-02,-3.27754080e-01,1.92232117e-01,-8.22999179e-02,-4.92164455e-02,-5.49834818e-02,-2.63893865e-02,-2.42760286e-01,7.91534245e-01]
[4.69928116e-01,6.14022672e-01,3.74130271e-02,-1.94144458e-01,-9.50062796e-02,-1.51608571e-01,2.72980362e-01,-4.72573608e-01,-4.38064449e-02,5.93219250e-02,3.03445458e-01,-1.43539995e-01,-4.30751711e-01,-2.62489408e-01,2.62456872e-02,1.46203544e-02,5.95908165e-01,8.99140537e-02,-2.77969509e-01,-1.59688499e-02,-6.41547069e-02,-9.53984354e-03,6.20321989e-01,-7.69655168e-01,-3.09892483e-02,-3.13942842e-02,-1.65434003e-01,1.29777268e-02,-6.58218190e-02,6.40288964e-02,1.63081437e-01,-1.42575130e-01,-5.07044271e-02,-3.79719734e-02,-7.45831132e-02,-4.94732022e-01,-3.95992287e-02,7.41037205e-02,-2.07534701e-01,1.13714121e-01,1.07845172e-01,-1.34790748e-01,-1.67425796e-01,-3.48816328e-02,9.94090885e-02,1.12623628e-03,1.13555349e-01,-3.45694542e-01,-1.79186201e+00,3.77586074e-02,-9.20876712e-02,-2.77146399e-01,9.34321433e-02,2.59190828e-01,-3.14760625e-01,-1.35690653e+00,2.02562779e-01,3.23058218e-01,-1.20973267e-01,-8.08458589e-03,9.30333436e-01,-6.42372429e-01,5.69008470e-01,-1.64657980e-01,1.47189155e-01,4.78130907e-01,3.84944826e-02,2.08086103e-01,-2.35470578e-01,5.19490503e-02,-2.00723127e-01,-9.58626196e-02,-3.25251035e-02,2.42136359e-01,-7.68529251e-02,3.25254798e-01,2.77037352e-01,-1.29452989e-01,1.21836595e-01,2.68229041e-02,-3.82288173e-02,2.09315494e-01,-1.62768796e-01,-3.21817905e-01,1.17522135e-01,-2.24177927e-01,-3.90591323e-01,2.45344251e-01,-1.64098963e-01,-1.29182070e-01,6.03936315e-01,9.46441367e-02,4.55486596e-01,2.35969812e-01,7.68199004e-03,1.18025944e-01,2.29144424e-01,-1.17703490e-02,-8.51636171e-01,1.52895674e-01,6.97511554e-01,-4.06453013e-01,-2.76762426e-01,4.27380621e-01,-7.17304349e-01,9.01523158e-02,-1.36200011e-01,1.55152678e-01,3.29744041e-01,7.53863990e-01,2.82033980e-01,-1.38269365e-01,-1.11205034e-01,-5.38410902e-01,-6.23507500e-01,1.42659545e-01,-3.92494440e-01,-2.57249355e-01,-4.52326648e-02,-2.93393165e-01,-3.59640032e-01,2.89700508e-01,8.23608115e-02,9.89458713e-05,1.03095613e-01,-3.93669941e-02,3.60097289e-01,-4.66192663e-01]
[3.18212807e-01,5.19120514e-01,1.57182544e-01,2.94335604e-01,2.03224681e-02,-7.27419630e-02,3.23815048e-01,1.55004978e-01,-3.13793600e-01,-4.27912176e-01,6.57487333e-01,-1.62381589e-01,2.49809951e-01,3.98194976e-02,-1.86625868e-01,-1.14984371e-01,6.06750011e-01,3.86306718e-02,-1.27131730e-01,6.53270409e-02,4.32465434e-01,1.10745244e-01,-4.55064327e-01,-6.30535856e-02,1.69676483e-01,3.13820969e-03,-7.85131574e-01,3.12025040e-01,4.76787128e-02,-2.73185849e-01,-1.76972911e-01,1.29919057e-03,9.92359519e-02,2.18709767e-01,1.04853466e-01,5.56479514e-01,9.39480066e-02,-1.48093835e-01,-4.44487445e-02,-7.13811159e-01,2.23374858e-01,-1.06443211e-01,6.40330970e-01,-3.03349569e-02,1.56579405e-01,-1.58236492e-02,1.82872206e-01,-2.11349681e-01,-1.41275108e+00,-1.57806039e-01,-9.00259092e-02,3.14977020e-02,9.69996825e-02,2.75625288e-01,-2.98451111e-02,-4.26221043e-01,-3.43443602e-01,3.94675583e-01,6.61210239e-01,7.59504095e-04,-4.69382197e-01,4.21306163e-01,4.47754502e-01,-1.99955523e-01,8.70320648e-02,-5.15365362e-01,-1.97347850e-01,-2.41656885e-01,-1.86341047e-01,-2.06876829e-01,4.28419799e-01,-1.07575417e-01,-1.57312959e-01,6.33152485e-01,-7.22775832e-02,9.70650539e-02,1.61514208e-01,1.14182696e-01,2.13552222e-01,5.71668036e-02,-2.70278454e-01,1.06735617e-01,-3.43964964e-01,1.86127886e-01,-2.00593159e-01,-1.27700180e-01,-6.09332025e-02,-2.97997653e-01,-5.16737461e-01,-1.46799413e-02,-3.43486071e-01,-1.09190986e-01,-6.22466981e-01,2.00803578e-01,-3.77485394e-01,5.14833331e-01,-1.34736776e-01,1.63276702e-01,6.91501796e-02,-1.93658352e-01,-5.76138437e-01,9.37269535e-03,5.69231510e-01,-1.07127976e+00,-5.13110459e-01,-2.34456494e-01,1.87743947e-01,-2.46609040e-02,2.67166138e-01,-4.43558365e-01,-7.28035718e-02,-3.79894972e-02,2.27992415e-01,-6.32248104e-01,1.00006008e+00,-1.23030111e-01,-6.65687211e-03,-8.91611695e-01,-7.94866011e-02,-1.91689238e-01,-2.58015662e-01,2.21512541e-01,3.98776643e-02,-5.78625165e-02,3.17405730e-01,-2.71027535e-02,2.36730706e-02,-1.46203518e-01]
