(60,128)
[5.94234876e-02,8.93293619e-02,-5.58344722e-02,-7.14046182e-03,-1.99020192e-01,-7.58369043e-02,1.41699478e-01,-5.64905070e-02,-1.68993831e+00,7.39279747e-01,-2.80197144e-01,1.99644998e-01,-9.47783142e-02,-1.51416212e-01,-4.93507236e-02,-1.78839471e-02,3.25464845e-01,-1.73589304e-01,-1.28362253e-01,8.23379606e-02,3.16200219e-02,-3.44936252e-02,2.11084977e-01,9.08184890e-03,-4.28598821e-01,5.42301051e-02,3.06985639e-02,-1.83122046e-02,-3.08612897e-03,6.80939630e-02,-7.88215250e-02,1.96681153e-02,4.52550761e-02,-1.03279874e-01,1.62309691e-01,-1.30155158e+00,1.22329906e-01,2.97542028e-02,1.18134245e-02,2.18810603e-01,3.39957438e-02,7.23171085e-02,-4.88506779e-02,-1.10049081e+00,1.28086403e-01,1.33465603e-02,-3.07631232e-02,-3.89509574e-02,-4.62803096e-01,-1.30037099e-01,-2.64579430e-02,1.38817757e-01,2.50791740e-02,-5.20183891e-02,9.15112272e-02,-2.70109568e-02,2.48889193e-01,-1.99192449e-01,-1.51514158e-01,-5.58544546e-02,5.95544465e-02,2.88715884e-02,-3.72528285e-02,8.06247219e-02,1.70558915e-02,-7.97158927e-02,4.94290106e-02,3.13505088e-03,5.19316867e-02,2.67113149e-01,2.83246264e-02,5.40341884e-02,-3.26258168e-02,-4.31844711e+00,1.52512237e-01,-8.21678862e-02,-7.39626959e-03,-7.51001760e-02,-4.66695838e-02,2.23623455e-01,2.37231016e-01,-6.79709315e-02,7.85753652e-02,-4.78378162e-02,5.72289936e-02,4.11479808e-02,8.44973698e-02,4.30892631e-02,-2.34150410e-01,1.21848322e-01,1.66524295e-03,2.02748030e-01,2.24376842e-02,9.33519974e-02,-1.10597052e-01,1.81182072e-01,6.67034313e-02,1.02648437e-01,-7.12265298e-02,-2.53251821e-01,1.76610395e-01,4.03872654e-02,-4.39038686e-02,-1.08425021e-01,1.72647923e-01,-3.55562828e-02,2.95094810e-02,3.88194770e-01,1.44004356e-02,4.98552136e-02,5.57588860e-02,-2.79776007e-01,5.56151383e-02,2.14752898e-01,4.10326570e-02,-2.84098119e-01,1.06376946e-01,5.88694122e-03,1.79440409e-01,-5.52546047e-02,1.17692742e-02,-3.17212462e-01,-2.00481370e-01,2.25375488e-01,6.68080673e-02,1.45046875e-01,-1.82969831e-02,-6.93180263e-02]
[5.19096702e-02,1.59507632e-01,6.76878616e-02,-1.88161105e-01,1.72585607e-01,-4.27122191e-02,1.66304424e-01,-2.97236860e-01,-2.04167560e-01,-7.91166306e-01,-1.44068107e-01,1.11528531e-01,-1.46678491e-02,-3.91755737e-02,-3.18570845e-02,-2.74606556e-01,-6.44668281e-01,-6.27149916e+00,7.02624440e-01,-4.96907383e-01,-4.09126163e-01,5.28284274e-02,1.78918689e-01,1.59299728e-02,-1.96465719e-02,7.89580867e-02,6.83671013e-02,8.02844390e-02,1.12073176e-01,3.81202176e-02,-1.03311360e-01,-8.65444963e-05,-4.14995164e-01,5.08656800e-01,-1.58660084e-01,-1.93909919e+00,-6.25871420e-01,7.33148009e-02,1.47556663e-01,-2.14521121e-02,1.17687255e-01,1.24300905e-01,-2.77832267e-03,5.23510456e-01,5.70742376e-02,-1.25638978e-03,-1.50841959e-02,-1.81716830e-01,2.18339041e-01,-3.28571171e-01,8.03182498e-02,-5.49983382e-01,1.60226643e-01,-3.59119810e-02,3.25857773e-02,1.52213454e-01,1.04394540e-01,-1.50242031e-01,2.86246240e-02,-2.82939404e-01,1.27862290e-01,1.68940406e-02,-1.48649901e-01,-6.21630073e-01,-2.43644649e-03,-2.70363074e-02,1.23581020e-02,-1.14841275e-01,1.21446960e-02,5.19927144e-01,1.28285829e-02,-1.62451386e-01,1.71784669e-01,-4.76246774e-01,1.39472574e-01,2.39210337e-01,-1.86626408e-02,3.55901271e-02,2.70802695e-02,-4.26327258e-01,2.23475054e-01,8.72897543e-03,-8.38494897e-02,2.63162434e-01,1.51754558e-01,-7.00255930e-02,5.22667319e-02,1.52734384e-01,-2.53036171e-01,4.81732190e-02,1.61386117e-01,-7.19382688e-02,1.98876448e-02,-9.71747413e-02,-3.45460288e-02,-6.77897274e-01,1.31369784e-01,7.47811139e-01,6.77842181e-04,-9.02931765e-02,1.23978041e-01,2.39813149e-01,1.38575792e-01,-1.47757933e-01,2.48269383e-02,-8.29745382e-02,-7.26125091e-02,4.13017958e-01,3.19408812e-02,4.79383720e-03,-2.43984200e-02,1.07093386e-01,8.96804184e-02,-7.75927529e-02,-9.96602997e-02,1.40958771e-01,1.23887055e-01,1.81915443e-02,1.04972824e-01,1.43401986e-02,3.78234796e-02,1.06410801e+00,-4.12656218e-01,3.32759619e-01,4.76432256e-02,1.69638708e-01,-1.98194817e-01,-5.07635549e-02]
[1.55765191e-01,5.40627390e-02,-3.90669972e-01,3.73783447e-02,1.41455293e-01,2.16253906e-01,1.83978483e-01,-2.64762104e-01,3.77888009e-02,2.74634719e-01,-1.40069216e-01,1.04356945e-01,-7.62962475e-02,9.54893753e-02,-2.21840292e-02,1.99152887e-01,-9.10022482e-02,-2.04916164e-01,-4.73995954e-01,1.67467430e-01,4.00014609e-01,1.50860056e-01,1.26801327e-01,1.52228363e-02,2.83821523e-02,9.21409130e-02,8.48188177e-02,7.47248828e-02,1.06153771e-01,-1.49998823e-02,-8.07893276e-02,-1.18648268e-01,4.84454855e-02,1.74517497e-01,1.42772853e-01,-4.54821062e+00,5.11545055e-02,1.88620538e-01,7.55218863e-02,1.51956886e-01,-4.38651562e-01,6.73131794e-02,-9.69582748e+00,2.45339081e-01,3.34101655e-02,-6.86726749e-01,6.19236603e-02,2.20580231e-02,-1.09376609e-02,-2.62160689e-01,1.22763002e-02,1.90262750e-01,1.18627332e-01,-3.23691554e-02,-8.34850296e-02,-2.68519800e-02,1.38605371e-01,-1.66525513e-01,-9.49178934e-02,-2.93771803e-01,1.03344256e-03,-2.91766152e-02,1.00470386e-01,5.95257938e-01,-3.39935459e-02,6.77057207e-02,-7.88905770e-02,6.59144446e-02,6.58751950e-02,-5.59066892e-01,-3.86986248e-02,1.94846809e-01,-4.80720043e-01,8.35112408e-02,8.42499658e-02,-8.31439942e-02,-5.61472811e-02,8.30866620e-02,-2.42407277e-01,9.02509466e-02,2.69416392e-01,1.55407429e-01,5.38089693e-01,-4.18274909e-01,-2.51505941e-01,1.66538935e-02,-1.06335923e-01,6.33545779e-03,-3.47271383e-01,1.67140394e-01,4.74173091e-02,-5.07657230e-01,5.25414310e-02,1.82665855e-01,1.12033918e-01,4.67761934e-01,3.12947878e-03,3.13459575e-01,-3.58412089e-03,-8.65259171e-02,9.73552372e-03,-4.37336922e-01,9.77870524e-01,4.69063148e-02,-2.66757548e-01,4.62586805e-02,1.44599184e-01,5.49188137e-01,9.12812352e-03,1.47033662e-01,-3.70702818e-02,-1.56892121e-01,1.12142868e-01,-1.08187227e-03,2.43631713e-02,3.80268782e-01,-1.00532975e-02,1.90856397e-01,-2.07028016e-02,-1.55974671e-01,1.01190090e-01,-6.06978238e-01,1.90123618e-02,2.95645565e-01,5.80960065e-02,5.66826351e-02,-1.98714703e-01,7.00159669e-02]
[-1.51307106e-01,-3.23506147e-02,1.70555457e-01,5.66268638e-02,-7.68741190e-01,-8.16627219e-02,1.60876215e-01,-1.80373341e-03,-7.37493694e-01,-7.98249781e-01,-2.84735739e-01,5.61157048e-01,-5.16325794e-02,-4.36374508e-02,-9.92496908e-02,5.93534112e-03,9.19737443e-02,1.95409849e-01,2.19304055e-01,2.44480863e-01,-7.51479983e-01,1.08221605e-01,-2.16361210e-01,-8.03412944e-02,-7.92744830e-02,1.04130544e-02,1.97049379e-01,7.34671801e-02,1.56655908e-02,4.72420938e-02,3.59917954e-02,7.55410790e-02,9.50982422e-02,-3.02905086e-02,-1.98636517e-01,-3.94048810e+00,-7.10250810e-02,1.00443356e-01,-1.95763484e-02,4.24344838e-02,-3.45369101e+00,-4.87703793e-02,-2.77104855e-01,8.17356184e-02,5.71097024e-02,5.77938110e-02,-3.66887264e-02,-2.25579143e-02,-1.62516564e-01,-1.52191862e-01,1.74065158e-02,1.53545424e-01,-2.83352762e-01,-2.08091903e-02,7.46273845e-02,-1.23919696e-02,1.66619390e-01,-1.05134912e-01,-1.52982295e-01,-1.62469015e-01,5.57011887e-02,-7.46309832e-02,2.16162995e-01,1.36064067e-01,3.30336057e-02,8.32334682e-02,1.81179084e-02,2.28198059e-02,-5.24487384e-02,-3.41611728e-02,6.86424524e-02,-6.70022843e-03,1.37510132e-02,3.11068565e-01,1.20627947e-01,1.22178748e-01,-1.52314771e-02,1.70875285e-02,-8.26415196e-02,-1.49559155e-01,1.80739552e-01,6.20000437e-02,-1.55505806e-01,7.27557465e-02,6.74610659e-02,-1.44601921e-02,1.37927011e-01,-5.75467609e-02,1.48090199e-01,1.92438379e-01,2.58404911e-02,3.32461774e-01,-1.64214950e-02,1.11501664e-01,1.40775666e-01,-2.78920293e-01,1.04318902e-01,-1.81356922e-01,-4.64976183e-04,-4.35344614e-02,1.17643371e-01,3.03577930e-01,-1.98378906e-01,-1.54653221e-01,8.92778561e-02,4.06262204e-02,-2.75906804e-03,5.26694596e-01,-2.63867229e-02,-9.59412381e-03,3.03031914e-02,1.69944596e-02,6.49719164e-02,7.93896094e-02,2.24978809e-04,3.89809191e-01,-1.39857665e-01,5.87401129e-02,-1.39323389e-02,-2.32565776e-01,-6.65672868e-03,1.06512614e-01,2.50781029e-01,3.32259208e-01,-1.66358016e-02,3.12296897e-01,4.06693760e-03,7.60844797e-02]
[9.57160667e-02,1.43518850e-01,-5.69626868e-01,-5.73828677e-03,1.38444811e-01,-5.53739108e-02,1.06828064e-01,1.28131583e-01,1.36826515e-01,-2.77647786e-02,9.36286002e-02,1.81122329e-02,-2.44798511e-02,9.49932709e-02,-1.08640231e-01,-8.32073838e-02,-2.16199413e-01,1.06074058e-01,1.27092689e-01,-3.45438868e-01,-1.27944753e-01,1.22299328e-01,-1.50296405e-01,2.26778630e-02,-9.17965099e-02,4.24409695e-02,-3.62976938e-02,1.01174608e-01,1.13406479e-01,8.10722038e-02,7.48282820e-02,5.94705939e-02,-1.65058628e-01,3.81968841e-02,9.26176682e-02,-4.81886053e+00,-2.07255021e-01,3.01367342e-02,-4.43966538e-02,8.51538405e-03,-3.33609611e-01,2.67258227e-01,-6.50816113e-02,-3.85817021e-01,-1.49116823e-02,4.08636421e-01,4.51510474e-02,-3.19252372e-01,-1.55118987e-01,-1.68144137e-01,-7.50221163e-02,2.25777421e-02,2.04137254e+00,-3.20162401e-02,7.44483396e-02,-1.04682989e-01,1.13307051e-01,-1.75784439e-01,-1.75217667e+01,-1.37862682e-01,-2.52830945e-02,-7.12604970e-02,1.09428823e-01,9.26558673e-02,1.15897462e-01,1.84435651e-01,4.29929346e-02,9.64494124e-02,2.84032580e-02,-4.43720855e-02,9.43729468e-03,-1.99940316e-02,-3.26045841e-01,1.95572451e-01,-2.97604918e-01,-2.13819563e-01,2.46208142e-02,6.57809749e-02,-9.37707350e-02,-7.20216259e-02,1.90490678e-01,-5.85732281e-01,2.19080448e-02,-2.46307820e-01,-2.72102565e-01,-3.01620811e-01,6.33442253e-02,3.92445102e-02,-1.49038509e-01,8.35597217e-02,-1.74004119e-02,-1.37885004e-01,-3.36926579e-02,-1.50403250e-02,2.27327067e-02,6.43242359e-01,-4.80556786e-02,-1.69542626e-01,1.09338053e-01,-1.91851795e-01,-1.22708477e-01,-2.21880347e-01,-2.62590885e-01,-8.25474337e-02,-1.05068430e-01,2.79010255e-02,6.42889738e-02,2.98614025e-01,4.13943306e-02,5.83564192e-02,2.93690003e-02,-1.52915210e-01,3.77836116e-02,1.04686730e-01,3.96646783e-02,1.61744237e-01,-1.54120773e-01,2.17773933e-02,1.23590842e-01,-2.36163929e-01,1.11101359e-01,3.06737493e-03,-1.97497696e-01,3.43385190e-01,1.31307781e-01,-3.61931510e-02,2.78770834e-01,1.72139660e-01]
[-3.05665266e-02,3.26465033e-02,4.13426995e-01,-2.28309885e-01,2.19366327e-02,-4.57233414e-02,1.63271129e-01,2.67339438e-01,1.93330482e-01,-1.26674816e-01,7.40533322e-02,-8.43210071e-02,-2.49184016e-02,-9.78268236e-02,8.65847394e-02,8.70432854e-02,-7.45588243e-02,1.88056499e-01,-3.53635818e-01,-2.32042149e-01,-1.63703784e-01,1.91370491e-03,-3.06744827e-03,1.37639984e-01,-2.55687922e-01,6.70580044e-02,7.98838139e-02,1.42575502e-01,1.63261175e-01,3.28520350e-02,1.44958375e-02,-1.49403745e-03,-4.14609194e-01,-5.12775600e-01,-1.57871023e-01,-1.47799397e+00,-1.32491156e-01,-4.18143645e-02,4.83145844e-03,6.03346974e-02,-9.88699123e-02,6.12043180e-02,3.97525169e-02,-2.72552639e-01,1.42946811e-02,-3.87948677e-02,6.18841834e-02,-1.75345058e+01,-1.84998140e-01,1.79110765e-01,1.03661805e-01,-3.11202437e-01,3.69371265e-01,-3.05759888e-02,7.40834745e-03,-9.53898020e-03,-4.23199311e-02,-5.56334518e-02,-1.03057928e-01,-1.47846892e-01,-1.27203446e-02,-5.68149760e-02,2.14503538e-02,-2.63134569e-01,-4.87329848e-02,-1.01087121e-02,-1.00100711e-01,1.31407127e-01,2.26373412e-02,-4.36062574e-01,1.15043242e-02,9.99326184e-02,-9.95953381e-02,2.36725569e-01,-5.52536808e-02,3.46054494e-01,6.39143288e-02,6.51697665e-02,-3.89548153e-01,2.31831963e-03,1.66339383e-01,2.38759661e+00,-3.06792200e-01,-2.09615111e-01,1.17286235e-01,-1.73126176e-01,6.03529662e-02,7.82311931e-02,-1.96105719e-01,1.38395041e-01,-4.72966842e-02,6.68805242e-02,5.10676578e-02,1.36400044e-01,9.53555480e-02,-3.05028528e-01,2.67466507e-03,-2.64444858e-01,6.22153729e-02,-7.29740486e-02,1.45162670e-02,-2.21576765e-01,4.65926267e-02,6.84162080e-02,-1.07066981e-01,7.59198740e-02,1.20851971e-01,-1.41378701e-01,8.99609178e-02,4.51805703e-02,2.62784213e-02,1.06993258e-01,1.80245534e-01,2.98954435e-02,5.01527488e-02,-8.25042725e-02,-7.97727890e-03,1.51295826e-01,-9.57008377e-02,-4.53277797e-01,8.75391811e-02,-1.80748761e-01,-5.43953061e-01,3.10038894e-01,8.98979530e-02,-1.26150683e-01,1.40129909e-01,1.04318157e-01]
[-6.18922524e-02,-3.60889211e-02,-4.13090624e-02,1.54526997e-02,4.30273294e-01,4.94845137e-02,1.97044760e-01,1.36870325e-01,-7.33350441e-02,-5.31157434e-01,-2.61400938e-01,-6.55213222e-02,-8.01716745e-02,-1.14025384e-01,-1.71695538e-02,-1.83403026e-02,-4.38011914e-01,6.19633682e-02,-1.03972900e+00,-9.13823768e-02,9.17188004e-02,-6.05856329e-02,-1.33629873e-01,1.60495639e-02,2.14299232e-01,-3.25001702e-02,1.14602499e-01,1.87548622e-01,8.27869307e-03,-1.40713016e-02,-6.90606236e-02,-4.95478027e-02,2.33860657e-01,-1.68101877e-01,1.97925955e-01,-7.61593103e-01,1.11985281e-01,-3.77374217e-02,-4.85385172e-02,-7.90195353e-03,-6.43437579e-02,3.20176855e-02,9.23419446e-02,-3.99549425e-01,-1.99902300e-02,6.60396963e-02,1.49152204e-01,-2.43653849e-01,-9.11465660e-02,-7.78045595e-01,1.39245123e-01,3.58905077e-01,-7.41284043e-02,-5.56011833e-02,-2.41932403e-02,1.39764801e-01,-6.23770095e-02,-8.82873088e-02,1.41238486e-02,-2.34539032e-01,-3.43085751e-02,7.64687508e-02,1.62994079e-02,3.43740791e-01,-3.86963785e-02,-2.47732308e-02,-1.21039413e-01,1.81731716e-01,6.96194097e-02,-6.08362034e-02,1.25424722e-02,-7.22286701e-02,-2.47531042e-01,-1.87348351e-02,-5.72528064e-01,6.16170466e-02,1.01782709e-01,7.87603483e-02,1.36250287e-01,-1.63973540e-01,1.40958682e-01,-2.43156344e-01,-3.75021324e-02,-6.17789896e-03,-2.73677241e-02,1.26370609e-01,-1.73148536e-03,1.31300343e-02,7.89145287e-03,-1.39438525e-01,-1.57934893e-02,-5.22704005e-01,9.15337950e-02,5.23175672e-02,1.15461841e-01,-7.06097633e-02,-1.83341745e-02,-3.84670049e-01,1.28496634e-02,-1.27628490e-01,3.84025156e-01,1.41348469e+00,3.32460284e-01,1.40342459e-01,2.03002878e-02,4.53922339e-02,-1.69660170e-02,-5.86113513e-01,2.29609802e-01,9.14491992e-03,9.95807583e-04,3.78562778e-01,1.04364470e-01,8.11668634e-02,-2.26343591e-02,-9.11698192e-02,6.87419698e-02,1.11007206e-01,-2.61109378e-02,-4.16764832e+00,-8.85141715e-02,2.53159925e-03,-7.81935215e-01,2.52556324e-01,7.09697306e-02,4.17020135e-02,-1.68631256e-01,2.28209756e-02]
[0.02282668,0.16978636,0.10648163,-0.00255117,-0.2906065,-0.09951023,0.17503592,-0.04165424,0.37789157,-0.25669527,0.0711339,-0.08394483,0.00906532,-0.13970232,-0.04371273,0.08057993,0.5795008,0.06529255,-0.18855442,0.11386803,-0.41088846,0.05892345,-0.21732251,0.07220981,0.15737998,0.03733198,0.2587001,0.0385264,-0.53319275,0.0127021,-0.05540133,0.03140437,-0.0080034,0.01118098,-0.23997371,-0.5603769,-0.06617281,0.04871982,-0.00398661,0.11133561,-0.97395253,0.16859846,-0.06683549,0.3676802,0.01883279,0.22419704,0.02217288,0.04046825,0.3884825,-0.7812827,0.07585075,-0.35786366,-0.00597471,-0.00906294,-0.06342062,0.07422216,-0.0119272,-0.16692862,0.02216562,-0.24269013,0.11003606,0.0023478,-0.11805151,0.02347602,0.08832968,-0.06889381,0.04986117,0.20270671,0.00623535,-0.12934993,-0.02551315,-0.00800771,0.20610102,-0.16766232,0.43860084,-0.19921426,0.03420651,0.13922447,0.02691633,0.07962343,0.20959818,-0.04605899,0.09796733,0.10236983,0.02244829,-0.11334644,-0.0146431,0.26319715,0.6074057,0.03879114,-0.0456654,0.12863831,-0.00374562,0.05185308,-0.02454998,0.14612658,-0.00322834,0.24707796,0.02850275,-0.10743037,0.33594078,-0.47014123,0.04958363,0.19072868,0.10063319,0.04174018,0.0609743,-2.2941017,0.0611284,-0.11173804,-0.04811143,-0.5185331,0.00560191,0.16293816,0.03466439,-0.12664038,-0.16592658,0.02966834,-0.00857683,-0.2427977,0.03827593,0.03922766,-0.4475779,0.27796593,-0.02645638,-0.03827287,0.26376912,-0.04061717]
[9.12569836e-02,-1.51915833e-01,3.31936806e-01,2.47153670e-01,4.27331068e-02,-5.57962321e-02,1.59080833e-01,-5.56970527e-03,-6.35945916e-01,1.83254302e-01,-2.19093010e-01,1.98405273e-02,2.63681002e-02,-4.57000993e-02,1.26756683e-01,-2.22192243e-01,-2.12561846e-01,4.63818340e-03,7.29899108e-02,-9.11806896e-02,-3.80656719e-02,-9.39599276e-02,-1.10893108e-01,7.54963830e-02,-4.72505279e-02,-5.87373367e-03,1.68326497e-01,7.59855658e-02,2.29878835e-02,-8.53467435e-02,-1.01818614e-01,2.57302560e-02,-1.80338055e-01,-2.33364910e-01,-7.03041628e-02,-5.36743879e-01,4.88140047e-01,-1.10476032e-01,1.32437319e-01,6.51424304e-02,1.09354354e-01,-3.63121158e-03,-6.59286827e-02,-7.92741776e-02,3.55365910e-02,-1.01376307e+00,2.51860209e-02,-7.33259618e-02,-1.25632569e-01,-5.36669046e-02,2.94871032e-01,1.07516050e+00,3.62313002e-01,-3.53997760e-02,1.23642437e-01,-4.60104823e-01,5.62172458e-02,-2.96083182e-01,2.08991878e-02,1.32021755e-02,3.28526571e-02,2.40182765e-02,-9.97965261e-02,-7.94858098e-01,-1.35165691e-01,-2.16367329e-03,4.55230512e-02,1.24980658e-01,1.49532229e-01,2.16438826e-02,-1.05822012e-02,-2.25927308e-01,-3.14158410e-01,1.95240546e-02,5.36324799e-01,9.36301410e-01,1.62662920e-02,7.64586851e-02,1.55894235e-01,6.13866508e-01,1.83218971e-01,-1.81359470e-01,-2.65539795e-01,-2.79578775e-01,1.70708537e-01,-2.12718919e-02,3.14301141e-02,8.72961506e-02,-9.21946168e-02,-1.72127038e-02,7.94261768e-02,-1.73317480e+00,-1.97428726e-02,8.86128843e-02,-1.48010934e-02,-1.83439758e-02,-6.06506094e-02,3.61348003e-01,3.51501033e-02,-4.92446646e-02,2.07333446e-01,4.52811597e-03,-7.82563150e-01,2.88791792e-03,-1.53734609e-01,1.13617834e-02,1.10545465e-04,-1.17412496e+00,2.99317036e-02,-4.67009610e-03,1.97416022e-02,2.48959854e-01,-7.65305161e-02,1.33844048e-01,-2.95753423e-02,3.88713151e-01,-1.44860229e+01,6.50471523e-02,3.09517868e-02,1.17405981e-01,1.25272423e-01,-3.20511907e-01,4.65533406e-01,2.16723815e-01,-3.73396240e-02,4.27547842e-02,-2.38636017e-01,-2.02373005e-04]
[0.24071987,0.16282403,-0.23287278,0.00799093,-0.4693982,-0.23193653,0.12133964,0.05097861,-0.3812048,-0.1692431,-0.10567577,0.09037682,0.02789039,0.0530834,0.11345511,0.06100772,0.084579,-0.01075584,0.36493522,0.21202779,0.42219993,-0.09905182,-0.19700281,-0.02967069,-0.18179059,0.01122561,0.04381826,0.09187556,0.20382005,0.06399762,-0.62194014,0.02314451,-0.02953564,0.10106244,0.04317773,-0.4451026,-0.12792954,-0.17101067,0.00475454,0.03352503,0.295901,0.16246642,0.06307818,0.40393195,0.11616197,0.15627632,-0.07803548,-0.07644011,-0.02260354,-0.2220346,0.06984527,-0.35784903,-0.03212312,-0.01219073,0.0668612,0.05870827,0.08089227,-0.10672921,0.06194124,-0.10413963,0.11899917,-0.030101,0.0872511,0.22714803,-0.08337126,-0.02339586,-0.12491042,-0.02251946,0.12636977,0.13102132,-0.01622859,0.06380425,0.01217335,0.19058968,0.47603902,-0.13063194,-0.0518122,0.09269689,-0.05942526,0.01811543,0.10186636,0.05936938,0.01676167,0.20373231,0.06420143,0.09676472,-0.03043005,-0.05822118,-1.3422831,0.17351323,0.02003467,0.3838874,0.07123677,-0.1679041,0.28688374,-0.10327805,0.010389,-0.04309202,0.0249051,-0.04515574,0.25518337,-0.17478597,0.43205377,-0.1165829,0.08559756,0.11946259,0.13240735,-1.171975,-0.01178449,-0.20761256,-0.03603504,-0.22234505,-0.03416261,0.15402724,0.01716634,0.0288455,-0.1924103,-0.05480932,-0.03481616,0.19654855,-0.01283387,0.17591089,-0.08150486,0.188118,0.00296865,0.2084136,0.00729944,-0.07404046]
[1.52458310e-01,-1.26563951e-01,1.99358508e-01,-2.52152324e-01,-1.46136463e-01,1.91694939e+00,1.67110458e-01,3.39528592e-03,-3.13852996e-01,-3.02515179e-01,1.31979376e-01,-9.22595263e-02,1.46012262e-01,-5.50880805e-02,2.13826764e-02,-1.70637518e-01,3.18579763e-01,-2.87333354e-02,7.18382746e-02,-9.11947668e-01,-4.94775269e-03,-1.95588036e+01,-3.21805269e-01,-5.30954674e-02,7.43417218e-02,-2.13115942e-02,-9.40034445e-03,1.63607225e-02,8.74726474e-02,1.32641688e-01,-4.68135417e-01,1.95214912e-01,-2.81375945e-01,3.26671630e-01,-1.42215639e-01,-2.74848759e-01,-1.83737017e-02,-4.56624717e-01,-1.57610506e-01,-1.83328253e-03,7.33945146e-02,2.72543664e-04,2.53824573e-02,1.85022075e-02,1.56203642e-01,-1.10638820e-01,-9.62288976e-02,-5.46495281e-02,-3.19327861e-01,4.76871073e-01,-6.46198764e-02,1.16808325e-01,-3.47016543e-01,-2.84325816e-02,1.21891938e-01,3.96740764e-01,1.61677539e-01,-3.22509408e-01,-5.66824712e-02,-3.26370168e-03,1.16245054e-01,-6.63539097e-02,2.13080719e-01,-5.85211515e-02,-1.28853530e-01,2.87559591e-02,4.59613241e-02,-1.87929347e-02,2.37600654e-02,-1.20941848e-01,-6.87190657e-03,-1.81640014e-01,-1.21210411e-01,1.03951536e-01,-6.65832520e-01,-1.01523930e-02,4.07420062e-02,-1.23725221e-01,-1.80796683e-01,2.10391447e-01,1.57169104e-01,-2.36865267e-01,3.76206376e-02,-6.86289132e-01,1.23846894e-02,-1.51466340e-01,1.26381233e-01,-1.83099657e-01,-2.49261837e-02,7.28471950e-02,-5.65351583e-02,2.90904731e-01,4.88407612e-02,-4.18816600e-03,-7.74976611e-02,2.05226280e-02,7.73600638e-02,7.27114379e-01,8.84539559e-02,1.45403510e-02,7.10375533e-02,-1.14096574e-01,-4.29619759e-01,3.60223323e-01,-2.58561932e-02,9.75209009e-03,-3.38893048e-02,-3.91891330e-01,-5.96494526e-02,3.93412933e-02,9.39096138e-03,-2.24143207e-01,4.85267900e-02,7.72171468e-02,9.57989246e-02,-5.30660629e-01,5.91907278e-02,1.71801855e-03,-6.27188804e-03,2.41146252e-01,2.33502680e-04,-9.46126804e-02,-1.20684512e-01,3.33009690e-01,9.90926176e-02,1.33653596e-01,3.66593778e-01,-4.46707197e-02]
[1.2590988e-01,3.4174877e-03,9.3726777e-02,9.1564499e-02,3.4798911e-01,-1.1475201e+00,1.0254478e-01,-1.3366890e-01,-8.9549296e-02,-5.0761610e-01,1.9616440e-01,1.7097992e-01,6.6060558e-02,3.8955823e-02,3.8795527e-02,-5.3321369e-02,-2.7612430e-01,1.9610496e-01,-1.9315234e-01,4.9470487e-01,-4.6090153e-01,-3.7689996e-01,-4.2252961e-01,-5.2672642e-04,5.3436708e-02,-6.6339229e-03,2.2095211e-02,-4.9296678e-03,-2.8222865e-01,4.7349010e-02,-6.7762814e-02,1.9844545e-01,9.5974129e-01,1.8923487e-01,-2.1545362e-01,-2.9750261e-01,-3.9365652e-01,-3.9716026e-01,-1.4005789e-01,-9.5277783e-03,1.5046106e-01,-9.2196174e-02,1.0078863e-01,4.2234551e-02,-3.9319575e-02,3.2586297e-01,-6.1212059e-02,1.8164548e-01,-3.1492421e-01,2.9571658e-01,-9.8866774e-03,7.0176625e-01,-1.6082394e-01,-2.4000527e-02,-5.0049048e-02,1.7196004e-01,-7.5815395e-02,-1.8933301e-01,-7.0854560e-02,-8.7511539e-02,8.2313888e-02,-4.9780250e-02,5.5323560e-02,-4.3658090e-01,4.5580380e-02,-1.7337645e+01,4.7808718e-03,-1.5969783e-02,8.9879096e-02,1.2224554e-01,-4.8780940e-02,1.9762316e-01,-7.2208571e-01,1.6201271e-01,-1.9535807e-01,-3.1836408e-01,1.4390738e-02,-6.5704741e-02,-1.5606818e-02,-3.9438096e-01,2.0993079e-01,1.7575772e-01,2.8581387e-01,-2.6863220e-01,6.1053094e-02,3.2737708e-01,7.9554908e-02,-1.7462415e-01,-5.2966750e-01,1.8591157e-01,5.4651428e-02,1.8443774e-01,9.9629283e-02,7.9285838e-02,-6.7308605e-02,-2.1768941e-01,9.5232837e-02,1.1917983e+00,9.2622288e-02,-3.6034118e-02,-4.7258060e-02,-3.4381175e-01,-5.2597100e-01,1.5859294e-01,-2.0883562e-01,9.4525203e-02,1.4358461e-01,5.3792845e-02,-4.0607631e-02,7.9422109e-02,-3.6792263e-02,-9.4907910e-02,1.4291605e-01,1.8441124e-02,1.4783865e-03,-1.9631852e-01,2.0585168e-02,-4.5617502e-02,-5.7477862e-02,5.9100784e-02,-3.9258037e-02,-3.8203222e-01,1.0259462e-02,2.0395651e-01,6.7043744e-02,9.9835908e-03,2.2954503e-01,7.5548202e-02]
[-6.42176047e-02,1.29972026e-01,-1.20673180e-02,-5.48974909e-02,-3.84321332e-01,1.55712366e-01,8.74642506e-02,-1.31985426e-01,6.33600801e-02,2.91413844e-01,-2.82980114e-01,-3.69252414e-02,6.51133880e-02,-4.71804850e-02,-1.80448592e-02,6.59119934e-02,2.27689394e-03,6.93139583e-02,2.98981238e-02,8.30425322e-02,4.21908051e-01,-6.50449321e-02,-4.95100975e-01,1.14476969e-02,-1.73458263e-01,6.81241527e-02,1.09017171e-01,6.74469471e-02,-2.61152291e+00,-4.24344987e-02,2.19987348e-01,6.91610351e-02,-1.65745601e-01,1.04349544e-02,1.23300202e-01,-2.40822658e-01,1.22664534e-01,-2.66643703e-01,-3.71173793e-03,1.72989815e-01,2.15490937e-01,-4.45448570e-02,1.82382032e-01,2.65087366e-01,-7.53058195e-02,-3.36934663e-02,6.51461557e-02,3.11987828e-02,3.84782642e-01,2.76728034e-01,-2.35054065e-02,-2.28174850e-01,5.89381866e-02,-2.48587765e-02,1.67431682e-02,2.41258256e-02,-4.96697612e-02,-1.36010572e-01,7.15207979e-02,-1.94112450e-01,3.59973535e-02,-1.40039064e-03,-6.99690655e-02,2.47971416e-01,5.08236624e-02,-2.26747364e-01,5.62587902e-02,-6.29798234e-01,-8.94444063e-02,-7.97087193e-01,-1.01464354e-02,-6.07890338e-02,3.09523910e-01,-7.45137315e-03,-2.34936327e-01,2.17271939e-01,7.50082806e-02,-3.57404687e-02,1.06950693e-01,6.67532953e-03,1.35759294e-01,-6.59472793e-02,2.76002884e-02,2.43612453e-02,-1.86068695e-02,-2.35701669e-02,8.09783861e-02,1.73229918e-01,-7.67563134e-02,1.41921908e-01,-2.52113771e-02,1.53075576e-01,5.36305942e-02,2.20031500e-01,3.89551483e-02,-1.12296686e-01,4.57715802e-02,-1.22455001e-01,3.65501046e-02,-9.02050175e-03,1.56427652e-01,-1.75818756e-01,-9.23345685e-02,3.22118431e-01,2.31730342e-02,-7.42253512e-02,4.52221045e-03,2.15243295e-01,4.31633666e-02,9.93151888e-02,-4.32386473e-02,5.31517625e-01,-7.52131492e-02,-4.96463887e-02,-1.92076620e-02,5.66224039e-01,-1.11421794e-02,1.99554674e-02,-2.46774673e-01,3.72222699e-02,3.12102009e-02,9.29531083e-02,-1.77190639e-02,1.57920957e-01,8.56576115e-02,4.33020853e-02,1.78589374e-02,1.37641042e-01]
[-8.49332884e-02,2.02007100e-01,-1.39023620e-03,-9.19890329e-02,4.50565279e-01,-1.69512346e-01,1.57405451e-01,-3.29856783e-01,3.69494148e-02,-2.21641243e-01,2.37478286e-01,-4.24663126e-02,8.23763832e-02,5.41506277e-04,4.08100009e-01,-2.38835678e-01,-3.25975955e-01,3.88977379e-02,-4.06054497e-01,-6.16223030e-02,-3.76498848e-01,5.23669906e-02,-2.00279564e-01,8.23516771e-02,-1.01654321e-01,-3.08058541e-02,3.13636065e-02,1.59897313e-01,2.16770242e-03,2.31535453e-02,1.29591897e-01,2.19765287e-02,-4.16886151e-01,-2.18106166e-01,-1.76492840e-01,-4.08095121e-01,-4.70038056e-01,-1.35530457e-01,-7.85178840e-02,-4.57802489e-02,3.47401947e-02,7.45096207e-02,9.27416421e-03,-3.94049197e-01,9.26560760e-02,1.91870660e-01,7.66853690e-02,2.03324869e-01,-7.09359586e-01,-3.08788896e-01,-1.12655237e-01,5.88408351e-01,-1.75976843e-01,-1.63619407e-02,1.45177217e-02,1.79387867e-01,7.33146816e-02,-1.88666850e-01,2.21787408e-01,-4.74743247e-02,1.00461743e-03,-7.98901618e-02,-5.56983314e-02,-1.28162205e-01,-1.09499821e-03,-7.07326382e-02,7.37669915e-02,-5.56503153e+00,-1.10487595e-01,-1.99585527e-01,-3.32564823e-02,2.22736195e-01,8.84173691e-01,-1.30517200e-01,1.15298480e-01,-5.82319915e-01,6.25717193e-02,-5.92255555e-02,-1.32788513e-02,3.81854892e-01,1.70015961e-01,2.42495224e-01,-1.40270546e-01,2.23472074e-01,-2.29414016e-01,3.35452437e-01,-5.61827421e-02,1.78617507e-01,1.62345275e-01,-5.36270328e-02,9.82571989e-02,-2.84986477e-02,7.05090016e-02,-1.25826180e-01,-1.39840497e-02,6.77898049e-01,-7.43100327e-03,7.20746666e-02,5.90251945e-02,-1.55149430e-01,7.71079957e-02,8.36521089e-01,3.67417634e-01,4.33158018e-02,-2.07971275e-01,7.40552172e-02,4.83656637e-02,-1.00634888e-01,-2.34183520e-02,1.24941617e-01,-6.92788558e-03,-5.16270280e-01,4.33779471e-02,-2.73217529e-01,4.90273684e-02,3.56280833e-01,1.30836383e-01,-1.61852837e-02,-4.13943417e-02,6.29020408e-02,8.41270611e-02,-1.97509900e-01,-2.16434583e-01,1.29961804e-01,1.53635070e-01,-8.40831622e-02,-1.37638956e-01,1.21338330e-01]
[-7.18979165e-02,1.45112291e-01,-1.39294475e-01,-2.29526401e-01,6.05013557e-02,-2.58258253e-01,8.45677853e-02,-5.23189545e-01,2.37130597e-01,4.01043445e-01,-3.97303611e-01,1.08460508e-01,7.71234185e-02,1.92204304e-02,2.37812638e-01,2.46868376e-02,2.53790885e-01,5.40466569e-02,-8.36192295e-02,-6.46580815e-01,2.96455890e-01,-7.46015878e-03,-3.07679296e-01,5.96790053e-02,-2.18994841e-01,2.19232384e-02,1.43875614e-01,1.68036848e-01,2.17477649e-01,-2.13324670e-02,2.16007993e-01,4.96538915e-02,1.26562011e+00,5.09198941e-02,-4.03437018e-02,-1.83235988e-01,9.90039647e-01,5.49297631e-02,-1.03619605e-01,1.24646328e-01,2.05323324e-02,7.23549947e-02,2.72850674e-02,2.98845291e-01,7.00439066e-02,3.40034336e-01,4.52383347e-02,2.39442021e-01,-3.04982126e-01,-2.76623160e-01,-2.19188750e-01,-2.13068500e-01,5.23756370e-02,-5.46009392e-02,2.19197944e-02,1.22626543e-01,-1.48231247e-02,-2.19367638e-01,6.24980442e-02,-1.58423379e-01,-8.89341682e-02,-6.18976057e-02,4.01524156e-02,3.60613942e-01,4.51813973e-02,-6.74832566e-03,-1.04883976e-01,-1.61880195e-01,1.41974352e-02,-1.76445141e-01,-3.26406062e-02,-1.07063748e-01,-4.29746285e-02,-2.15150192e-02,1.56339481e-01,6.84070110e-01,1.21238530e-01,-1.13462343e+01,-1.91538379e-01,-3.91726196e-01,1.74490258e-01,2.38198098e-02,1.58450887e-01,-2.29876116e-01,-1.13665655e-01,-4.56232071e-01,4.32883799e-02,1.56443879e-01,8.64258185e-02,-8.34359899e-02,2.02334616e-02,8.75106826e-02,1.19944867e-02,-3.24085504e-02,6.09169379e-02,-2.91048795e-01,8.40823725e-02,-3.19100142e-01,1.06195826e-03,-7.97172412e-02,9.76016670e-02,1.38087850e-02,-2.72941798e-01,1.59773365e-01,-1.82431683e-01,2.95827258e-02,4.02558222e-02,5.60492501e-02,7.11365268e-02,7.69817978e-02,-3.83733190e-03,-2.73840874e-01,2.15246186e-01,-3.56032662e-02,2.75588743e-02,-3.47974300e-01,3.58433351e-02,9.59957093e-02,-1.68390691e-01,1.20796651e-01,-3.42342891e-02,3.24366361e-01,-2.98717797e-01,1.22550741e-01,1.73414480e-02,4.10185754e-02,-5.88231862e-01,8.49124566e-02]
[6.50120527e-02,-2.84588205e-05,5.66056967e-01,4.15207773e-01,3.18907529e-01,6.61861420e-01,1.27335176e-01,-6.15804970e-01,-5.09772040e-02,-2.11270992e-02,2.88163602e-01,1.49144843e-01,5.11915684e-02,2.76454724e-02,9.31633934e-02,2.16705963e-01,1.10323802e-01,-8.96942150e-03,4.30621468e-02,9.35244918e-01,-2.66250014e-01,1.56360015e-01,-3.12534422e-01,2.22474903e-01,2.20714584e-01,-5.49027286e-02,1.60560310e-01,-1.52484849e-02,1.53962389e-01,-6.96167648e-02,-5.27659431e-02,-6.12515733e-02,3.47824246e-01,-1.01429451e+00,-2.96694674e-02,-1.92357585e-01,-6.31467879e-01,5.15139878e-01,-9.28242784e-03,-1.18279785e-01,2.33981311e-02,4.23417464e-02,3.01031414e-02,-1.06273189e-01,2.11561352e-01,1.58699736e-01,2.11755812e-01,-5.51861525e-03,1.93282202e-01,-9.95524600e-02,-1.81170120e+01,-3.77503157e-01,2.51262665e-01,-6.83911964e-02,3.46622989e-02,-6.70681372e-02,5.32832257e-02,-2.82635391e-01,1.59597889e-01,-1.04652368e-01,3.81732509e-02,-5.39714843e-02,1.00560129e-01,-2.66487245e-02,1.05395699e-02,1.12607315e-01,7.15451390e-02,1.42761856e-01,-8.59532356e-02,-2.92018116e-01,2.76042968e-02,-3.26377004e-02,-1.42954085e-02,-1.37202770e-01,-4.19304669e-01,-7.10889637e-01,4.25385647e-02,-2.46468246e-01,5.34756556e-02,6.35408223e-01,1.59253374e-01,-1.20465308e-01,1.48499325e-01,1.29346892e-01,9.80876684e-02,-1.72212586e-01,-2.68800708e-04,4.16551307e-02,2.94468522e-01,-7.86333308e-02,6.71933070e-02,-5.67265570e-01,6.78163618e-02,-3.31092775e-02,6.74160123e-02,-4.09361720e-01,-1.85036268e-02,-2.53413916e-01,8.69753584e-02,-5.98364249e-02,7.31020123e-02,-6.39512315e-02,-3.09953749e-01,1.07311562e-01,-1.89736292e-01,2.66198274e-02,2.42390074e-02,1.39984116e-01,7.69603923e-02,9.19015482e-02,-2.84918230e-02,1.91070288e-01,1.70188293e-01,-6.95847347e-02,1.67844351e-02,-3.86996388e-01,1.06712177e-01,1.81872681e-01,2.66512409e-02,2.44938180e-01,8.18316042e-02,1.67270556e-01,-1.01438351e-01,2.19008908e-01,2.44252998e-02,3.09699420e-02,6.32712618e-02,4.75637875e-02]
[-8.00751802e-03,-1.16500176e-01,5.45051098e-01,-3.60160530e-01,1.30705029e-01,-2.02731222e-01,1.04961343e-01,-1.16033539e-01,-1.90258428e-01,2.64919311e-01,8.62267166e-02,6.64495528e-02,-4.75584827e-02,1.32826552e-01,-7.61978254e-02,-4.13912565e-01,2.56135076e-01,-6.77041262e-02,-1.81775406e-01,5.22872150e-01,-5.79961203e-02,1.24246679e-01,-6.84135914e-01,3.00729219e-02,2.23235309e-01,-8.61211196e-02,1.26188472e-01,8.14220309e-02,9.22846347e-02,-4.24027629e-02,9.95097905e-02,1.05075687e-01,-4.62375045e-01,5.58459103e-01,3.83242667e-02,-1.19779162e-01,-2.11862281e-01,8.21455181e-01,-3.09418499e-01,-4.65043150e-02,9.37773660e-02,5.23996428e-02,8.81511271e-02,6.48475438e-02,1.05968855e-01,-3.66639614e-01,7.64601007e-02,3.36084999e-02,3.28302979e-01,-4.17954549e-02,-2.81898111e-01,-5.37615955e-01,-6.73780516e-02,-5.01910672e-02,3.97881828e-02,5.57477117e-01,2.34427169e-01,-2.16832221e-01,3.96769978e-02,-4.01384495e-02,-2.14913145e-01,-1.51526347e-01,3.15388851e-02,1.52346820e-01,5.36593348e-02,5.64285666e-02,9.52158496e-02,6.43513948e-02,-1.43025084e+01,-9.26375166e-02,-4.06371690e-02,-9.81489895e-04,1.13481045e-01,4.00128700e-02,1.33315504e-01,8.48126769e-01,1.08406350e-01,1.32679045e-02,6.18470848e-01,-5.96349359e-01,1.47422612e-01,-5.04853623e-03,-5.20972073e-01,7.15255812e-02,-3.88615489e-01,5.19941654e-03,3.81031893e-02,-9.84553597e-04,-8.25444877e-01,-1.75772794e-02,-1.41398376e-02,-8.96808803e-02,8.76600221e-02,-2.91299578e-02,1.86654374e-01,6.73077464e-01,3.54180932e-02,-2.97634125e-01,-3.90200987e-02,3.19866054e-02,-1.21201962e-01,-1.78368062e-01,-2.93048412e-01,2.34349072e-01,1.20261692e-01,3.68153192e-02,1.54118491e-02,1.66533679e-01,6.28643632e-02,1.61300495e-01,-2.80506536e-02,-3.23055476e-01,1.36362448e-01,5.64678647e-02,4.43408713e-02,1.45612657e-01,1.91811100e-01,1.02268055e-01,-9.15911198e-02,1.28064007e-01,1.10292993e-01,-2.82029867e-01,4.32929210e-03,3.78252774e-01,-4.80082370e-02,-1.82574522e-02,1.38843909e-01,6.64554760e-02]
[-2.11751863e-01,-7.84596652e-02,-1.00788271e+00,6.43803179e-01,-3.11130900e-02,-1.57628253e-01,1.08950682e-01,4.33230847e-01,2.17831433e-01,-6.08410656e-01,-2.37395778e-01,2.63503995e-02,-8.30334276e-02,9.65338349e-02,1.44866362e-01,6.90840334e-02,3.70448291e-01,-3.11254840e-02,2.22549304e-01,-1.23262994e-01,-1.02748349e-01,9.46209505e-02,-1.07085013e+00,1.63262248e-01,-1.83861971e-01,-4.10875976e-02,2.32138172e-01,-4.91035692e-02,-6.14400469e-02,1.87754761e-02,3.12715113e-01,3.29851955e-02,-2.68745631e-01,7.16119707e-01,3.66588011e-02,9.64955986e-02,2.07081184e-01,5.70332348e-01,-2.88846344e-01,-8.97583067e-02,5.18984674e-03,1.14560798e-01,7.13963509e-02,-7.74633527e-01,3.68460678e-02,-1.13788083e-01,-4.76637436e-03,7.85057098e-02,-3.90209615e-01,1.95541158e-01,7.46425092e-02,4.50607538e-01,-9.80459675e-02,-4.98597138e-02,8.64208490e-02,2.38230869e-01,-8.40497985e-02,-3.40927452e-01,1.17747886e-02,3.35768834e-02,-1.43163691e+01,-9.35598612e-02,1.37324259e-02,-9.14299905e-01,-3.05564608e-02,1.63237780e-01,-4.90168557e-02,1.47610694e-01,-2.91590303e-01,-8.05195644e-02,-4.06516745e-04,-6.35647401e-02,-2.17746139e-01,5.43342978e-02,-3.89387429e-01,-2.61559039e-01,7.40732625e-02,1.13732331e-02,-2.46999457e-01,6.21531546e-01,1.40525475e-01,8.45039710e-02,5.56993783e-01,3.44975710e-01,-8.16317052e-02,-3.82176042e-01,-1.16295882e-01,4.73303683e-02,-3.98415238e-01,1.16561063e-01,-1.32159755e-01,-4.09016669e-01,3.11211590e-02,-3.89727466e-02,-2.23424146e-03,-5.11702538e-01,-8.19687471e-02,-5.95837057e-01,5.33412583e-02,-3.90243866e-02,-7.25188106e-02,-2.55403757e-01,4.21007305e-01,-1.53357521e-01,-9.19244215e-02,1.06428929e-01,7.05158859e-02,4.95130895e-04,6.05189567e-03,1.57324714e-03,-5.82935140e-02,-1.32952482e-01,1.37753427e-01,1.98674008e-01,5.41412085e-02,2.53306389e-01,2.71346211e-01,1.84074685e-01,-3.84419411e-02,8.40633735e-02,2.04132408e-01,5.11255383e-01,4.40107375e-01,3.24990124e-01,8.38414058e-02,-1.49945440e-02,-1.83031201e-01,-8.70055556e-02]
[-7.01944637e+00,-1.62878050e-03,3.38914484e-01,-4.06893432e-01,-5.55431306e-01,-1.99816227e-01,1.90545052e-01,3.20507169e-01,-1.94050342e-01,-2.07007855e-01,4.76497859e-01,-7.75537714e-02,-4.56518307e-02,4.63674255e-02,1.15404882e-01,-5.21899350e-02,6.92581117e-01,1.51996732e-01,-7.42849857e-02,-2.60004960e-02,6.24174215e-02,1.25279173e-01,-1.85311341e+00,-1.60112500e-01,-2.50685215e-02,-1.40978973e-02,1.10265650e-01,3.29288580e-02,6.30257428e-02,1.92939118e-02,3.88696045e-01,4.28846478e-02,-3.04691166e-01,-3.04394960e-01,-9.10686776e-02,7.53321126e-02,3.23041454e-02,3.61331314e-01,1.87016688e-02,-6.40977398e-02,2.04206303e-01,8.80038887e-02,-3.73389535e-02,3.54421258e-01,6.61021918e-02,-3.84494871e-01,-1.63910910e-01,-1.74706746e-02,-4.29004729e-01,-3.74508351e-02,-9.66942832e-02,-3.78438681e-01,1.71140388e-01,-2.96003819e-02,1.23311006e-01,-8.99718888e-03,2.29168721e-02,-2.79031485e-01,3.98421139e-02,9.61793736e-02,-3.19499314e-01,-6.77670985e-02,1.31402031e-01,9.23888862e-01,5.47578819e-02,7.15174153e-02,-4.92939390e-02,2.51593769e-01,1.35246394e-02,4.00325835e-01,2.11737510e-02,-1.50674321e-02,4.05912548e-01,2.02864911e-02,6.88653998e-03,-3.96003246e-01,4.66755256e-02,9.59517583e-02,-4.22547042e-01,-6.56248391e-01,1.60388634e-01,-3.25095475e-01,2.92796969e-01,-2.60448962e-01,4.68321115e-01,1.23560123e-01,-2.13433355e-02,-3.61732319e-02,-1.06426358e+00,1.77604467e-01,1.51159108e-01,-6.22995257e-01,3.70060392e-02,1.43728182e-01,-1.43962324e-01,-6.68908298e-01,-4.66177948e-02,1.49093285e-01,6.86537996e-02,-1.55650843e-02,2.87620164e-02,3.98560375e-01,-2.63087992e-02,-1.44085422e-01,2.64764111e-02,-1.70874037e-02,4.48371544e-02,-1.54755890e-01,1.06569864e-01,-9.67352763e-02,-2.84596952e-03,3.16007853e-01,-1.00569002e-01,4.10150170e-01,-7.10479170e-02,1.64187923e-01,1.37248471e-01,5.55967540e-02,9.86359548e-04,4.79653515e-02,-4.74486686e-02,-4.87800002e-01,2.57448032e-02,1.95603848e-01,-1.66279942e-01,4.47642431e-02,-2.67284930e-01,-3.64880934e-02]
[-6.72028005e-01,1.47139370e-01,2.64608581e-02,3.70868668e-02,-4.77998853e-01,8.26564953e-02,1.93428203e-01,2.12811232e-01,-6.56732172e-02,-1.16836904e-02,-5.60584843e-01,2.87383020e-01,-6.20833784e-02,1.40520766e-01,1.06031694e-01,1.92112736e-02,-1.91693187e-01,1.77298322e-01,2.37942845e-01,2.67475937e-02,-3.94484949e+00,8.80068690e-02,-2.76883698e+00,-1.04005352e-01,3.33959758e-02,-6.76744580e-02,-1.27084777e-01,2.38150224e-01,1.10476308e-01,-5.56870271e-03,3.52520257e-01,-2.17439961e-02,2.85918377e-02,3.25299889e-01,2.31133886e-02,4.96235415e-02,-2.17376918e-01,1.37038723e-01,-6.67941058e-03,1.90370396e-01,5.52968144e-01,4.43396419e-02,-4.11266834e-02,4.08219770e-02,1.44326821e-01,1.39643610e-01,-1.32191822e-01,2.77718827e-02,3.44960183e-01,5.06500863e-02,-2.90770107e-03,7.11036399e-02,-8.06942210e-02,-2.01918893e-02,7.37698525e-02,3.43749374e-02,-1.06226467e-02,-1.33512199e-01,-6.76744804e-02,-1.68018371e-01,-1.51724843e-02,3.74109931e-02,1.28442153e-01,1.27301872e-01,3.73343267e-02,1.06442004e-01,4.79496531e-02,1.78512722e-01,-5.77229857e-02,2.74395235e-02,6.19257428e-03,3.54079716e-02,-1.74416363e-01,-3.81969512e-02,-3.34969051e-02,-2.53139138e-02,1.54833577e-03,1.47053838e-01,1.26509652e-01,2.98841208e-01,1.44676641e-01,1.57280813e-03,1.65165439e-01,-2.81715482e-01,-8.08242336e-03,5.36459684e-02,2.34400071e-02,-3.88912670e-02,3.59182447e-01,6.17584810e-02,8.38316381e-02,3.59908827e-02,-4.11581919e-02,4.28838842e-02,1.39559239e-01,2.92851895e-01,1.07569464e-01,-5.70849180e-02,8.62036794e-02,5.84945790e-02,-2.32550818e-02,-1.27183914e-01,-9.58741084e-02,-2.09676832e-01,1.51941450e-02,-9.01606381e-02,2.72775516e-02,-4.09086309e-02,-1.24025643e-01,1.73696354e-01,-4.19685841e-02,-7.96822682e-02,6.04016781e-02,1.75857633e-01,2.02780981e-02,1.06280565e-01,1.30790919e-01,-1.62323207e-01,-1.46476731e-01,-1.27391011e-01,1.61920413e-01,5.75120896e-02,1.54926315e-01,1.72990277e-01,-1.74375311e-01,1.80480376e-01,-1.61096379e-01,-8.34486857e-02]
[-1.24731166e-02,8.52018148e-02,-6.12760067e-01,-1.49813935e-01,-1.77664816e-01,-2.36060959e-03,1.15829274e-01,5.08063316e-01,-1.76584139e-01,5.12355343e-02,-2.13185862e-01,7.20921308e-02,8.08780175e-03,-6.89916837e-04,-3.83282633e-04,3.45978513e-02,-6.09500170e-01,1.56791851e-01,-2.82887314e-02,6.08297884e-01,7.23006204e-02,1.55089423e-01,-5.16013956e+00,-4.22178302e-03,2.94739783e-01,-1.49362311e-01,-1.46927787e-02,1.03930600e-01,3.64433490e-02,1.27824366e-01,1.17315829e-01,5.62981982e-03,1.06668833e-03,-8.90805840e-01,4.49407697e-02,1.47434905e-01,6.64209127e-01,1.99650347e-01,1.14685595e-01,1.44655436e-01,3.24970514e-01,5.68082854e-02,7.88264498e-02,-1.64957587e-02,-5.81071004e-02,-2.24891201e-01,-1.19341061e-01,4.03323323e-02,-2.60907531e-01,-3.38271916e-01,8.39988738e-02,1.37465762e-03,-2.08674848e-01,-3.57157812e-02,-5.50655590e-04,3.90888788e-02,1.17990963e-01,-2.44011104e-01,4.66562696e-02,-9.91076827e-02,-1.00280214e-02,2.94705816e-02,1.30853102e-01,1.94385592e-02,9.13800076e-02,1.67511433e-01,2.70715225e-02,1.06175400e-01,8.80354270e-03,-1.50028318e-01,-9.88792349e-03,-1.68633521e-01,5.79470992e-01,4.77057584e-02,-2.37260401e-01,3.33480388e-01,2.41913665e-02,1.36410827e-02,-6.20237470e-01,-7.33106911e-01,1.90080285e-01,-1.93445340e-01,-2.61848509e-01,7.42169499e-01,-3.50142002e-01,-3.15730959e-01,2.21054759e-02,1.10596918e-01,1.27608642e-01,2.01016039e-01,-3.68008278e-02,-7.54111856e-02,1.21390998e-01,3.03518567e-02,-1.97961424e-02,-2.66511381e-01,-1.22735202e-02,6.56731248e-01,1.23653924e-02,1.42279029e-01,-7.92679489e-02,-1.64553419e-01,-9.37850121e-03,-6.02374086e-03,-2.22632051e-01,8.41469988e-02,-4.21514316e-03,-1.47222970e-02,7.16908127e-02,8.72714147e-02,-1.30415693e-01,-3.08979377e-02,2.45441154e-01,3.97106968e-02,9.66439769e-03,-6.19850047e-02,8.51021484e-02,-1.13884203e-01,-5.13429493e-02,-8.02827850e-02,1.36649966e-01,-6.20856993e-02,-5.92445955e-02,2.87876744e-02,-1.79687634e+01,-3.76278833e-02,1.62490892e+00,-2.41957411e-01]
[3.02717295e-02,-1.11872628e-01,-3.54760826e-01,-1.25149339e-01,9.53978822e-02,-5.29847555e-02,2.48737648e-01,6.67927206e-01,1.24271065e-01,3.10664475e-01,-1.54756336e-02,1.17992871e-01,2.54731905e-03,5.86521067e-02,-9.76775065e-02,-1.55709460e-01,1.91363499e-01,-1.73840851e-01,-2.08404571e-01,-7.53277242e-01,-1.53667971e-01,1.03692204e-01,-4.64124966e+00,-1.08082898e-01,-2.70355731e-01,-5.34578785e-02,5.50508592e-03,1.36932403e-01,-7.96150714e-02,2.24074628e-02,5.25500514e-02,-1.54121250e-01,1.86087593e-01,-1.53076693e-01,1.09790690e-01,2.72056580e-01,-3.55167031e-01,1.36773586e-01,1.65331140e-01,-3.99793163e-02,6.34595826e-02,-9.98107120e-02,1.02599509e-01,3.19137871e-02,-6.38437942e-02,3.98688942e-01,-3.64075191e-02,1.22063532e-01,-1.40721202e-02,-5.23940384e-01,3.29470038e-02,2.06573993e-01,-1.32271454e-01,-2.61853393e-02,7.02644810e-02,-4.62046593e-01,1.28744677e-01,-2.61995107e-01,4.26955847e-03,5.56152454e-03,2.29567401e-02,-4.66790125e-02,2.06968024e-01,7.37996399e-01,-9.53859184e-03,2.99285538e-02,4.29292768e-03,-2.69272295e-03,9.43772867e-02,1.80030629e-01,1.11390674e-03,-7.69612193e-02,1.91207081e-01,5.77107482e-02,4.51783463e-03,-4.18287009e-01,1.10838264e-01,3.91050838e-02,1.77442169e+00,3.64426047e-01,1.34952143e-01,1.21007219e-01,-3.14704716e-01,3.07896107e-01,-3.41526061e-01,-4.95315462e-01,7.63476342e-02,1.54024333e-01,2.13435277e-01,6.14365637e-02,-6.01329282e-02,5.10428585e-02,-4.54669027e-03,1.62027672e-01,-5.70859499e-02,-6.71972811e-01,9.26021188e-02,5.53084135e-01,-1.09299063e-03,6.16798103e-02,-8.96258280e-02,-2.06989467e-01,-1.58846572e-01,2.40219861e-01,-2.28161234e-02,-1.34713920e-02,2.77645234e-03,2.00393572e-02,5.37862405e-02,1.60537377e-01,-1.25490576e-01,-4.25303966e-01,1.23524643e-01,-1.57170653e-01,1.06948651e-01,2.06363231e-01,7.12853223e-02,2.79242136e-02,3.38728093e-02,-8.97694379e-02,-9.33123846e-03,-2.46159449e-01,-2.94410679e-02,3.74275222e-02,-2.44395941e-01,-1.45573821e-02,-6.70711815e-01,-1.46040010e+01]
[9.77141559e-02,3.57408039e-02,-8.61851871e-02,-8.38175714e-01,4.13782030e-01,-1.26148865e-01,1.20117553e-01,6.36879504e-01,1.87219054e-01,9.93603915e-02,1.92747727e-01,6.47523478e-02,3.48931625e-02,1.90207288e-02,3.84517312e-02,-2.44272411e-01,2.73372140e-02,7.73021020e-03,1.02851123e-01,1.25293195e+00,2.79888660e-01,-1.24966735e-02,-2.33407760e+00,-2.15351537e-01,-1.65919229e-01,-1.25074863e-01,7.14300349e-02,1.93207338e-02,1.72021896e-01,-1.03113158e-02,8.83254483e-02,1.50256371e-02,4.03596647e-02,6.52690291e-01,-1.25730008e-01,1.14258625e-01,3.63601446e-01,-1.48093820e-01,2.11491913e-01,1.32205576e-01,-2.10295338e-02,1.05108343e-01,2.10877061e-02,-2.99558486e-03,8.71587172e-02,2.27710724e-01,-1.58664551e+01,8.47022310e-02,8.10848400e-02,-3.47076803e-01,1.10478997e-01,-3.63320380e-01,1.31914057e-02,-2.67520435e-02,-5.56369461e-02,3.40205580e-01,-1.23052960e-02,-2.38714561e-01,6.03400320e-02,1.00292690e-01,-1.05441660e-02,-1.05980389e-01,3.02396137e-02,-1.56496853e-01,1.32477939e-01,-1.44528160e-02,-6.53070137e-02,2.17736840e-01,7.20913475e-03,-2.47294724e-01,6.83244988e-02,1.37501270e-01,-1.01936959e-01,1.52925178e-01,-2.15048641e-01,-4.45750147e-01,6.25844076e-02,1.56109139e-01,-9.82281327e-01,4.78336960e-01,1.49682522e-01,-6.34815693e-02,-7.36845434e-01,-7.29691803e-01,-2.59457119e-02,-5.47685325e-01,5.14435954e-03,1.67292535e-01,7.74971172e-02,-1.29730344e-01,-1.87644754e-02,2.96383277e-02,7.34417289e-02,1.10020176e-01,-6.29189909e-02,1.37069151e-01,2.95150769e-03,1.08991012e-01,2.94755939e-02,1.50513709e-01,9.65823885e-03,5.62561393e-01,-3.89079571e-01,-1.11737579e-01,-1.23699501e-01,6.74647540e-02,5.22720218e-02,6.21121749e-02,1.17480591e-01,1.02185868e-01,-3.93051244e-02,-1.67724550e-01,2.85851695e-02,-9.87866819e-02,1.82381272e-01,-1.66051295e-02,-1.34868911e-02,-2.20541552e-01,-4.31623794e-02,6.95197955e-02,3.36514339e-02,3.60702634e-01,-2.62984931e-01,-1.14188105e-01,-1.27712628e-02,2.16947682e-02,-5.62128007e-01,-3.40866536e-01]
[1.48239017e-01,1.75003543e-01,1.68348953e-01,2.18562841e+00,-2.98690230e-01,-1.21095620e-01,3.42944831e-01,6.21637106e-01,2.69156873e-01,1.07633546e-01,-3.87672335e-02,1.13027513e-01,-3.81106772e-02,8.54232460e-02,3.90995387e-03,-2.27033850e-02,-9.94660631e-02,-1.65334895e-01,2.25581467e-01,-4.82140660e-01,-3.23515087e-02,-6.61706226e-03,-1.58220291e+00,-1.61856441e+01,-1.91325411e-01,-3.59307937e-02,6.11016378e-02,7.96410814e-03,7.69561529e-02,2.52126381e-02,1.81454986e-01,-3.46063487e-02,6.23080134e-02,-4.81629044e-01,2.20497674e-03,1.98246002e-01,-2.25571513e-01,-4.27861512e-01,1.30833894e-01,-3.62113453e-02,8.46787319e-02,7.38352761e-02,3.78107391e-02,1.54616028e-01,-3.79865505e-02,-2.34717488e-01,-2.05428421e-01,4.81752912e-03,-1.97695225e-01,-7.85774291e-02,8.42901170e-02,-6.58015907e-01,-1.47857428e-01,-4.13276255e-02,2.24731639e-02,8.71986270e-01,-7.92637020e-02,-1.05945557e-01,5.30688418e-03,-1.09670542e-01,2.74412893e-02,-1.60052896e-01,3.67504880e-02,2.59063125e-01,-9.40310434e-02,-7.02189282e-02,-1.20222708e-02,6.17411844e-02,6.90655485e-02,-2.83759236e-01,2.34597344e-02,-9.29832160e-02,-1.49794161e-01,-1.83737390e-02,-4.56270995e-03,1.00040035e-02,7.12031350e-02,2.57267058e-01,-7.87472874e-02,-5.51397443e-01,1.22023948e-01,-2.71783322e-01,-4.39858437e-01,-1.62257507e-01,-2.26435974e-01,-2.50307079e-02,-4.47722264e-02,5.81916906e-02,7.43692517e-02,-1.61707014e-01,5.94619066e-02,-3.29210386e-02,2.83381678e-02,1.46150380e-01,3.65080684e-02,2.06416756e-01,1.54156491e-01,-2.01255232e-02,2.68155187e-02,2.40694638e-02,-1.43026918e-01,-1.37394354e-01,-2.34665245e-01,-9.90520492e-02,2.98078340e-02,-1.40869301e-02,5.23717403e-02,2.23040909e-01,1.19196780e-01,2.68195629e-01,2.23588590e-02,7.44853169e-02,-4.62049767e-02,4.41330066e-03,1.21039830e-01,-2.18799599e-02,-1.70238316e-02,-8.54159445e-02,-4.29135188e-02,6.52334467e-02,8.28649327e-02,-6.52882457e-02,-7.73776248e-02,-9.62239318e-03,-2.96682753e-02,6.52987882e-02,-3.15796763e-01,-1.56287495e-02]
[2.53265612e-02,1.13291688e-01,-3.17638338e-01,-5.60893893e-01,4.92269814e-01,-8.73561502e-02,8.64784718e-02,4.68767822e-01,1.37210533e-01,-3.53109539e-02,4.64077771e-01,1.00889638e-01,-3.54467556e-02,-9.22875255e-02,-3.44690457e-02,-1.88646361e-01,2.31519505e-01,-4.70718630e-02,-1.31454778e+00,2.97561198e-01,2.16449872e-01,-2.50064172e-02,-1.00562394e+00,-4.16287273e-01,-1.31113082e-01,-9.78604555e-02,4.56198752e-02,1.29600957e-01,2.27873418e-02,-1.19077340e-01,3.19063030e-02,-1.02107376e-01,-2.14021891e-01,-6.05402827e-01,-1.46352649e-01,1.70492262e-01,-3.13783169e-01,-5.05298913e-01,5.07178120e-02,-2.29574904e-01,-1.14991307e-01,-8.40300620e-02,1.59946173e-01,1.89903572e-01,-1.86773408e-02,1.65580317e-01,-5.13269342e-02,-7.18300119e-02,-6.55684650e-01,1.54625028e-01,4.79706116e-02,-5.50376892e-01,-1.49835870e-01,-3.94573137e-02,1.06741928e-01,9.31089222e-02,1.30799681e-01,-1.24688849e-01,-1.26548588e-01,-1.01233795e-01,-1.44889086e-01,-8.01624507e-02,2.89106537e-02,-7.09788263e-01,1.73998475e-02,8.85586515e-02,9.90305096e-03,6.70194402e-02,1.99359283e-01,2.99256802e-01,-1.71667170e-02,-2.00823229e-02,-1.24020815e-01,1.30537406e-01,4.16063592e-02,5.87623656e-01,4.06233706e-02,2.34699622e-01,3.30089808e-01,4.30588543e-01,1.36667788e-01,-4.79321897e-01,3.67710531e-01,9.80928689e-02,5.01226068e-01,-2.37990707e-01,-3.77773382e-02,-1.23113021e-01,-5.50359070e-01,1.05625041e-01,5.60859367e-02,-2.86299884e-01,9.23575014e-02,1.06600508e-01,-4.01904434e-02,4.73286182e-01,4.65994999e-02,-3.47231805e-01,-7.11425245e-02,9.72568169e-02,6.56704828e-02,-2.18912840e-01,4.79149297e-02,2.54514039e-01,-2.35424012e-01,-1.78416576e-02,8.94814357e-02,3.43700200e-01,1.58918962e-01,1.96145117e-01,1.02593489e-02,2.16242731e-01,-6.13053627e-02,5.94870560e-02,-3.89934517e-02,-7.21146613e-02,-1.62169427e-01,-1.35904074e+01,1.11593619e-01,8.27012435e-02,2.61733215e-02,2.36189574e-01,-2.21975282e-01,-1.83025643e-01,-3.92750129e-02,-9.93657485e-02,3.27888042e-01,6.69902265e-02]
[1.21258877e-01,-1.91484597e-02,1.02868140e+00,-1.03942499e-01,-1.58355415e-01,-4.03608084e-01,1.67197511e-01,8.48817676e-02,1.63879931e-01,7.71022514e-02,2.98013985e-01,1.12468734e-01,5.80696203e-02,-2.29262374e-02,-1.13955386e-01,1.21716060e-01,5.79506516e-01,8.67714211e-02,2.15939358e-01,-3.53586614e-01,-3.57323349e-01,-7.63033256e-02,-7.89291382e-01,3.79546136e-02,1.04138386e-02,-1.54852882e-01,9.53715120e-04,1.05495997e-01,9.87902135e-02,-6.47243485e-02,-3.43407206e-02,-2.32423380e-01,-2.01804321e-02,6.17697477e-01,4.32847030e-02,2.49579743e-01,4.23744693e-02,-4.01783288e-01,7.02416003e-02,-9.66157578e-03,-4.29998450e-02,1.19841225e-01,1.41597509e-01,-7.29166806e-01,-8.92429924e+00,5.61453477e-02,6.36880696e-02,-1.22760847e-01,-1.27892390e-01,7.27820918e-02,1.52912736e-01,2.82282054e-01,1.12003744e-01,-3.84748690e-02,5.14888465e-02,-7.84632005e-03,1.45211875e-01,-1.62013784e-01,1.33489305e-02,-2.86220461e-02,1.80722862e-01,-1.29784450e-01,1.54415846e-01,-3.89666229e-01,-4.16766778e-02,-1.16064297e-02,1.38640525e-02,2.55477335e-02,1.01781815e-01,-3.62306461e-02,-2.36675106e-02,-1.73225924e-01,3.27883750e-01,-5.67494519e-02,-2.50481486e-01,6.65658759e-03,6.20387718e-02,7.84361362e-02,1.36433721e-01,9.77025107e-02,1.57640025e-01,-2.03221649e-01,-6.14788942e-02,-3.62501204e-01,-7.06654787e-01,-2.11140923e-02,-3.76654998e-03,-1.66170985e-01,-4.28728200e-02,-6.05733134e-02,-5.31498939e-02,-6.27199709e-02,-1.66931516e-03,-9.59033612e-03,-6.41799867e-02,-8.49756002e-01,1.33078722e-02,-4.21187878e-01,4.55986261e-02,8.31422284e-02,6.05767332e-02,-9.66275185e-02,7.84792364e-01,2.28172228e-01,9.45324153e-02,6.96767122e-02,-3.22687216e-02,2.28522450e-01,1.13018379e-01,1.18309751e-01,7.51156360e-02,4.10308950e-02,1.22870356e-01,1.45037388e-02,9.36652441e-03,-2.07043633e-01,1.17776901e-01,-4.46212053e-01,1.86587289e-01,5.73478825e-02,1.86257780e-01,-2.13428721e-01,-1.19488880e-01,-3.76867861e-01,8.24177116e-02,3.04914471e-02,6.44795120e-01,-7.08632767e-02]
[7.97883570e-02,-9.46882814e-02,-5.00090420e-01,-1.25274107e-01,-3.65196653e-02,8.01345427e-03,1.81094021e-01,7.40144849e-02,-5.67423403e-01,-8.40270698e-01,-1.50343585e+00,1.05040841e-01,-9.91729945e-02,-1.38226911e-01,1.25301927e-01,-1.18037224e-01,5.19034505e-01,2.15103328e-01,3.68137062e-01,2.52691716e-01,2.09269971e-01,-8.30418896e-03,-7.22195983e-01,8.84928480e-02,-1.18860632e-01,-1.04697786e-01,1.64913759e-02,-8.49705786e-02,-1.03192180e-01,-6.37965044e-03,7.72012100e-02,-3.04601472e-02,-3.64149094e-01,2.83437699e-01,-2.20484003e-01,2.62660831e-01,-5.56023270e-02,-1.85576677e-01,-2.59696282e-02,3.07290182e-02,-1.21946566e-01,5.94173819e-02,7.21462443e-03,-7.35029951e-02,-5.13368070e-01,-3.96466702e-01,8.63761082e-03,6.82387799e-02,-1.05925411e-01,-2.93914136e-02,2.03759428e-02,-9.15812328e-02,7.18524233e-02,-2.90932097e-02,1.57020852e-01,8.60192627e-02,-1.28135411e-02,-2.13179082e-01,-2.07487289e-02,-1.14476092e-01,1.69704989e-01,-1.70799121e-01,6.34172261e-02,5.17988682e-01,-3.91589813e-02,-4.26844135e-02,-7.79983997e-02,7.38082901e-02,6.48620352e-02,-4.23793495e-02,1.06937466e-02,3.08242496e-02,-4.20528829e-01,9.53630507e-02,-2.29614824e-01,-8.29274803e-02,4.50528711e-02,1.12402834e-01,2.35692218e-01,2.96534114e-02,1.88637629e-01,1.19520932e-01,9.88286212e-02,4.67655867e-01,2.08403572e-01,1.95334792e-01,-9.66352411e-03,4.73703295e-02,1.59565464e-01,-9.84559134e-02,-2.35693082e-02,2.63925344e-01,4.26141359e-02,1.88198090e-02,1.21901110e-01,-6.41672537e-02,-5.24474196e-02,1.42912790e-01,5.50513566e-02,9.46975425e-02,5.03455587e-02,3.03374320e-01,-2.43431836e-01,1.04084797e-02,-3.08792025e-01,1.60140425e-01,2.27719977e-01,1.96925163e-01,1.57876760e-02,1.14617527e-01,1.28750280e-01,2.71694720e-01,-1.09040327e-02,6.09627366e-02,9.90715846e-02,-7.15675712e-01,-2.58025117e-02,-1.26903519e-01,7.47196749e-02,3.37760895e-02,1.17722988e-01,-3.21636051e-02,2.40471005e-01,-2.49402300e-01,9.30074379e-02,-6.98681688e+00,-1.86105892e-02,-1.24674719e-02]
[2.04646796e-01,-1.18937343e-01,2.23475695e-01,3.70099097e-02,-8.18958402e-01,3.32237720e-01,2.43877158e-01,2.85046935e-01,-3.17636311e-01,1.40357679e-02,-7.27017736e-03,4.17764969e-02,-4.18714099e-02,-6.27957731e-02,1.24463262e-02,2.15414222e-02,-1.16388309e+00,6.18583970e-02,-3.56595665e-01,3.64010572e-01,-7.64425397e-02,1.13830864e-01,-4.13471103e-01,5.48846349e-02,-2.59826351e-02,-5.31534441e-02,3.97651941e-02,2.27129669e-03,-4.01806049e-02,-1.15603171e-01,2.71373212e-01,-1.05835408e-01,5.23527384e-01,3.10113490e-01,4.36737724e-02,1.76303402e-01,-4.72041592e-02,4.40275222e-02,-1.29953817e-01,1.04284145e-01,-1.14855029e-01,1.62497774e-01,1.37765422e-01,3.39048028e-01,-3.78236175e-02,-5.12409210e-02,-7.99812283e-03,8.95247329e-03,8.69915783e-02,1.06239319e-01,-2.00095233e-02,3.95867497e-01,8.95138308e-02,-4.13102433e-02,8.66267905e-02,-2.74290323e-01,-3.82846072e-02,-2.48449102e-01,-1.86017621e-03,-6.96529597e-02,8.44763815e-02,-5.18836267e-02,5.71998432e-02,-6.84570491e-01,-9.37307402e-02,8.21722597e-02,8.14033002e-02,-5.49340993e-03,8.41721892e-02,2.77381629e-01,-8.40132460e-02,-1.49703994e-01,1.17300510e+00,1.41892627e-01,6.01068199e-01,-2.75839090e-01,-9.92181990e-03,4.59471084e-02,6.50534034e-02,-6.53748393e-01,1.63113266e-01,-1.37837246e-01,-1.32683024e-01,-3.26758623e-01,5.53500690e-02,-1.97016403e-01,-2.38564741e-02,-3.96733247e-02,-6.01228297e-01,-8.62079048e+00,-9.60289985e-02,-1.02306247e-01,3.34133320e-02,1.15882866e-01,-9.44542065e-02,2.32518867e-01,-6.72992021e-02,8.29802305e-02,2.66608577e-02,4.06458192e-02,4.18481091e-03,-5.77346861e-01,7.13503361e-01,3.63314152e-02,1.79916918e-01,4.52602655e-02,6.24690689e-02,-1.67237967e-02,9.38927978e-02,5.17039448e-02,2.08177850e-01,5.77751279e-01,-7.60377496e-02,1.51927844e-01,1.00186542e-01,-7.93700516e-01,1.23664625e-02,1.30472526e-01,4.12068143e-02,2.99944915e-02,8.26746970e-02,-4.75137457e-02,-2.86663443e-01,-3.87330145e-01,-4.83520925e-02,-5.82934439e-01,-6.95104778e-01,2.83488892e-02]
[1.85942844e-01,-4.45571333e-01,-3.88161659e-01,-6.51421994e-02,2.77425736e-01,-3.63621593e-01,3.41210157e-01,-1.16145015e-01,-2.09960729e-01,1.52114958e-01,1.74551100e-01,9.24334750e-02,8.79260227e-02,-1.04888052e-01,-4.98533808e-02,1.81439534e-01,-4.40607399e-01,1.48923337e-01,7.75700584e-02,-1.97856680e-01,4.54292335e-02,-7.71746635e-02,-7.04128981e-01,-8.78026895e-03,-1.18995486e-02,-6.62769079e-02,3.31894681e-02,2.20746864e-02,6.61225244e-02,-1.08651526e-01,1.48436666e-01,-9.07313079e-02,-5.32849133e-01,-3.69562060e-01,-1.50347590e-01,3.12266797e-01,-1.02239057e-01,1.04998849e-01,-1.06684715e-01,6.53593626e-04,-1.07924605e-03,3.62588577e-02,-1.55725731e-02,9.48954076e-02,-1.22497575e-02,3.66202369e-02,3.77862230e-02,-8.22151154e-02,8.19114149e-01,9.66969356e-02,2.66580004e-02,7.94474110e-02,-3.41956705e-01,-2.23278813e-02,1.21464513e-01,7.13080764e-02,2.33861394e-02,-6.57390878e-02,-6.45148084e-02,-1.61426499e-01,2.08806638e-02,-7.01842364e-04,1.46484584e-01,6.84143007e-01,1.08804636e-01,3.09831779e-02,3.42892855e-02,5.03493436e-02,1.06534101e-01,5.37475586e-01,-3.76218036e-02,1.06510641e-02,-5.61786473e-01,-1.59215987e-01,-2.35328063e-01,-3.53390761e-02,-5.00366390e-02,-1.61964968e-02,-3.54169935e-01,5.29294968e-01,1.79173216e-01,-9.84998345e-02,-3.97221297e-02,-2.90211618e-01,-1.75063506e-01,-3.69212389e-01,-1.74087086e+01,1.03969797e-01,-1.93412274e-01,-4.85834956e-01,1.17943726e-01,-3.86055291e-01,9.50255170e-02,7.50365704e-02,-1.27881840e-01,-1.23243369e-01,6.73702583e-02,9.82835591e-02,1.77259028e-01,7.10166991e-02,-2.28640456e-02,-6.53080121e-02,4.33185026e-02,-3.49357873e-02,9.62901488e-03,1.48058414e-01,8.93535092e-02,-9.73084271e-02,-5.44488877e-02,7.12708235e-02,1.18536770e+00,-4.80363637e-01,7.01631606e-02,1.03699774e-01,-1.04866296e-01,4.64904398e-01,9.81552750e-02,-3.77113558e-02,4.65376638e-02,1.75880000e-01,6.31953999e-02,9.91519690e-02,1.43307194e-01,-3.57207298e-01,2.19098762e-01,3.53578553e-02,4.48476315e-01,9.51062590e-02]
[2.11939886e-01,-5.31717300e+00,6.84677204e-03,1.26212072e-02,-8.95258784e-01,5.69684565e-01,1.64706156e-01,-1.80301592e-01,4.89668161e-01,-1.38088822e+00,3.12628061e-01,-9.22112092e-02,-2.15026010e-02,-2.38300152e-02,-4.58600372e-02,-5.47357976e-01,3.61288875e-01,-1.05572708e-01,1.58270165e-01,4.84266669e-01,3.55221301e-01,1.03855208e-01,-4.28181022e-01,5.90086840e-02,1.48904454e-02,-1.81173861e-01,-4.16422170e-03,-6.92253485e-02,5.35589121e-02,-1.12789482e-01,2.28099572e-03,-2.99117360e-02,4.92748201e-01,-1.14031918e-01,7.10725635e-02,2.02023610e-01,1.32116489e-02,4.79814131e-03,5.40537424e-02,9.36439335e-02,2.13797078e-01,1.02110125e-01,6.55208528e-02,-8.40899870e-02,4.95114625e-02,2.48376742e-01,2.33837236e-02,1.61665812e-01,-4.63545799e-01,-6.80520654e-01,-1.75358906e-01,3.82800579e-01,3.63491252e-02,2.01024115e-02,-4.28930335e-02,-2.13822827e-01,3.89839113e-02,-1.18526042e-01,9.61635560e-02,3.43063921e-02,1.39874279e-01,-2.65973005e-02,1.64406300e-01,-2.93119371e-01,-9.73504409e-02,2.87766624e-02,5.08555621e-02,1.51912766e-02,-5.21981530e-02,8.88250992e-02,1.83970795e-03,-1.20668247e-01,-1.68362856e-01,-8.13627020e-02,-7.98556581e-02,-6.76487014e-02,-3.31671610e-02,-1.93435363e-02,1.73911974e-01,-4.31523770e-01,1.38405219e-01,1.79386914e-01,-1.87960848e-01,2.02922389e-01,-1.02320924e-01,2.93651134e-01,-1.96790665e-01,1.65322974e-01,1.91093639e-01,-5.57210408e-02,-1.52109101e-01,3.84554684e-01,1.00957379e-01,5.95229827e-02,-2.35335599e-03,-2.15720072e-01,5.73424548e-02,-9.69057679e-02,1.08137047e-02,9.36929658e-02,1.71666130e-01,-1.64750978e-01,-4.93524708e-02,4.38938364e-02,-1.20626889e-01,-3.80898155e-02,3.42050344e-02,-8.03943053e-02,7.09380433e-02,5.17735817e-03,2.19567403e-01,-1.86733067e-01,1.94556639e-01,-1.21970266e-01,5.62698245e-02,6.77470088e-01,-1.50334403e-01,-3.34985666e-02,1.46486992e-02,1.90736040e-01,-1.11937009e-01,1.36084221e-02,-5.86971283e-01,-1.98037624e-01,6.47774339e-02,1.83064029e-01,-1.47640154e-01,1.19726948e-01]
[-2.90447064e-02,-7.89571822e-01,-1.74549684e-01,2.27729008e-02,7.40085900e-01,-5.12173660e-02,1.58648074e-01,1.02626368e-01,5.44421136e-01,7.48021841e-01,-1.57854569e+00,-1.28158974e-02,-5.86166047e-02,-4.30580154e-02,-2.31298879e-02,-1.73548516e-02,1.88414991e-01,9.05725285e-02,1.26260966e-01,-1.61317989e-01,-6.54565930e-01,-1.77532524e-01,-4.37958300e-01,-5.97679392e-02,3.79082821e-02,-1.79705247e-01,-8.82676393e-02,2.45166004e-01,4.69450392e-02,7.22966390e-04,1.21312782e-01,1.17969081e-01,-1.05220549e-01,-9.89202969e-03,2.68792287e-02,1.46565020e-01,2.46819537e-02,-2.11864319e-02,7.35837370e-02,1.16570085e-01,-2.04520836e-01,-6.23962283e-03,4.69889119e-02,2.67264873e-01,5.57749793e-02,1.94830019e-02,8.53270143e-02,1.65953055e-01,-2.45067298e-01,-9.69726145e-01,7.54991695e-02,-2.99975928e-02,-6.54186457e-02,-1.16960192e-02,-1.32400692e-01,-1.31237926e-02,-2.11873688e-02,-1.03145845e-01,2.35765502e-02,2.50003152e-02,-2.98897829e-03,3.49725224e-02,-2.53761131e-02,2.55752578e-02,1.07151113e-01,4.33244035e-02,-1.10149525e-01,2.08756879e-01,4.13329788e-02,-6.17978632e-01,-2.81824684e-03,-7.40154013e-02,3.22392046e-01,-7.35974163e-02,-5.91804147e-01,-3.10382545e-02,-5.55609502e-02,5.31582162e-02,-1.08891532e-01,2.00733114e-02,2.29858920e-01,-4.29275591e-04,1.68744683e-01,-1.44296572e-01,-4.83204238e-02,2.06625368e-03,4.53438051e-02,1.76933641e-03,-7.65088379e-01,4.12513837e-02,-1.96137913e-02,3.78003776e-01,1.18427472e-02,1.37285903e-01,8.59693997e-03,3.67245406e-01,6.18955977e-02,1.29769653e-01,-5.20321243e-02,1.49598151e-01,1.70423150e-01,5.61084971e-03,-2.10979983e-01,9.17075872e-02,1.45493612e-01,-3.32075506e-02,2.55544651e-02,-3.90176587e-02,-1.57206833e-01,-1.06402457e-01,5.91011159e-02,5.18657923e-01,-7.68025964e-02,1.16359815e-01,-1.91100389e-02,3.17501836e-03,3.35745327e-02,-3.09129190e-02,1.82197481e-01,2.34178945e-01,3.80635560e-02,3.28020006e-02,-7.57810324e-02,-4.27382857e-01,2.04876624e-02,1.44312069e-01,-1.04453214e-01,1.43890798e-01]
[-1.23771161e-01,-5.74734211e-02,1.75478041e-01,4.27320860e-02,5.11424482e-01,2.90965438e-02,7.51374960e-02,2.82854717e-02,-5.11660099e-01,-6.16769969e-01,1.05644055e-01,-9.94189903e-02,-3.06996088e-02,-3.06469630e-02,4.70223933e-01,5.13272323e-02,-8.98824036e-02,-3.78328562e-01,-7.62104571e-01,1.26507971e-02,3.52662414e-01,-2.25298237e-02,-2.16117442e-01,1.13699578e-01,-9.89129543e-02,-1.92786902e-01,-8.77623618e-01,1.75868511e-01,-1.53449941e-02,1.42659163e-02,4.36410129e-01,2.31012553e-02,-1.12257808e-01,-7.92011842e-02,-8.44114926e-03,1.71382412e-01,3.67191136e-02,4.34077680e-02,2.65937075e-02,3.48560840e-01,-3.96125764e-01,-1.50341824e-01,1.34112805e-01,-5.16515970e-02,4.26572887e-03,9.85308290e-02,8.69674161e-02,3.37443165e-02,2.48444363e-01,1.66494131e-01,-3.19142528e-02,-1.54075071e-01,1.12127006e-01,-7.27404794e-03,-1.68520678e-02,-3.09628062e-02,-7.78500549e-03,-5.27512766e-02,-7.77404197e-03,-1.03102275e-03,-9.06968489e-03,3.68366502e-02,-6.36912733e-02,-9.71677676e-02,6.17148578e-02,-4.22180705e-02,-4.17544954e-02,1.77691415e-01,1.40184667e-02,-1.40032578e+00,3.87239009e-02,1.55647413e-03,-9.16648135e-02,1.10437125e-01,4.16177452e-01,1.31558077e-02,3.34271081e-02,9.42378864e-02,-1.01188868e-01,-1.30490735e-01,1.33995548e-01,-5.97487725e-02,-3.48547064e-02,5.00595309e-02,7.49585778e-02,-3.31916511e-02,-5.30518517e-02,1.81556083e-02,3.18586558e-01,4.76530343e-02,3.66469733e-02,5.66123068e-01,9.27676912e-03,1.35101043e-02,4.84172106e-02,-2.75891304e-01,-2.24148389e-02,2.16728151e-02,-3.88586824e-03,1.20628729e-01,9.55906883e-02,1.25826836e-01,-6.32323278e-03,4.59798127e-02,-8.84890631e-02,-7.92574417e-03,-5.90428263e-02,-3.19547318e-02,6.66931942e-02,2.06813797e-01,9.63372458e-03,-5.09953499e-01,1.70930137e-03,9.24052298e-02,6.46940544e-02,1.06141586e-02,1.16950581e-02,6.42163754e-02,9.60712880e-02,2.59384632e-01,-4.35654186e-02,1.09853029e-01,2.33560726e-01,-5.29751480e-01,-3.84401567e-02,2.14593887e-01,-7.45391771e-02,3.45100947e-02]
[1.15388915e-01,3.40324678e-02,-3.02980393e-01,-1.66766077e-01,-4.00322855e-01,-5.37571684e-02,2.38384739e-01,-1.64862201e-02,-8.81556720e-02,-7.04652891e-02,-4.96020108e-01,1.00878611e-01,-4.19937745e-02,2.36820467e-02,-2.38401145e-02,-7.60031417e-02,4.34044510e-01,4.11174744e-02,1.17693044e-01,-3.63802761e-01,-2.52239466e-01,-6.40509576e-02,-1.37013748e-01,7.94288367e-02,3.16089749e-01,-3.64208907e-01,-4.81791353e+00,1.25782624e-01,-3.42069745e-01,-4.34306040e-02,1.29199252e-01,-3.51097062e-03,4.71617997e-01,-2.90982604e-01,-1.68204978e-02,2.30777845e-01,-4.64141965e-01,8.03018734e-02,6.00269251e-02,1.30406264e-02,-4.89847958e-02,1.10273607e-01,2.41410639e-02,-7.59506106e-01,9.53089744e-02,3.32230777e-01,9.51935425e-02,1.06910029e-02,4.63856250e-01,-7.32782602e-01,2.56074425e-02,-3.20344031e-01,-1.59814805e-01,-1.39862979e-02,-6.60325736e-02,2.06879765e-01,1.35761306e-01,-3.07759997e-02,-3.77949774e-02,4.76929685e-03,5.17401798e-03,3.26349258e-01,4.78992909e-02,-3.15620065e-01,5.47381714e-02,-1.87867209e-01,9.79198981e-03,-1.25880778e-01,-1.39909200e-02,3.17593217e-01,2.18634550e-02,1.49702117e-01,-1.13777541e-01,2.22327828e-01,7.27218568e-01,1.07649706e-01,1.54267967e-01,8.40846170e-03,-6.87123165e-02,2.02294156e-01,2.32366279e-01,5.39995171e-03,8.52416381e-02,-1.53959423e-01,-2.39021271e-01,2.08303053e-02,-3.02190315e-02,-1.93990711e-02,4.05065864e-01,6.01487607e-02,4.89139110e-02,-1.12759709e+00,1.92458425e-02,-7.42651299e-02,2.95278691e-02,5.28920829e-01,-8.85888636e-02,-1.71555266e-01,-7.26941824e-02,1.80288985e-01,6.51879460e-02,2.48784631e-01,2.52954587e-02,6.08515032e-02,2.74791457e-02,6.16167113e-02,5.78403994e-02,-1.33467242e-01,8.50587115e-02,1.38853952e-01,2.39234753e-02,8.81580472e-01,-8.57151821e-02,-1.10480422e-02,1.33986071e-01,-3.52677464e-01,2.40634799e-01,1.79902334e-02,1.93544090e-01,1.10837966e-01,4.49686982e-02,-1.28463268e-01,1.93809971e-01,-5.82088709e-01,1.07572384e-01,1.73728317e-01,2.21002027e-01,6.67942092e-02]
[5.71057238e-02,6.82272855e-03,2.51450330e-01,-6.06764853e-02,-6.66373894e-02,1.75630134e-02,1.15619235e-01,2.46397592e-02,2.34053284e-01,1.18422993e-01,3.52785289e-02,3.78970280e-02,-5.45425294e-03,1.52679488e-01,-1.43694775e-02,1.96474165e-01,-1.83141798e-01,2.06116244e-01,4.25795287e-01,1.83934525e-01,1.45619258e-01,7.45172566e-03,-2.22474277e-01,8.32464248e-02,-2.53562748e-01,-1.76014006e-01,-3.94007593e-01,6.20022193e-02,8.94710608e-03,3.30410264e-02,5.16421795e-02,-9.40544810e-03,-3.25248271e-01,1.55534774e-01,3.50320011e-01,1.94490373e-01,2.76948869e-01,-4.02746983e-02,3.64914127e-02,5.55331260e-02,-2.42096484e-02,-1.85043752e-01,7.37728626e-02,1.46880429e-02,7.51536414e-02,-7.13872463e-02,-6.03931607e-04,-4.86980826e-02,-6.82951391e-01,2.79098719e-01,3.97232808e-02,1.13436319e-01,2.76825465e-02,-3.83196101e-02,-1.04235031e-01,1.59309313e-01,4.53410521e-02,-5.53120449e-02,4.07920368e-02,3.94346267e-02,-4.41058204e-02,2.36619568e+00,-1.91246301e-01,-7.16821402e-02,1.65661916e-01,8.68191719e-02,-4.80216257e-02,-4.17450964e-02,4.23965603e-02,-1.22697644e-01,6.68364810e-03,9.96776763e-03,5.15464246e-02,-5.23182936e-03,3.20423357e-02,-4.55751345e-02,1.29958868e-01,-1.19569544e-02,2.88399100e-01,5.81804849e-02,2.38986254e-01,4.68135960e-02,-1.39797097e-02,1.07062623e-01,1.81710467e-01,3.99296731e-02,4.35137600e-02,1.85149293e-02,-9.58542600e-02,-5.40905148e-02,4.84394245e-02,1.01338498e-01,1.43417493e-02,-8.70184153e-02,1.35521218e-01,-3.29071134e-02,-3.65176387e-02,-1.75669163e-01,-3.34397703e-02,2.57976800e-01,-3.45430881e-01,-1.48595646e-01,-2.13298947e-01,5.43850623e-02,2.09269300e-02,6.77617118e-02,1.10224113e-02,2.36981511e-02,1.22044034e-01,4.98522185e-02,1.97790246e-02,-6.44216299e-01,2.80669169e-03,-2.36436576e-01,-1.38756959e-02,-2.83006608e-01,-4.83629443e-02,1.49987444e-01,1.46649731e-02,4.29288158e-03,6.17406480e-02,2.01947927e-01,-3.30155306e-02,-8.28604519e-01,1.11171408e-02,-8.55505168e-02,-7.48505965e-02,6.23431355e-02]
[-1.64399385e-01,1.59509107e-01,-1.01092616e-02,1.69348165e-01,-3.75104040e-01,-3.01139653e-02,1.58886343e-01,-1.40486225e-01,3.24154466e-01,7.31764510e-02,-4.31558013e-01,-3.29661183e-02,-6.57103397e-03,-2.26843487e-02,1.75332632e-02,-3.51399511e-01,7.60001764e-02,1.43128425e-01,2.34506071e-01,-1.22618275e-02,-1.13610066e-01,2.47857086e-02,-1.71171397e-01,4.62649390e-02,-1.83038332e-03,-1.90748170e-01,-1.05764687e-01,1.38734439e-02,1.20049573e-01,-7.51019130e-03,3.80713046e-02,-5.20255826e-02,3.80716294e-01,9.35253352e-02,-3.11104089e-01,1.60313800e-01,-1.19936787e-01,-1.12884222e-02,4.19985540e-02,1.95374489e-01,-1.81989893e-01,2.77210593e-01,-4.19175550e-02,-7.33194873e-02,7.68659636e-02,-6.88527077e-02,2.20303498e-02,2.63876915e-02,2.59978801e-01,3.79167348e-01,-2.52085440e-02,-5.23255825e-01,1.09171443e-01,-1.08667016e-02,-3.43511328e-02,-7.65339956e-02,1.94175646e-01,-8.70346650e-02,5.54316826e-02,-9.80197173e-03,1.85770959e-01,2.39077270e-01,-1.30398333e-01,1.62383363e-01,-9.24725458e-03,-2.01290324e-02,-3.72305252e-02,-1.68845467e-02,1.32192209e-01,1.78892866e-01,-4.72274646e-02,-6.14173524e-02,-5.13532246e-03,-1.09122477e-01,-6.06314063e-01,2.83410519e-01,1.57202203e-02,-8.32615346e-02,-2.83371150e-01,4.76133645e-01,2.85344630e-01,3.13269161e-02,4.23770980e-04,1.85789883e-01,-2.00742543e-01,4.36367206e-02,6.94860220e-02,7.60010779e-02,-1.46995389e+00,1.65962473e-01,9.28312317e-02,-3.49318981e-01,-8.71985452e-04,-1.87507682e-02,8.02140385e-02,-1.67974800e-01,-2.36161184e-02,4.33060020e-01,7.08511993e-02,1.39271006e-01,4.42791022e-02,2.44126171e-01,5.65166056e-01,1.81884337e-02,6.76916614e-02,7.71108195e-02,5.57358786e-02,-3.13851535e-02,7.63475150e-02,6.41105175e-02,-7.81722367e-02,6.87816143e-01,-1.26618445e-01,-5.54279041e+00,3.47463675e-02,8.14946219e-02,-3.45996991e-02,1.03935950e-01,6.65388703e-02,-1.36318862e-01,3.42242904e-02,-3.66911232e-01,-2.17402205e-01,-1.24124515e+00,-5.71407145e-03,1.68493614e-01,-1.47381112e-01,-4.09347564e-02]
[8.54515880e-02,4.75905761e-02,-3.43434513e-01,-2.14783818e-01,7.65239373e-02,-4.53228876e-02,1.67477235e-01,-4.68108296e-01,-3.92486602e-01,-1.07317030e-01,2.04153031e-01,7.52214491e-02,7.01162890e-02,-6.74625710e-02,5.11244424e-02,3.23431641e-01,4.04227138e-01,8.30020458e-02,5.86997867e-02,1.38552323e-01,1.65601686e-01,1.03315651e-01,1.29263297e-01,-2.84229331e-02,-1.19198658e-01,-2.34627932e-01,2.50553787e-01,-1.99550670e-02,3.42584848e-02,-3.24822247e-01,-1.45019563e-02,-6.87682107e-02,-3.64603996e-01,-1.30106017e-01,-2.41785690e-01,1.70527652e-01,2.37062022e-01,8.59223828e-02,5.20067215e-01,8.11929703e-02,-2.01985598e-01,-3.64908502e-02,-2.74179911e-04,5.15645854e-02,-8.73581786e-03,-2.00497299e-01,-3.57929058e-02,9.57942307e-02,2.14204922e-01,2.03877211e-01,-8.89458954e-02,6.34135365e-01,-2.10560933e-01,-2.90263854e-02,-1.83180561e+01,3.20966661e-01,5.63817360e-02,1.54369241e-02,-2.71591032e-03,-8.40720832e-02,1.17294408e-01,3.83221321e-02,2.06186786e-01,-1.65890694e-01,-7.02053681e-02,1.27010331e-01,-8.96667242e-02,-4.64088880e-02,9.74011123e-02,2.50594020e-01,-8.05533752e-02,-1.34878838e-02,-2.82444656e-01,1.57830879e-01,-1.69123739e-01,-8.69377136e-01,-7.79807428e-03,1.19429296e-02,5.94992936e-01,-9.05357957e-01,1.34346277e-01,1.91454858e-01,1.94523856e-02,-4.77781653e-01,-5.80027588e-02,-1.52475744e-01,3.48890051e-02,-4.75096479e-02,1.95609495e-01,2.64533669e-01,-7.83326179e-02,-2.17414964e-02,2.01824717e-02,-2.70428136e-03,1.08813219e-01,3.95212293e-01,-8.42548013e-02,-2.58474499e-01,8.45153444e-03,1.68575272e-01,9.32624266e-02,-3.29386234e-01,-4.80310358e-02,1.69218525e-01,7.82995448e-02,1.60068735e-01,8.10880214e-02,-1.45805120e-01,5.21959066e-02,6.11427836e-02,-1.16387971e-01,2.08122209e-01,-1.44892052e-01,-4.25555587e-01,-2.37169545e-02,7.94987157e-02,1.08778603e-01,6.06840216e-02,1.75205410e-01,1.23870865e-01,5.54358512e-02,7.87340343e-01,1.25524208e-01,-2.23228741e+00,-4.26019579e-02,9.50501766e-03,2.15386286e-01,-3.48629579e-02]
[1.96641862e-01,1.37555137e-01,-6.06371701e-01,5.61577678e-02,3.28650802e-01,-8.72318447e-03,1.65765837e-01,-2.84803987e-01,6.43844679e-02,-6.85775638e-01,7.33169675e-01,-1.44494986e-02,-8.31274167e-02,-1.92314282e-01,4.69100066e-02,5.08091226e-02,-1.25790566e-01,2.47624606e-01,-1.72794923e-01,-2.05461621e-01,-1.26454517e-01,5.13089076e-02,-5.07124364e-02,1.12991117e-01,-2.94432729e-01,-7.19116405e-02,2.49554887e-01,-7.50805438e-02,1.04577526e-01,-1.23717576e-01,-6.30063787e-02,-5.03455102e-02,4.33879420e-02,6.39771521e-01,-1.09872920e-02,1.26979113e-01,-4.21132982e-01,8.53717476e-02,2.95258820e-01,-1.16607291e-03,-5.23166955e-02,1.05445109e-01,9.88801848e-03,1.15402415e-02,5.67848943e-02,2.63614029e-01,-1.12965062e-01,4.29676808e-02,4.85806733e-01,-6.79927886e-01,-1.04437567e-01,5.90807080e-01,-4.64611538e-02,-3.13869715e-02,-2.55069882e-01,3.20358276e-01,6.34097382e-02,-7.84136653e-02,1.77447692e-01,1.00721866e-02,-1.43432021e-01,-2.39074193e-02,1.26588121e-01,3.03876013e-01,-1.59598395e-01,1.45637527e-01,-2.40591518e-03,5.44430688e-02,-5.11861108e-02,-1.97028309e-01,-5.27010262e-02,-3.68560851e-01,6.32299244e-01,-1.73035130e-01,-4.84285444e-01,5.48596144e-01,-4.31206860e-02,-4.57706600e-02,-5.91191828e-01,5.11278570e-01,1.12559460e-01,-2.12029681e-01,-5.85929871e-01,3.72122347e-01,6.44259453e-01,7.71778002e-02,1.26759157e-01,-2.49200594e-02,9.36912745e-02,2.56367326e-01,-1.48067623e-01,-7.15977652e-03,1.78739861e-01,3.28969327e-03,6.18915111e-02,-1.65643483e-01,1.26751855e-01,-5.56077778e-01,4.33306061e-02,2.84891725e-02,1.16828941e-01,-6.85928643e-01,-2.69479811e-01,1.18961399e-02,-1.21663623e-02,-2.19106078e-02,6.57733250e-03,7.39055648e-02,1.40443863e-02,1.52088165e-01,-1.26537206e-02,-1.47465110e-01,-7.82707167e+00,7.99046364e-03,4.56947461e-02,-3.30209911e-01,-5.98420613e-02,9.06905234e-02,9.49006081e-02,7.03669861e-02,-3.47539294e-03,-1.06232572e+00,5.58589026e-02,-4.38895798e+00,4.52807769e-02,4.57759947e-03,-1.23887733e-01,1.43609080e-03]
[5.01819476e-02,-4.90218885e-02,-1.11819301e-02,-9.92286205e-02,1.87590986e-01,8.51917118e-02,1.18815331e-02,2.11715505e-01,-3.05368990e-01,4.99896049e-01,6.45984188e-02,-7.36498758e-02,1.99593673e-03,7.97693878e-02,1.70217603e-01,-3.73994559e-01,-1.11026578e-01,5.14800251e-02,3.06932092e-01,-9.98496637e-03,1.83093950e-01,6.71840180e-03,1.20517261e-01,4.86551039e-03,7.73294792e-02,-1.89004317e-01,6.61837682e-02,3.87299247e-02,1.99539270e-02,-9.19565856e-02,5.30045200e-03,3.89319994e-02,-3.17698002e-01,-2.52229482e-01,-8.36004913e-02,2.46897802e-01,2.68733859e-01,1.47711039e-01,-1.71771757e-02,6.18051812e-02,-3.97448801e-03,5.89119233e-02,1.56563818e-01,7.16037676e-02,-4.47751693e-02,4.48205441e-01,-3.67635256e-03,1.54137805e-01,-7.10408837e-02,-2.42251948e-01,-1.11369891e-02,9.20420140e-02,-5.30458912e-02,-4.19213474e-02,2.61220057e-02,-1.79805681e-01,-1.09833404e-01,6.47141039e-02,3.66795026e-02,-2.89372146e-01,-6.68311343e-02,-1.09633304e-01,1.97928742e-01,2.80005187e-01,6.54249191e-02,2.04685982e-03,-9.64409392e-03,4.98363562e-02,-3.46111022e-02,-1.30239040e-01,-4.52985652e-02,1.41599588e-02,-2.12080970e-01,3.56519185e-02,4.06063586e-01,-1.07064322e-01,-2.08314881e-02,1.48801645e-02,-3.00323635e-01,1.64468631e-01,-7.83146620e-02,-1.78595707e-01,1.72314122e-01,9.70791951e-02,-6.72141016e-01,1.17650330e+00,1.55142561e-01,-3.31717581e-01,-2.08312050e-01,1.40354350e-01,1.41045004e-01,1.37591496e-01,1.81186587e-01,-8.09594345e+00,1.66355204e-02,-2.14980841e-01,1.16829000e-01,-1.13426387e-01,4.97767664e-02,2.59321015e-02,1.26006812e-01,-4.91984487e-01,-2.75412410e-01,1.89220563e-01,-1.55483428e-02,7.49885365e-02,1.11531854e-01,1.88928396e-01,5.47084138e-02,2.42452309e-01,-4.24053259e-02,-3.06203485e-01,-4.21256095e-01,1.91735238e-01,-5.21127172e-02,-5.07043123e-01,1.98236983e-02,4.15760837e-02,-4.30507138e-02,-4.38620411e-02,1.51043031e-02,8.46834481e-01,-5.95358014e-01,-4.23013592e+00,9.49952006e-02,-6.62312210e-02,-2.92508751e-01,1.97709855e-02]
[9.49261859e-02,4.50215757e-01,-1.13317497e-01,-1.09664865e-01,-2.29223296e-01,1.68527097e-01,2.96017736e-01,6.49287701e-02,3.63706797e-01,7.69646689e-02,2.75139242e-01,1.70402557e-01,-1.10844724e-01,-3.66139673e-02,-7.19225872e-03,3.54490370e-01,-1.41065329e-01,-6.54790401e-02,-2.42318623e-02,-4.33754288e-02,2.17821762e-01,-4.40140329e-02,9.53627005e-02,3.37194167e-02,-2.06672952e-01,-1.76062971e-01,3.19626145e-02,-4.95556802e-01,-1.77088544e-01,-3.73912305e-02,1.81730494e-01,7.93592781e-02,2.32237458e-01,1.12732805e-01,8.85902345e-02,1.00997433e-01,-3.74491006e-01,5.59943430e-02,-2.39420123e-02,1.15988746e-01,2.10957140e-01,8.60318169e-02,6.60913438e-02,1.45159855e-01,-4.56875749e-03,-3.10261864e-02,1.26963139e-01,1.69133320e-02,-1.78327590e-01,-8.13234687e-01,-6.48925677e-02,5.83444014e-02,-8.60304609e-02,-3.80862914e-02,-3.23080942e-02,-5.13583422e-02,-6.81271628e-02,5.70743941e-02,6.87328801e-02,-3.25151496e-02,-1.02288246e-01,-3.20401900e-02,8.29008222e-02,-1.78746089e-01,1.00002266e-01,-3.20865051e-03,5.95362782e-02,1.40504330e-01,1.68206182e-03,-2.69689206e-02,2.71708705e-03,-6.58605546e-02,-1.17184423e-01,3.07695623e-02,-2.03436181e-01,3.99297439e-02,-4.12339531e-02,1.03747927e-01,5.49438745e-02,-9.84508395e-02,3.83273289e-02,2.51436364e-02,-1.42227739e-01,-1.51666433e-01,1.62581522e-02,-1.07826285e-01,4.70910817e-02,-4.64001322e+00,3.28801364e-01,1.18157849e-01,-2.84840092e-02,-1.21182978e-01,2.58368760e-01,-1.86307371e-01,-1.14254810e-01,-5.48548112e-03,-1.78715903e-02,9.11290646e-02,-9.67944041e-03,3.47240381e-02,2.43676603e-01,6.83374643e-01,-1.87766463e-01,1.29139256e-02,1.49073303e-01,6.40845895e-02,2.90443189e-02,3.99766564e-02,-1.13229208e-01,1.09813102e-01,-2.22661085e-02,1.76924571e-01,8.39778706e-02,1.03569686e-01,1.20000601e-01,4.94763702e-01,-1.05287522e-01,2.95904912e-02,6.03963695e-02,-7.79665187e-02,-7.33045042e-02,-1.50252610e-01,-2.09368899e-01,-4.36664486e+00,1.10197805e-01,1.02687642e-01,1.98209554e-01,9.05917436e-02]
[-3.23320031e-01,2.03694627e-02,2.77438700e-01,1.38072059e-01,5.15668452e-01,-2.38914147e-01,3.23392719e-01,-1.33597583e-01,1.15622714e-01,2.80170023e-01,-4.11995679e-01,1.80324733e-01,-2.20655743e-02,-9.54307467e-02,5.03725559e-02,-3.71497571e-01,4.78950620e-01,-1.50128841e-01,-1.80522189e-01,-2.88886577e-01,-6.14861906e-01,-8.35912898e-02,1.46471813e-01,8.42195153e-02,-2.00776562e-01,-2.29991466e-01,1.47649646e-01,-4.76697350e+00,1.90506592e-01,2.50377934e-02,8.95271972e-02,6.17462210e-02,-2.51678258e-01,-3.33333433e-01,2.30708197e-01,1.11489229e-01,1.96055293e-01,4.59463708e-02,-4.93790135e-02,1.67495981e-01,2.76806772e-01,5.58286197e-02,1.91317871e-01,1.11062631e-01,-3.00572813e-02,-3.92630696e-02,9.16630402e-02,-9.25578643e-03,6.30215168e-01,-2.03159600e-01,4.13776487e-02,3.71649951e-01,-1.31305695e-01,4.69230930e-04,-1.02355108e-01,1.57862641e-02,8.82291794e-02,-1.36296311e-02,1.16474032e-01,3.68196107e-02,-3.74080986e-02,5.77232018e-02,2.44393330e-02,3.57362931e-03,-9.42360759e-02,7.17007881e-03,-6.12325482e-02,-1.00947082e-01,8.21418911e-02,-3.91776860e-01,2.99341157e-02,1.21935643e-01,3.96103114e-01,7.10876733e-02,4.32205915e-01,-4.46530342e-01,-7.85797089e-03,3.68845426e-02,-4.80382517e-02,-9.63273197e-02,4.45072874e-02,-1.32393897e-01,-8.46093297e-02,-1.07213311e-01,3.71952564e-01,-8.66039991e-02,4.44535771e-03,-2.73496300e-01,-1.31644011e-01,-6.18176274e-02,-9.48654339e-02,1.54509634e-01,-2.74252631e-02,-1.01275521e-03,1.13026090e-01,-2.43216425e-01,1.87628835e-01,1.08922347e-01,1.65181868e-02,1.14237770e-01,1.03895202e-01,-3.33269566e-01,1.38939708e-01,1.00914640e-02,-2.78765768e-01,-9.82110761e-03,-8.07865430e-03,-3.84735223e-03,1.24683129e-02,1.19652919e-01,7.14502260e-02,6.60935715e-02,1.36632800e-01,1.77387595e-01,5.15627265e-02,-6.03310764e-02,-4.01948020e-02,3.38103324e-02,5.60189299e-02,-1.11550279e-01,3.09879035e-02,2.99505651e-01,2.20733970e-01,-2.19235873e+00,1.57921053e-02,7.56239668e-02,-8.04607645e-02,4.32310253e-02]
[6.14549359e-03,8.76588076e-02,-2.68128604e-01,6.34819269e-02,2.23704025e-01,3.80467147e-01,1.65942147e-01,-1.60868149e-02,-1.52159274e-01,-3.04063797e-01,-1.18532345e-01,1.15486406e-01,-1.01383207e-02,-3.83079867e-03,-5.27226254e-02,4.12199974e-01,2.36934125e-02,2.93745156e-02,-3.06934625e-01,1.82843208e-01,2.47206002e-01,5.92880044e-03,3.32091779e-01,8.88863280e-02,7.98339397e-02,-1.40557915e-01,9.49073583e-02,-4.53263819e-01,-1.00410551e-01,2.50740605e-03,6.02372363e-02,1.06694050e-01,-4.18850541e-01,2.60706931e-01,-3.88894677e-01,1.86629385e-01,-6.63988739e-02,-2.87827551e-02,1.39461815e-01,1.27082109e-01,7.96798244e-02,3.00901625e-02,-4.58967052e-02,-1.99583754e-01,-9.12335590e-02,3.23233992e-01,1.20472468e-01,4.06424925e-02,-3.38335857e-02,4.22413856e-01,1.32941991e-01,-3.87303174e-01,-3.94867584e-02,-2.57332269e-02,3.34733240e-02,-3.00033808e-01,5.57370484e-02,-6.18150234e-02,5.31630628e-02,-2.54048705e-01,5.34979515e-02,-1.59408376e-02,-9.08762496e-03,-4.77825046e-01,-1.21161647e-01,1.48967281e-01,3.68158557e-02,6.11049756e-02,1.64924160e-01,-3.43907438e-02,-5.21683460e-03,7.12672770e-02,1.97733909e-01,1.06664687e-01,8.57380092e-01,3.64027321e-01,-1.07870542e-01,-2.72735842e-02,-9.73540321e-02,-3.54416460e-01,-1.05357237e-01,-7.39374980e-02,7.79319108e-01,1.40564993e-01,-6.09987378e-01,-2.01658800e-01,-4.14404906e-02,6.41884059e-02,-1.82393156e-02,-4.48544957e-02,3.49973366e-02,-3.35031956e-01,4.60442863e-02,9.29678883e-03,-3.72009426e-02,-1.92931175e-01,2.63031926e-02,-7.54184797e-02,-4.28177379e-02,6.95722401e-02,1.55820474e-01,6.51331544e-01,-3.79864544e-01,1.42109198e-02,-3.91904041e-02,-6.48937188e-03,-5.51138371e-02,-7.96801969e-02,-6.08265114e+00,2.44690582e-01,9.24228877e-02,-2.66389489e-01,2.74754744e-02,-4.39108275e-02,9.40397307e-02,-2.13609915e-02,4.65156212e-02,7.51604661e-02,-2.67676602e-04,8.28837827e-02,-8.81858245e-02,-7.01124966e-01,-4.14821237e-01,-1.48176730e+00,-1.02845967e-01,1.36741221e-01,-5.54845393e-01,-3.79242599e-02]
[1.78269446e-01,1.15609586e-01,3.89183164e-01,2.51061469e-02,-1.49438322e-01,-1.25646412e-01,1.56622827e-01,3.32085900e-02,2.23177299e-01,5.46010807e-02,-1.20467715e-01,4.15546782e-02,-9.00959596e-02,-1.76311694e-02,5.44195026e-02,-3.45597826e-02,1.38707399e-01,-2.20389962e-01,2.80961722e-01,-2.39496320e-01,-1.02243043e-01,4.68420349e-02,3.93477470e-01,8.76462162e-02,-2.24867135e-01,-2.00971201e-01,1.38983473e-01,-2.08663970e-01,1.61600858e-01,-1.54703021e-01,3.25218648e-01,4.08047676e-01,6.31549954e-01,1.86052874e-01,7.29200616e-02,1.84308216e-01,-8.58956933e-01,-2.07442641e-02,1.32259309e-01,-7.89851770e-02,-3.50803435e-02,5.05231172e-02,2.83119921e-02,-6.05868697e-01,7.68124089e-02,-8.26559424e-01,5.41020595e-02,1.05037158e-02,-7.74340332e-01,1.11405581e-01,-2.37464402e-02,8.44029039e-02,-1.41850814e-01,-9.27030388e-03,8.13381448e-02,-9.34308589e-01,7.63796940e-02,2.15237401e-02,4.47343253e-02,-6.81798309e-02,2.64145374e-01,-8.93696584e-03,4.08521369e-02,6.59489632e-01,-1.96204074e-02,2.66242791e-02,-2.30060220e-02,-1.30518734e-01,1.06321014e-01,-3.62290479e-02,3.98636833e-02,-5.98200709e-02,1.78698808e-01,2.48308077e-01,-2.70496666e-01,2.57178098e-01,-1.34779568e+01,-1.24080677e-03,-5.19702256e-01,4.45780866e-02,-3.66467945e-02,2.05461904e-02,-1.00890979e-01,1.27157137e-01,5.33481427e-02,-1.24909632e-01,6.09995658e-03,8.28978941e-02,-2.00224683e-01,-6.45755976e-02,-1.83074147e-01,-3.09109807e-01,-4.70342785e-02,1.60375182e-02,-2.29720213e-02,4.49034840e-01,-1.72529966e-02,-2.65919507e-01,-7.94365332e-02,4.04264778e-02,7.16215596e-02,-3.73951167e-01,3.28500658e-01,-9.70330685e-02,-3.73443268e-04,6.86697662e-02,-5.03473468e-02,5.10559790e-02,-2.87505507e-01,2.14831427e-01,3.12313046e-02,-6.74249053e-01,5.34413084e-02,1.59888610e-01,2.19720691e-01,-4.66649354e-01,8.91449451e-02,8.86795670e-02,2.25552619e-01,1.34946793e-01,-1.14462242e-01,9.68143582e-01,1.82921007e-01,-1.16812098e+00,-1.28306057e-02,-5.32239564e-02,3.06312889e-01,-7.62708709e-02]
[2.61402607e-01,-2.01918811e-01,-1.19198486e-01,-1.78654209e-01,5.84136136e-02,8.45601559e-02,5.81463091e-02,-2.11591452e-01,-4.11049187e-01,-6.80613518e-02,6.28879741e-02,-1.94817185e-01,3.56690846e-02,3.90815325e-02,-1.99562311e-01,-4.82193939e-02,-4.43006963e-01,2.14844987e-01,6.05807245e-01,4.61377800e-02,-2.93767333e-01,6.00542948e-02,4.06734169e-01,7.57552013e-02,-1.44287437e-01,-1.37124032e-01,2.26405814e-01,6.13628775e-02,1.13391556e-01,-3.74738895e-03,2.62360185e-01,9.81926024e-01,-2.36652017e-01,-3.79169881e-01,-8.26040357e-02,1.23057581e-01,5.77691436e-01,6.39355928e-02,7.30189532e-02,5.89960292e-02,2.06769362e-01,1.04835592e-01,8.47431794e-02,1.33283451e-01,1.48689613e-01,4.47659224e-01,3.68907116e-02,-2.95238290e-02,-1.16667181e-01,1.69757023e-01,1.04996033e-01,-6.30423009e-01,-5.43823093e-02,-1.30396895e-02,-2.79896148e-02,-1.57196611e-01,4.56278808e-02,4.06026058e-02,-4.19371529e-03,-9.53144059e-02,5.36498800e-02,-6.65784702e-02,-6.59960182e-03,-5.31271160e-01,1.35090733e-02,1.94338243e-02,1.33323953e-01,1.80365205e-01,9.42211691e-03,-3.89117688e-01,1.42153338e-01,-1.34708866e-01,-6.70519054e-01,2.76310556e-02,-3.37494552e-01,-2.45047379e-02,-3.24756771e-01,-8.22701603e-02,6.77149296e-01,-7.84951523e-02,-2.04304174e-01,-1.79207966e-01,-4.69089776e-01,-1.86759278e-01,3.09191942e-01,9.68574136e-02,1.48384897e-02,1.49307802e-01,3.32613885e-01,-2.30548028e-02,8.46858043e-03,-4.21199262e-01,-8.39996263e-02,1.20141447e-01,1.84136242e-01,-2.47893319e-01,-1.11582339e-01,-3.27143162e-01,2.82220058e-02,-1.04812616e-02,5.40143102e-02,2.09564149e-01,1.28520238e+00,1.63416518e-03,4.04216647e-02,7.92127177e-02,3.32305245e-02,4.88489158e-02,6.40850440e-02,2.83137202e-01,-3.61114973e-04,-3.01517546e-01,-6.10260433e-03,1.93075210e-01,9.18762982e-02,-1.25804052e-01,7.67089799e-02,-4.17892560e-02,7.95474723e-02,-1.09279044e-01,-1.10034971e+01,-5.87203085e-01,-3.82599123e-02,-7.72860050e-01,-6.12499081e-02,1.82658762e-01,-1.58158317e-01,9.88949090e-02]
[3.30881298e-01,-5.18609397e-02,-3.76862511e-02,1.63538203e-01,-4.59531665e-01,5.08031361e-02,1.92229599e-01,-1.52971327e-01,1.76531538e-01,-3.72049153e-01,-6.13879561e-01,-1.17789946e-01,1.17051147e-01,1.20921284e-01,-2.30158284e-01,4.00628746e-02,-7.64864385e-02,1.20835215e-01,-1.62324274e+00,5.97811826e-02,-2.50299759e-02,6.60027191e-02,4.42840993e-01,2.28496511e-02,1.82104006e-01,-2.20861912e-01,2.08380759e-01,4.33310606e-02,5.25949776e-01,1.02307744e-01,2.58077562e-01,1.10463671e-01,-1.71349958e-01,3.90813589e-01,3.27508032e-01,9.58204791e-02,1.44953534e-01,3.98842283e-02,1.22755364e-01,1.77358910e-01,2.73503900e-01,-1.32181704e-01,-1.11753099e-01,-6.82008505e-01,6.92965984e-02,4.10852581e-02,-6.29442483e-02,5.45857958e-02,3.45758488e-03,1.09104060e-01,4.27162071e-04,-4.00310904e-02,-2.70116031e-02,-1.98039636e-02,1.15079947e-01,1.99155062e-02,1.68505892e-01,2.12001745e-02,4.05288376e-02,-5.13031743e-02,7.14672133e-02,1.18890172e-02,-3.77091914e-01,1.73502296e-01,2.26616398e-01,1.59303322e-01,-3.42035736e-03,-2.65130661e-02,8.03748146e-02,2.95962304e-01,1.54370666e+00,-2.56831069e-02,-7.97233805e-02,-4.85916203e-03,6.56808376e-01,-1.91286027e-01,-4.51171258e-03,3.81622910e-02,-3.89922410e-02,3.86406153e-01,-3.21627378e-01,6.99057057e-02,-1.28980950e-01,1.20936900e-01,-1.39392063e-01,3.00705042e-02,1.01382723e-02,-6.11230498e-03,-3.44268501e-01,1.86440513e-01,6.45242259e-02,3.07587713e-01,-3.64188589e-02,-8.09305981e-02,4.40842032e-01,3.71572711e-02,4.70795594e-02,-3.45715545e-02,6.33460656e-02,1.43676490e-01,-3.17976512e-02,-1.83222562e-01,-1.01618199e-02,-8.27958509e-02,5.05015552e-02,2.75996756e-02,9.55528915e-02,7.23280832e-02,1.46888420e-01,6.11864179e-02,5.88135384e-02,9.04110968e-01,6.77649751e-02,3.04285645e-01,3.52457538e-02,-7.00318348e-03,3.25298086e-02,1.41749829e-01,2.63632149e-01,5.61340861e-02,-5.27991772e-01,1.22989625e-01,-2.59251166e-02,-5.44040442e-01,-6.72713965e-02,2.62564301e-01,4.31208193e-01,3.15593220e-02]
[7.00526163e-02,1.31404355e-01,1.06150873e-01,-1.63631156e-01,-4.92986411e-01,-1.22273445e-01,1.24787837e-01,6.58954084e-02,-4.43454057e-01,1.16814569e-01,-2.83811510e-01,1.06485277e-01,-1.11554451e-02,3.29014957e-02,-1.07641265e-01,2.68038847e-02,1.85760427e-02,1.46912768e-01,-3.19904596e-01,3.53969000e-02,2.02331737e-01,-1.10736368e-02,4.13387984e-01,-1.86596029e-02,-1.68929234e-01,-2.44586721e-01,1.54090777e-01,1.45858943e-01,1.27204314e-01,-2.88633183e-02,1.31892219e-01,2.45974995e-02,-1.65947422e-01,-2.39112228e-01,-1.58673987e-01,1.98993519e-01,3.82466391e-02,-6.26184121e-02,2.20383354e-03,-3.81178148e-02,2.29045928e-01,2.01538056e-02,1.74916796e-02,1.35695219e-01,-7.01131299e-02,9.24181100e-03,2.49245670e-02,-1.40218278e-02,7.85465181e-01,-3.18162590e-01,4.75437567e-02,2.61943966e-01,9.18802992e-02,-1.09532820e-02,9.07573998e-02,1.01960316e-01,1.71354160e-01,2.05509979e-02,3.30743566e-02,-2.08659042e-02,7.28608593e-02,-1.64235290e-02,-3.76334715e+00,-6.96203262e-02,9.54023972e-02,-6.11498803e-02,5.28389737e-02,4.66332324e-02,-7.02471584e-02,4.63174731e-01,1.63169622e-01,1.02053741e-02,1.24908559e-01,3.04521203e-01,-1.19971132e+00,3.47537726e-01,9.21218321e-02,-9.83800814e-02,1.05159312e-01,-1.64821327e-01,-2.59907007e-01,-2.80777831e-02,4.06576633e-01,-2.43110936e-02,3.12815458e-02,1.17218103e-02,-5.26606180e-02,-9.06905904e-03,4.80470031e-01,1.74076930e-01,1.03175066e-01,1.40027568e-01,2.59834062e-03,-3.07448246e-02,-1.55177675e-02,-3.61596271e-02,-7.53132626e-02,-3.83508280e-02,3.65414321e-02,-2.84388494e-02,1.11954994e-01,1.43642947e-01,-5.06163985e-02,1.84576571e-01,1.13351963e-01,1.42978340e-01,1.24493219e-01,2.01803911e-02,-1.90173402e-01,-8.34272429e-02,2.77579837e-02,-7.02792048e-01,1.80608019e-01,1.50783673e-01,-1.50882050e-01,-6.00540377e-02,6.88551068e-02,-1.39007971e-01,1.07068926e-01,1.17204897e-01,6.42091781e-03,-7.49199884e-03,9.18452069e-02,-3.98509413e-01,1.06362896e-02,1.31577298e-01,-1.71688616e-01,1.75562091e-02]
[-1.84042260e-01,1.16836421e-01,1.87065631e-01,-2.32486092e-02,6.44371212e-01,-9.81644094e-02,2.54988343e-01,9.57549065e-02,-2.07870722e-01,-3.97112250e-01,-1.19493328e-01,-6.23985752e-02,-2.26117554e-03,-2.07887986e-03,6.20301247e-01,-4.47596125e-02,-1.97100663e-03,2.28854239e-01,7.06183672e-01,6.29367232e-02,2.81029820e-01,8.29361975e-02,3.41364205e-01,-4.19961885e-02,-9.88647575e-04,-2.46981323e-01,-6.34684637e-02,2.55977307e-02,1.89704485e-02,-1.74331050e-02,-3.23514909e-01,1.27092242e-01,-1.62146598e-01,-3.73165868e-02,2.83244457e-02,1.74010441e-01,-4.77163009e-02,-1.21143609e-01,-2.18801722e-02,6.16039895e-02,9.46121011e-03,-3.20133939e-02,2.55194474e-02,-3.11167300e-01,-1.04532972e-01,4.19266999e-01,-5.98096810e-02,1.96055993e-02,-3.78374338e-01,-5.23267090e-01,1.10815568e-02,3.00294816e-01,-9.83916968e-02,-2.79223807e-02,2.29331125e-02,9.40077566e-03,4.61873636e-02,1.66529790e-01,-1.93221439e-02,-8.80860463e-02,1.48655418e-02,-1.00464530e-01,-1.45686483e+00,3.09414566e-01,7.41901621e-02,-3.29196751e-02,-1.09643757e-01,1.20066553e-01,-5.13057820e-02,-1.00322634e-01,1.15426615e-01,2.15984741e-03,1.24827651e-02,1.88830540e-01,3.48568976e-01,1.12732984e-01,2.22750939e-03,2.50799563e-02,-1.06644653e-01,-1.16678320e-01,-6.81484863e-02,-9.29291639e-03,-4.32548039e-02,-1.41514629e-01,-2.74442043e-03,-1.29940793e-01,1.70205552e-02,1.02209225e-01,1.00394279e-01,-4.75110896e-02,2.45311838e-02,-7.30745820e-03,3.82584967e-02,1.02497809e-01,1.39097944e-01,-2.71634459e-02,-1.71290725e-01,-1.86594427e-01,1.21603318e-01,4.59482558e-02,1.35614902e-01,-6.11262143e-01,1.79734588e-01,-1.60032660e-01,-2.99102794e-02,1.73314050e-01,5.26688434e-02,2.02216640e-01,1.28587455e-01,-9.10823494e-02,-3.19503546e-02,6.45425260e-01,2.01894030e-01,1.62591115e-02,-2.99665947e-02,5.77386975e-01,2.46132687e-02,-6.16740994e-02,9.09583420e-02,4.62284647e-02,-2.00787839e-02,-1.73646733e-02,-3.30982022e-02,-5.20276845e-01,1.24892175e-01,1.10199675e-01,-1.37305290e-01,-2.29267497e-02]
[-5.54683469e-02,2.69776344e-01,-4.58399877e-02,-5.62024295e-01,-2.69423202e-02,2.04205252e-02,1.21301793e-01,1.87698916e-01,-1.06545582e-01,4.70643528e-02,4.65324551e-01,-1.01572193e-01,4.02633436e-02,-5.20779975e-02,-2.47538672e-03,2.10907206e-01,-1.38250254e-02,1.28428057e-01,3.28440875e-01,-1.59554392e-01,-2.97134221e-01,7.45491385e-02,4.85114694e-01,-1.36639908e-01,-3.35995287e-01,-9.35082883e-02,-2.28186306e-02,1.27796218e-01,2.07119152e-01,-5.94347492e-02,-6.68833256e-01,2.03493625e-01,6.80139959e-01,-4.24527168e-01,-1.39192089e-01,2.93282401e-02,1.05109327e-01,-8.79902393e-02,-1.27266124e-02,1.15794525e-01,-3.61060128e-02,1.26368612e-01,3.44066229e-03,2.40329280e-01,-9.51307490e-02,-1.31449294e+00,7.01536909e-02,6.75417632e-02,4.14753765e-01,-1.04947214e-03,9.26511642e-03,-9.27364007e-02,2.82515734e-01,-1.36543317e-02,-1.71909798e-02,8.25967968e-01,6.34911582e-02,1.80533454e-02,1.89275324e-01,-4.09384072e-02,-2.52212100e-02,1.29342340e-02,-8.80489349e-02,-4.71119851e-01,-8.03367235e-03,1.58783391e-01,1.51952673e-02,2.14657448e-02,-5.01639917e-02,9.52590778e-02,1.71877686e-02,-7.66400173e-02,9.20950323e-02,3.18424143e-02,1.99871227e-01,-4.94189084e-01,3.83693799e-02,8.53698179e-02,1.69747099e-01,4.24613088e-01,-2.40408316e-01,2.31205486e-02,-7.81662166e-02,6.01905882e-01,-2.33272582e-01,2.66256243e-01,7.82560930e-02,3.26436050e-02,-4.38685030e-01,1.01363033e-01,-4.62436490e-02,2.98837245e-01,1.24968372e-01,2.35388353e-01,3.47533524e-02,-2.89817508e-02,-1.46622677e+01,-5.18157780e-01,1.40249014e-01,1.45661989e-02,9.96129364e-02,2.98040867e-01,-1.91901401e-01,3.10579635e-04,1.61383629e-01,2.36151014e-02,6.46047592e-02,5.25803901e-02,2.98300516e-02,-2.29427102e-03,9.39736813e-02,-2.50714362e-01,5.00406437e-02,1.56655714e-01,-3.48742753e-02,3.28788102e-01,-2.24618793e-01,1.01915011e-02,-2.26653926e-02,5.86316586e-02,1.78243534e-03,-1.47734836e-01,-4.71371651e-01,-3.02473158e-01,8.53641555e-02,-2.03502163e-01,-2.75845110e-01,1.81587532e-01]
[-2.26625544e-03,6.08684756e-02,-3.86679955e-02,1.56046599e-01,-3.89079601e-01,-1.28303636e-02,1.56667948e-01,6.18428215e-02,4.66227919e-01,-1.44464731e-01,-4.27858293e-01,-1.31028533e-01,7.74805760e-03,-8.30311701e-03,1.99635237e-01,-8.53912607e-02,3.85892063e-01,1.02458715e-01,-4.83770072e-01,-2.12747790e-02,-6.25055134e-02,-5.00585586e-02,3.80255640e-01,5.51561266e-02,-3.91389638e-01,-1.17795303e-01,3.95933576e-02,1.14024989e-01,4.20369387e-01,2.02001445e-03,-2.01368761e+00,2.45722756e-02,1.18834659e-01,2.14759022e-01,1.64405763e-01,1.33033216e-01,-8.01296812e-03,-6.32717088e-02,1.04104984e-03,2.07931876e-01,-1.62507854e-02,9.65272635e-02,9.77608189e-02,6.47792220e-01,-4.98835184e-02,1.32017761e-01,1.22901492e-01,1.38508156e-01,-2.10774597e-02,3.62461984e-01,1.33741617e-01,1.19134262e-01,-1.40378093e-02,-1.87924914e-02,4.28292304e-02,-2.20713705e-01,9.66056213e-02,6.46429285e-02,-5.19950204e-02,-2.44410828e-01,2.17413772e-02,6.73890933e-02,6.74657896e-02,-3.53018045e-02,6.01070039e-02,-4.85001365e-03,-9.84377488e-02,3.56120281e-02,-7.56861567e-02,-8.53063524e-01,1.08372681e-01,2.36568321e-02,1.52691379e-01,-2.74938017e-01,1.22975625e-01,2.91734636e-02,-8.81125480e-02,-4.07002540e-03,-9.88746993e-03,-1.31378889e-01,-2.29557276e-01,-2.84841526e-02,-1.22183532e-01,9.72925685e-03,-3.44246328e-02,-9.15422887e-02,3.18985134e-02,1.35005504e-01,4.86509085e-01,-9.17746574e-02,8.32167119e-02,-2.34432077e+00,2.43638419e-02,-7.53117166e-03,4.73836437e-02,1.58793911e-01,-3.79720062e-01,1.31620228e-01,1.65492464e-02,-1.58760101e-02,1.55383229e-01,5.17415330e-02,-1.33307934e-01,-5.55908941e-02,-2.11558845e-02,1.87473241e-02,-4.39296067e-02,3.52682680e-01,6.43287078e-02,7.97448680e-02,5.61601184e-02,-2.85822600e-01,1.25248097e-02,2.26431098e-02,-1.09584384e-01,-1.94510259e-02,-6.51428103e-02,5.89229316e-02,-7.93765411e-02,1.33714929e-01,7.06099123e-02,-3.01062129e-02,-8.35331157e-02,-1.51375443e-01,4.89777001e-03,6.24136664e-02,1.03591159e-01,-2.33196896e-02]
[1.34979740e-01,7.26011768e-02,6.61680102e-01,-1.00946516e-01,-2.74022251e-01,-1.15779713e-01,5.97405098e-02,-2.06332132e-02,2.36998290e-01,-5.20809591e-01,-2.24343523e-01,-2.12614745e-01,1.78272575e-01,7.09943995e-02,8.53540823e-02,1.56856887e-02,-5.15089989e-01,1.57546476e-01,1.60699263e-01,6.92138225e-02,3.20975818e-02,-5.80143668e-02,3.87339294e-01,8.67626518e-02,1.59137607e-01,-2.73148805e-01,1.69813305e-01,1.66362748e-01,1.97385401e-01,4.71122973e-02,-1.06292260e+00,-6.45474494e-02,-3.39190125e-01,-4.10400271e-01,-6.58132285e-02,8.82398561e-02,1.60621461e-02,1.22952953e-01,1.08995780e-01,2.18470216e-01,3.79321612e-02,7.43496791e-02,3.04551385e-02,-1.39575154e-01,1.14500515e-01,2.92922646e-01,1.18963875e-01,6.93374723e-02,-5.51247820e-02,1.65659383e-01,8.71214792e-02,2.26296306e-01,4.91366088e-02,-3.45785753e-04,-3.52860428e-02,4.97771710e-01,-1.32971525e-01,7.55578429e-02,5.21645583e-02,-7.78471380e-02,6.89771026e-03,-1.00574002e-01,1.55223250e-01,2.69538492e-01,3.84810008e-02,-1.60025582e-02,1.46844331e-02,7.47893974e-02,1.01440504e-01,-1.87154189e-01,2.49601919e-02,-4.43244241e-02,-1.22502446e-01,4.94582653e-02,9.75456089e-02,3.54826152e-01,-4.59379107e-02,1.20054498e-01,-2.89353821e-02,2.62941748e-01,-2.78440893e-01,-1.49075761e-01,8.60658407e-01,1.88449636e-01,1.03586920e-01,7.18834400e-02,-1.70303788e-02,-5.72157353e-02,-7.84805715e-02,-1.58323258e-01,-1.30657434e+00,4.81640846e-02,2.06562467e-02,1.55760506e-02,7.91991875e-02,7.34009668e-02,1.18179567e-01,3.93419832e-01,1.02732390e-01,-1.78312343e-02,-1.93243455e-02,1.65131073e-02,-2.94748675e-02,2.88679034e-01,8.49309191e-02,9.73779634e-02,6.00836352e-02,2.46292517e-01,1.38877958e-01,1.21433258e-01,2.50552222e-02,4.15382795e-02,-1.28846198e-01,-1.30196527e-01,-1.19900846e+01,6.93046749e-02,1.55054793e-01,1.00095607e-01,-6.83478490e-02,1.04630686e-01,8.01610202e-02,1.17174067e-01,-1.19386449e-01,-5.24032176e-01,-9.75161511e-03,-1.87643822e-02,-1.48919106e-01,-1.76041741e-02]
[5.32109551e-02,-1.03881778e-02,-1.11607820e-01,2.70039756e-02,1.92534089e-01,9.65676382e-02,1.58544168e-01,-3.72163877e-02,2.94332922e-01,-3.47075611e-01,-2.00317904e-01,1.47005841e-01,2.51792185e-02,-6.54855222e-02,8.41143206e-02,-1.00601517e-01,5.05495891e-02,8.27068239e-02,-5.42722046e-01,1.20658338e-01,-1.68128371e-01,2.14737616e-02,3.56319726e-01,6.77715614e-02,-7.47994184e-02,-1.35746822e-01,2.18558058e-01,1.18441500e-01,-3.98214912e+00,-3.04677039e-02,-1.28633869e+00,-1.83950597e-03,2.47251894e-02,1.26066357e-01,8.64961073e-02,1.88599154e-02,-1.36036202e-01,3.06947798e-01,7.59866238e-02,8.53980333e-02,2.26981163e-01,-1.28196720e-02,-1.13118522e-01,-2.72994518e-01,1.37108505e-01,3.19598679e-04,2.26059761e-02,4.37245592e-02,-2.22530574e-01,4.21980768e-02,4.70677949e-02,1.10151336e-01,-6.40490279e-02,-1.21680656e-02,-6.08758964e-02,4.84978631e-02,-3.27587038e-01,5.13101695e-03,-1.37547953e-02,-2.55838096e-01,6.29057363e-02,-3.91595624e-02,1.63976341e-01,8.12445208e-03,1.06742037e-02,-6.10030368e-02,-7.31709599e-02,7.46074989e-02,-5.83920926e-02,3.36482018e-01,3.52133848e-02,4.47780751e-02,-1.58426479e-01,9.37869325e-02,3.41085345e-01,4.76250052e-03,1.61383614e-01,9.07082483e-02,6.04240596e-02,-8.95798653e-02,-2.90988654e-01,2.58454140e-02,-1.23035498e-02,-1.13402724e-01,-2.12043300e-02,-8.08250159e-02,-5.63880317e-02,3.70725282e-02,-5.31096756e-01,-8.22493210e-02,1.71724454e-01,-1.41518069e-02,-5.71534112e-02,3.12116314e-02,8.85304883e-02,3.29605229e-02,1.56413749e-01,1.25826761e-01,-5.21800891e-02,-1.48664638e-01,1.70342267e-01,1.30300760e-01,2.72940546e-01,-3.32965739e-02,1.08524941e-01,-2.45408416e-02,2.07013520e-03,5.31859547e-02,2.22446993e-01,2.02090368e-01,4.82890103e-03,-2.87648767e-01,8.28585960e-03,-1.85488034e-02,-3.48782688e-01,-2.92358816e-01,1.39093744e-02,1.97719127e-01,1.89284533e-01,1.06208622e-01,-3.78686041e-02,-1.11287825e-01,6.65581644e-01,-3.16213757e-01,3.55409756e-02,7.82905519e-02,8.53021815e-02,3.05811269e-03]
[1.36046946e-01,3.34157795e-02,1.97942238e-02,-6.36057481e-02,-6.05966389e-01,-4.66718562e-02,5.24223410e-03,5.01964753e-03,-1.06767285e+00,5.73043406e-01,-1.24129608e-01,-3.45493443e-02,6.83249757e-02,-6.32976517e-02,4.58133640e-03,6.42080247e-01,2.43147552e-01,-2.62213009e-03,-5.71777582e-01,-3.26265156e-01,-3.28848779e-01,4.45659608e-02,2.54899800e-01,-1.84504781e-02,-3.86519104e-01,-1.55515417e-01,4.47960906e-02,4.32558637e-03,2.85695821e-01,4.34019938e-02,-3.46140057e-01,-1.29457518e-01,5.16546667e-02,2.84072399e-01,-1.58448331e-02,1.54699564e-01,1.65598944e-01,2.42150813e-01,2.65809596e-02,2.24961907e-01,-1.20880060e-01,9.39883590e-02,-4.28450145e-02,-7.56934941e-01,1.50353596e-01,1.61775500e-01,2.93587912e-02,-6.33796751e-02,-5.42600989e-01,-2.81285554e-01,1.19398072e-01,-9.16089416e-01,-1.05832152e-01,-2.82743275e-02,-3.09747066e-02,-1.31355718e-01,-6.50334644e+00,5.64188622e-02,2.26367097e-02,-8.87489691e-02,1.32150158e-01,3.96226607e-02,1.84736952e-01,-3.55825692e-01,-2.66998652e-02,4.85953242e-02,-8.10213201e-03,-6.97892439e-03,3.95604782e-02,1.92282110e-01,-2.92747485e-04,1.61590189e-01,-8.44366923e-02,1.70416966e-01,-7.22768724e-01,8.43310803e-02,1.69421136e-01,2.21131053e-02,-6.24405369e-02,1.59537827e-03,-7.56684124e-01,-1.97776288e-01,-6.35900438e-01,-3.36702820e-03,1.23877205e-01,8.73591781e-01,1.14691537e-02,1.19081862e-01,2.25995138e-01,1.24925740e-01,-3.01744044e-01,3.93794328e-01,-5.41161187e-02,5.25150225e-02,2.03284770e-02,2.40905046e-01,-9.90778115e-03,3.42028588e-01,4.33361679e-02,-1.87530041e-01,8.90171304e-02,-2.24569991e-01,4.29665148e-02,1.05896510e-01,-5.82900822e-01,-1.36764035e-01,-8.89237076e-02,1.46674663e-01,7.91543201e-02,1.63654134e-01,7.99396262e-02,3.15705895e-01,-1.48631886e-01,6.41976595e-02,3.46575789e-02,4.48163718e-01,9.48994309e-02,6.41829669e-02,1.26307338e-01,1.50215611e-01,1.01623431e-01,1.99812204e-01,-1.08455859e-01,-1.76529139e-01,4.73576151e-02,1.46255404e-01,-3.63359541e-01,4.45217229e-02]
